tree
version=v4
num_class=1
num_tree_per_iteration=1
label_index=0
max_feature_idx=200
objective=regression
feature_names=Column_0 Column_1 Column_2 Column_3 Column_4 Column_5 Column_6 Column_7 Column_8 Column_9 Column_10 Column_11 Column_12 Column_13 Column_14 Column_15 Column_16 Column_17 Column_18 Column_19 Column_20 Column_21 Column_22 Column_23 Column_24 Column_25 Column_26 Column_27 Column_28 Column_29 Column_30 Column_31 Column_32 Column_33 Column_34 Column_35 Column_36 Column_37 Column_38 Column_39 Column_40 Column_41 Column_42 Column_43 Column_44 Column_45 Column_46 Column_47 Column_48 Column_49 Column_50 Column_51 Column_52 Column_53 Column_54 Column_55 Column_56 Column_57 Column_58 Column_59 Column_60 Column_61 Column_62 Column_63 Column_64 Column_65 Column_66 Column_67 Column_68 Column_69 Column_70 Column_71 Column_72 Column_73 Column_74 Column_75 Column_76 Column_77 Column_78 Column_79 Column_80 Column_81 Column_82 Column_83 Column_84 Column_85 Column_86 Column_87 Column_88 Column_89 Column_90 Column_91 Column_92 Column_93 Column_94 Column_95 Column_96 Column_97 Column_98 Column_99 Column_100 Column_101 Column_102 Column_103 Column_104 Column_105 Column_106 Column_107 Column_108 Column_109 Column_110 Column_111 Column_112 Column_113 Column_114 Column_115 Column_116 Column_117 Column_118 Column_119 Column_120 Column_121 Column_122 Column_123 Column_124 Column_125 Column_126 Column_127 Column_128 Column_129 Column_130 Column_131 Column_132 Column_133 Column_134 Column_135 Column_136 Column_137 Column_138 Column_139 Column_140 Column_141 Column_142 Column_143 Column_144 Column_145 Column_146 Column_147 Column_148 Column_149 Column_150 Column_151 Column_152 Column_153 Column_154 Column_155 Column_156 Column_157 Column_158 Column_159 Column_160 Column_161 Column_162 Column_163 Column_164 Column_165 Column_166 Column_167 Column_168 Column_169 Column_170 Column_171 Column_172 Column_173 Column_174 Column_175 Column_176 Column_177 Column_178 Column_179 Column_180 Column_181 Column_182 Column_183 Column_184 Column_185 Column_186 Column_187 Column_188 Column_189 Column_190 Column_191 Column_192 Column_193 Column_194 Column_195 Column_196 Column_197 Column_198 Column_199 Column_200
feature_infos=[-3:0.87761282920837402] [-3:3] [-0.75095486640930176:3] [-0.89595323801040649:3] [-0.84962671995162964:3] [-0.92362266778945923:3] [-0.42057403922080994:3] [-3:3] [-3:3] [-3:0.90269839763641357] [-0.18001513183116913:3] [-0.42222186923027039:3] [-3:0.56359177827835083] [-3:0.8387610912322998] [-3:3] [-3:0.65268993377685547] [-0.75004488229751587:3] [-0.86091154813766479:3] [-0.23079770803451538:3] [-2.6469686031341553:3] [-3:0.39721038937568665] [-0.23919504880905151:3] [-3:0.61800819635391235] [-0.90760999917984009:3] [-3:3] [-0.83790147304534912:3] [-0.56539750099182129:3] [-0.78562712669372559:3] [-0.89602512121200562:3] [-3:3] [-3:0.94454663991928101] [-0.76497077941894531:3] [-3:1.9040869474411011] [-3:1.6493949890136719] [-0.60044485330581665:3] [-3:0.76912111043930054] [-3:0.52812260389328003] [-0.74165934324264526:3] [-0.74225175380706787:3] [-0.76902419328689575:3] [-0.24616599082946777:3] [-3:1.3240996599197388] [-3:0.44801396131515503] [-0.6416318416595459:3] [-0.82993358373641968:3] [-3:3] [-3:3] [-3:0.73850172758102417] [-3:0.17841975390911102] [-0.69625186920166016:3] [-3:0.23687995970249176] [-0.87069123983383179:3] [-0.26861393451690674:3] [-0.22883462905883789:3] [-3:3] [-3:0.27039101719856262] [-0.77022987604141235:3] [-3:3] [-3:3] [-3:0.67032819986343384] [-2.2296593189239502:3] [-3:1.0186984539031982] [-3:3] [-0.1347062885761261:3] [-0.081830509006977081:3] [-3:3] [-0.45495140552520752:3] [-3:0.7260124683380127] [-0.77553004026412964:3] [-3:3] [-3:3] [-3:3] [-0.86238235235214233:3] [-3:3] [-3:3] [-0.82693600654602051:3] [-0.60473281145095825:3] [-3:0.52042388916015625] [-0.65207058191299438:3] [-3:0.74936836957931519] [-3:0.50194865465164185] [-3:0.23822674155235291] [-3:0.80969405174255371] [-0.43032222986221313:3] [-0.63755875825881958:3] [-2.3508837223052979:3] [-3:1.182655930519104] [-3:3] [-3:3] [-3:3] [-3:0.12707187235355377] [-3:3] [-3:3] [-1.7792893648147583:3] [-3:3] [-3:0.23231753706932068] [-0.68249046802520752:3] [-3:3] [-3:0.56338024139404297] [-0.67329001426696777:3] [-3:0.57551479339599609] [-3:0.23984897136688232] [-0.20051005482673645:3] [-0.24113330245018005:3] [-3:2.8631186485290527] [-3:0.78329098224639893] [-3:3] [-3:3] [-3:3] [-0.97916585206985474:3] [-2.0307407379150391:3] [-0.22111369669437408:3] [-3:3] [-3:3] [-3:1.7148902416229248] [-0.25898474454879761:3] [-3:0.72377860546112061] [-3:0.22750996053218842] [-0.87503558397293091:3] [-3:3] [-0.24132126569747925:3] [-0.63985121250152588:3] [-0.14193084836006165:3] [-1.090823769569397:3] [-3:3] [-3:3] [-3:2.0173678398132324] [-0.81564837694168091:3] [-0.61088055372238159:3] [-1.0317572355270386:3] [-0.64574718475341797:3] [-0.87355947494506836:3] [-0.22494231164455414:3] [-3:0.71741324663162231] [-1.3248451948165894:3] [-3:0.99538147449493408] [-0.63678497076034546:3] [-0.76452136039733887:3] [-0.44815945625305176:3] [-0.85213232040405273:3] [-3:0.67077535390853882] [-3:0.52953749895095825] [-0.21981455385684967:3] [-3:3] [-3:0.99650931358337402] [-3:3] [-0.28158947825431824:3] [-1.3072881698608398:3] [-3:0.9977988600730896] [-0.76836377382278442:3] [-0.21055871248245239:3] [-0.57337629795074463:3] [-0.22373026609420776:3] [-3:0.069076083600521088] [-3:0.10966638475656509] [-0.37331697344779968:3] [-0.23274773359298706:3] [-0.55561453104019165:3] [-3:0.58912163972854614] [-3:0.12653322517871857] [-0.55957263708114624:3] [-3:0.95454913377761841] [-3:3] [-3:0.43377169966697693] [-0.12023362517356873:3] [-3:3] [-0.75260555744171143:3] [-3:2.7248337268829346] [-3:0.7430034875869751] [-3:0.20060357451438904] [-1.00396728515625:3] [-3:3] [-0.50635093450546265:3] [-3:1.2588554620742798] [-3:0.82993340492248535] [-0.89503931999206543:3] [-0.18107590079307556:3] [-2.0939385890960693:3] [-1.0542497634887695:3] [-3:0.56997102499008179] [-2.1081593036651611:3] [-3:1.0022602081298828] [-1.2751326560974121:3] [-0.87471657991409302:3] [-3:0.57007294893264771] [-0.15296253561973572:3] [-3:0.78314614295959473] [-3:3] [-0.59218823909759521:3] [-1.5856683254241943:3] [-3:0.87471652030944824] [-3:3] [-3:0.28899818658828735] [-0.13435414433479309:3] [-0.57097852230072021:3] [-0.71363186836242676:3] [-3:3] [-0.72300827503204346:3] [-3:3] [-0.43565079569816589:3] [-0.30205893516540527:3]
tree_sizes=2928 2955 2929 2968 2946 2996 2970 2912 2967 2898 2943 2971 2897 2955 2890 2563 2904 2945 2729 2948 2889 2907 2902 2943 2913 2951 2907 2901 2902 2891 2883 2890 2956 2905 2943 2930 2909 2948 2933 3005 2931 2902 2927 2910 2969 2971 2959 2952 2937 2922 2919 2970 2852 2914 3006 2884 2953 2838 2949 2947 2910 2954 2982 2921 2969 2926 2874 2885 2891 2941 2922 2888 2864 2965 2954 2969 2944 2892 2964 2935 2929 2911 2915 2965 2896 2917 2932 2930 2910 2890 2944 2892 2897 2924 2877 2906 2913 2946 2922 2892

Tree=0
num_leaves=31
num_cat=0
split_feature=181 161 7 138 104 56 5 179 6 59 42 143 49 25 32 60 55 122 31 21 153 186 72 42 181 104 198 56 95 91
split_gain=239.744 171.717 156.267 119.927 119.778 112.64 131.746 126.546 161.21 103.418 99.7983 89.9956 87.8931 87.6886 104.917 86.1278 83.2901 74.455 280.038 69.5162 68.4346 62.3531 59.4443 56.4248 53.4536 47.6981 38.2089 37.1462 36.4557 33.0199
threshold=0.80855539441108715 0.53435391187667858 -0.013098368886858223 -0.41770227253437037 -1.2354789376258848 -0.53979954123496998 0.75672718882560741 -1.2783458828926084 0.38784068822860723 0.086849398910999312 0.3962081670761109 -0.13030599802732465 0.85771557688713085 0.20376347750425342 -0.71548727154731739 -0.68601968884468068 0.077960524708032622 -0.08781083300709723 0.25811040401458746 -0.18759097158908841 0.063417136669158949 -0.19420046359300611 0.16284933686256411 0.42033162713050848 0.52102336287498485 0.68792575597763073 0.033246086910367019 -0.7188839018344878 0.064427651464939131 -0.41478750109672541
decision_type=2 2 2 2 2 2 2 2 2 2 2 2 2 2 2 2 2 2 2 2 2 2 2 2 2 2 2 2 2 2
left_child=1 3 15 9 22 6 16 8 -7 13 -8 -9 17 14 -1 -3 -5 18 -4 23 25 -15 27 28 -19 -17 -21 -2 -6 -25
right_child=4 2 12 5 19 7 10 11 -10 -11 -12 -13 -14 21 -16 20 -18 24 -20 26 -22 -23 -24 29 -26 -27 -28 -29 -30 -31
leaf_value=0.064252677878052583 0.051781909466739023 -0.010172551045931134 0.032770671537271714 0.0063656726539484433 -0.047740766276292507 0.049576556329713591 -0.0007323125810668081 0.041649406640482958 0.36616064425477274 -0.072915706429254601 -0.04352737829564414 0.004665396086923874 -0.1244181024221748 -0.15864289803150833 0.017141140607064696 0.017644098178151865 -0.026796290121836902 0.011200754891254053 0.39960172475984118 -0.016549867957473798 0.046191156292631125 0.01904753463568136 -0.15773500930581438 -0.043718032442743582 0.044246209910580536 -0.00044336035666826725 0.025616416724041205 -0.054449418679858613 0.025655888870159162 0.025956927005452962
leaf_weight=812 33 2330 4676 4612 739 75 881 666 20 96 1453 48187 38 39 1146 3089 904 3484 20 338 544 37 55 92 571 2753 583 641 72 252
leaf_count=812 33 2330 4676 4612 739 75 881 666 20 96 1453 48187 38 39 1146 3089 904 3484 20 338 544 37 55 92 571 2753 583 641 72 252
internal_value=0.00593549 0.00707122 0.0157682 0.00448923 -0.0226907 0.00361395 -0.00750599 0.00539947 0.120123 0.0277752 -0.0274238 0.00517222 0.0251765 0.0326089 0.036746 0.00626901 0.000943381 0.0258511 0.0344325 -0.0103691 0.0122843 -0.0718073 -0.0575825 -0.0267087 0.0158853 0.0091046 0.0100314 -0.0490502 -0.0410922 0.0069621
internal_weight=0 76433 17505 58928 2805 56798 7850 48948 95 2130 2334 48853 8789 2034 1958 8716 5516 8751 4696 2076 6386 76 729 1155 4055 5842 921 674 811 344
internal_count=79238 76433 17505 58928 2805 56798 7850 48948 95 2130 2334 48853 8789 2034 1958 8716 5516 8751 4696 2076 6386 76 729 1155 4055 5842 921 674 811 344
is_linear=0
shrinkage=1


Tree=1
num_leaves=31
num_cat=0
split_feature=181 161 7 37 104 138 107 42 91 112 84 134 78 64 122 127 187 24 86 21 94 134 22 5 101 72 159 61 147 142
split_gain=194.328 139.159 128.412 97.6684 97.0847 92.8531 108.754 173.04 101.061 81.2385 77.6813 78.9325 76.7478 70.9659 66.2359 187.331 62.9411 62.6941 56.3839 56.29 52.3676 148.421 54.888 51.2926 48.7382 44.287 39.2693 38.9815 37.6459 36.4443
threshold=0.80855539441108715 0.53435391187667858 -0.0025972407311201091 -0.29577377438545221 -1.2354789376258848 -0.41770227253437037 -0.27987477183341974 0.40007674694061285 -0.34729854762554163 -2.1935288906097408 -0.015485497657209633 -0.86650651693344105 -0.48941157758235926 -0.064063984900712953 -0.08781083300709723 0.28595851361751562 0.77559575438499462 0.075305812060832991 0.91528147459030162 -0.18759097158908841 1.4859642386436465 -0.88723096251487721 0.30699387192726141 0.67220482230186474 0.2060782462358475 0.16284933686256411 0.058034664019942291 0.90339764952659618 -0.84880715608596791 -0.0056075947359204284
decision_type=2 2 2 2 2 2 2 2 2 2 2 2 2 2 2 2 2 2 2 2 2 2 2 2 2 2 2 2 2 2
left_child=1 3 13 12 24 10 7 -7 -8 -4 11 -5 -1 17 15 -11 -15 -3 -12 23 22 -22 -14 26 -2 -26 -6 -19 -16 -21
right_child=4 2 9 5 19 6 8 -9 -10 14 18 -13 20 16 28 -17 -18 27 -20 29 21 -23 -24 -25 25 -27 -28 -29 -30 -31
leaf_value=0.020440164079830212 -0.021309013294958819 0.022891791072174355 -0.16182354958298689 -0.00028877841758914247 -0.025335294796161985 -0.0047201428217555474 0.012966076297246965 -0.050636237933068956 -0.00046432252810515545 0.025499750342842117 -0.070674359114638069 0.044018097958763526 -0.0058601794202643729 -0.009001973411928094 0.033509020312947384 0.31883313153490667 0.038668930330757953 -0.0054840224768703365 0.098144134468843347 -0.016800986129198409 0.27237870634975797 0 -0.018967198060856429 -0.064293266048438283 -0.066163206451574308 -0.17615822022236857 0.035767126239778173 0.082412395015344586 0.0048586201610252931 0.022930161566581203
leaf_weight=867 255 2099 24 612 725 4661 6897 997 29779 4321 131 1148 8564 5204 535 21 291 1675 22 444 24 99 5127 309 433 41 121 51 3284 477
leaf_count=867 255 2099 24 612 725 4661 6897 997 29779 4321 131 1148 8564 5204 535 21 291 1675 22 444 24 99 5127 309 433 41 121 51 3284 477
internal_value=0 0.00102322 0.00885245 -0.00130101 -0.0257719 0.00104217 6.58874e-05 -0.012835 0.00205897 0.0179917 0.0225865 0.0285656 -0.00836918 0.000814999 0.0185509 0.0270098 -0.00645392 0.0112814 -0.0453269 -0.0146726 -0.0101855 0.0544017 -0.0107764 -0.0293767 -0.0571894 -0.0762109 -0.0164536 -0.00278793 0.00890443 0.00367577
internal_weight=0 76433 17505 58928 2805 44247 42334 5658 36676 8185 1913 1760 14681 9320 8161 4342 5495 3825 153 2076 13814 123 13691 1155 729 474 846 1726 3819 921
internal_count=79238 76433 17505 58928 2805 44247 42334 5658 36676 8185 1913 1760 14681 9320 8161 4342 5495 3825 153 2076 13814 123 13691 1155 729 474 846 1726 3819 921
is_linear=0
shrinkage=0.1


Tree=2
num_leaves=31
num_cat=0
split_feature=182 5 196 23 91 32 134 62 109 5 61 21 108 115 24 101 108 112 101 154 69 123 108 43 136 30 7 178 32 93
split_gain=172.349 147.24 140.526 133.373 152.37 136.11 187.512 116.923 114.119 108.672 102.286 97.4108 96.7255 94.3526 80.1621 173.434 196.034 180.252 79.1432 71.4719 79.3141 77.5966 68.8817 84.9534 63.2346 62.2371 59.9539 58.3951 56.0817 89.0171
threshold=-0.81857135891914357 2.7536520957946782 -0.42261114716529841 -0.09920324012637137 -0.68116945028305043 -2.3193792104721065 0.43213470280170446 -1.0563153624534605 2.4252064228057866 2.4029757976531987 0.7478308677673341 -0.2246700972318649 0.57875633239746105 -0.085709575563669191 0.17769344151020053 0.21046798676252368 -0.32281355559825892 -0.30999952554702753 0.21993874013423922 0.066741116344928755 -1.7430337667465208 -0.60022416710853566 1.0947308540344241 1.2495977282524111 1.5831015706062319 0.54625198245048534 0.055126689374446876 2.5106828212738042 -0.89141932129859913 -0.9122936725616454
decision_type=2 2 2 2 2 2 2 2 2 2 2 2 2 2 2 2 2 2 2 2 2 2 2 2 2 2 2 2 2 2
left_child=3 10 -3 8 5 6 7 -5 19 13 14 -10 26 -7 15 16 -2 -17 25 22 21 -21 23 -1 -24 -16 -12 -22 29 -14
right_child=1 2 -4 4 -6 9 -8 -9 11 -11 12 -13 28 -15 18 17 -18 -19 -20 20 27 -23 24 -25 -26 -27 -28 -29 -30 -31
leaf_value=-0.0061582407628247545 -0.010689539288738181 0.31082495537573451 0.054902584930829924 0.40706298886301212 -0.012924008680447184 0.07750070947065496 -0.028381382791402537 0.14300266953830626 0.058299520185761955 -0.058311870065905928 0.0032332113735022041 -0.052562242016082818 0.30023509917063707 -0.0010753661010085565 -0.0081108147655755778 0.026438710830519359 0.0041535072952201945 -0.0014057686332226498 -0.024428229201913634 0.17468565870492983 -0.015832429709010866 0.031187757441233272 -0.04961366598997969 -0.050633974185697594 0.040587620477082829 0.0085479031711200876 0.025504023398426279 0.053046216825281739 0.037435186431590897 0.052348689936611341
leaf_weight=3110 13384 24 173 22 1307 324 51 80 83 134 4916 1261 21 284 7789 5308 26535 4125 2122 46 777 209 921 499 83 3144 1608 145 705 48
leaf_count=3110 13384 24 173 22 1307 324 51 80 83 134 4916 1261 21 284 7789 5308 26535 4125 2122 46 777 209 921 499 83 3144 1608 145 705 48
internal_value=0 0.00177149 0.0879029 -0.0126937 0.00878732 0.0405793 0.126299 0.20411 -0.0193377 0.0226371 0.00152551 -0.0456089 0.0127268 0.040697 0.000213914 0.00205874 -0.00082081 0.0142535 -0.00675248 -0.0132166 0.00871821 0.0579971 -0.0188345 -0.0123457 -0.0420309 -0.00331126 0.00873987 -0.00485372 0.0461578 0.132203
internal_weight=0 69902 197 9336 2202 895 153 102 7134 742 69705 1344 7298 608 62407 49352 39919 9433 13055 5790 1177 255 4613 3609 1004 10933 6524 922 774 69
internal_count=79238 69902 197 9336 2202 895 153 102 7134 742 69705 1344 7298 608 62407 49352 39919 9433 13055 5790 1177 255 4613 3609 1004 10933 6524 922 774 69
is_linear=0
shrinkage=0.1


Tree=3
num_leaves=31
num_cat=0
split_feature=22 79 147 96 158 123 162 5 22 68 93 143 93 32 181 87 161 39 53 45 152 95 76 21 53 37 50 171 7 130
split_gain=150.97 110.946 173.202 153.987 144.34 125.093 118.297 114.178 113.236 111.739 114.72 104.945 98.8758 96.139 125.13 91.4964 115.976 107.052 93.8579 92.9167 134.097 91.3219 89.4708 84.7406 77.3401 75.7515 75.1191 71.6806 71.0767 69.0862
threshold=0.29710783064365393 0.23825060576200488 -0.16930293291807172 -0.60436701774597157 -1.6681425571441648 1.7676879763603213 -2.998282670974731 0.84920358657836925 0.46836136281490331 -0.66280987858772267 -0.10706021264195441 0.031854011118412025 0.25930793583393102 -1.9107544422149656 -1.0000000180025095e-35 1.0000000180025095e-35 -1.1185227036476133 -0.69102793931961048 -0.15305572003126142 -2.8966090679168697 -0.094456654042005525 0.15076632797718051 -0.45281344652175898 -0.10930224508047102 -0.16526817530393598 -0.24145855009555814 -0.066713780164718614 0.095213387161493315 0.049685280770063407 -0.20437265187501905
decision_type=2 2 2 2 2 2 2 2 2 2 2 2 2 2 2 2 2 2 2 2 2 2 2 2 2 2 2 2 2 2
left_child=15 2 7 23 -5 -6 -3 9 12 10 -2 13 -9 14 -8 16 17 -1 -18 20 -20 22 -17 -4 -15 28 -11 -21 -24 -13
right_child=1 6 3 4 5 -7 11 8 -10 26 -12 29 -14 24 -16 21 18 -19 19 27 -22 -23 25 -25 -26 -27 -28 -29 -30 -31
leaf_value=0.24674463566747737 -0.0050208964989110491 -0.13647885790061776 -0.10836377844467693 0.26728793185103167 0.018038249327435904 0.16050575118366928 -0.03791247766822653 -0.062084156532553725 -0.0034625704936475004 -0.024205561349272289 0.027078192763725358 -0.023734606834342673 -0.019398775148191629 0.10483735798350334 0.078179949714219543 0.069220424481163487 0.02889052971897911 0.04334845120588849 0 0.00050074478238417081 -0.29215092977477802 -0.0090984312871990394 -0.0021650935371278972 0.055648789358079355 -0.012575871803854471 0.017255711884999848 -0.0033237427698323734 -0.015583000487993574 0.018009134619528067 -0.068607904676577833
leaf_weight=30 2094 81 141 23 3518 62 136 845 2314 1969 2366 2004 1546 56 283 265 1022 176 39 20075 26 2427 5827 39 3230 8629 13896 3212 2489 418
leaf_count=30 2094 81 141 23 3518 62 136 845 2314 1969 2366 2004 1546 56 283 265 1022 176 39 20075 26 2427 5827 39 3230 8629 13896 3212 2489 418
internal_value=0 -0.00484185 -0.00222521 0.0177095 0.0222453 0.020574 -0.0169689 -0.00524248 -0.0192808 -0.00198733 0.0119883 -0.0153525 -0.0345425 -0.00473818 0.0402717 0.00394729 -0.000114825 0.074425 -0.000751581 -0.00205406 -0.120604 0.0090365 0.0115998 -0.0721971 -0.0105163 0.0106893 -0.00592266 -0.00171417 0.00386305 -0.0315421
internal_weight=0 35021 28813 3783 3603 3580 6208 25030 4705 20325 4460 6127 2391 3705 419 44217 24580 206 24374 23352 65 19637 17210 180 3286 16945 15865 23287 8316 2422
internal_count=79238 35021 28813 3783 3603 3580 6208 25030 4705 20325 4460 6127 2391 3705 419 44217 24580 206 24374 23352 65 19637 17210 180 3286 16945 15865 23287 8316 2422
is_linear=0
shrinkage=0.1


Tree=4
num_leaves=31
num_cat=0
split_feature=50 83 45 24 56 81 130 153 137 167 81 182 32 196 32 91 159 34 104 139 5 57 158 30 169 125 198 125 54 172
split_gain=127.633 111.54 115.353 107.804 94.1425 92.53 165.094 88.42 80.48 75.402 73.3303 69.5675 70.6949 178.942 108.185 69.7335 71.2527 66.4797 61.9289 65.683 101.575 57.8567 47.9421 43.4051 37.2971 37.0014 34.7672 28.4996 27.0605 24.4677
threshold=-0.040926035493612282 -0.23854292929172513 -2.8966090679168697 0.056688811630010612 -0.7188839018344878 0.21332699060440066 -0.23908028751611707 0.050593206658959396 -0.16149177402257917 -2.2924782037734981 0.10794043540954591 -1.0876319408416746 -1.9107544422149656 -0.63370791077613819 -1.3230012655258176 -0.91802409291267384 0.061385987326502807 -0.50653713941574086 -1.2642664909362791 -0.65058028697967518 0.16688920557498935 -0.0040590115822851649 -0.56137558817863453 0.78279635310173046 0.10571068152785303 -1.3642665743827818 0.15075284987688067 0.39703682065010076 0.6737901270389558 -0.20513881742954251
decision_type=2 2 2 2 2 2 2 2 2 2 2 2 2 2 2 2 2 2 2 2 2 2 2 2 2 2 2 2 2 2
left_child=4 2 -2 10 7 8 -7 29 -5 -3 21 15 13 -13 -14 16 -11 25 23 20 -20 -4 -21 27 -12 -6 -17 -19 -9 -1
right_child=1 9 3 5 17 6 -8 28 -10 11 24 12 14 -15 -16 26 -18 18 19 22 -22 -23 -24 -25 -26 -27 -28 -29 -30 -31
leaf_value=0.083364723407854432 -0.16461080904672382 0.15868741105051651 0.020830336425028354 -0.010791585199405318 0.067988778801007274 0.018101890388463101 0.26823703417751477 0.022640640944653498 0.0045117122747883633 -0.1748678003013176 -0.020528836353166505 0.18819177511555557 -0.024559888814670423 0.010073481668984868 -0.0020671417028345642 -0.03002654380959446 -0.0025307665510875422 -0.040820512657906531 -0.016424267261619368 0.0015253821980389089 -0.092774623509624371 0.0084401065342433104 -0.029168231685360219 0.047761965708493885 0.0062835710880337894 -0.00016381481390139133 0.10906105213257611 -0.086149288144682076 -0.062499487797441022 0.2109074412780616
leaf_weight=89 39 28 5523 7237 105 1464 26 106 6532 70 1069 57 2277 2250 35251 97 38 344 485 1346 275 12022 812 38 999 310 21 252 56 20
leaf_count=89 39 28 5523 7237 105 1464 26 106 6532 70 1069 57 2277 2250 35251 97 38 344 485 1346 275 12022 812 38 999 310 21 252 56 20
internal_value=0 0.0010106 0.00514397 0.00534103 -0.0168251 -0.000956871 0.0226985 0.0399862 -0.00352501 -0.00258656 0.0102455 -0.00270541 -0.00238833 0.0145911 -0.003435 -0.0579319 -0.115653 -0.0207387 -0.0251741 -0.0189572 -0.0442572 0.0123468 -0.00998759 -0.0535667 -0.00753357 0.0169671 -0.00380168 -0.0602521 -0.0064003 0.109251
internal_weight=0 75000 34911 34872 4238 15259 1490 271 13769 40089 19613 40061 39835 2307 37528 226 108 3967 3552 2918 760 17545 2158 634 2068 415 118 596 162 109
internal_count=79238 75000 34911 34872 4238 15259 1490 271 13769 40089 19613 40061 39835 2307 37528 226 108 3967 3552 2918 760 17545 2158 634 2068 415 118 596 162 109
is_linear=0
shrinkage=0.1


Tree=5
num_leaves=31
num_cat=0
split_feature=22 42 159 79 18 123 182 198 143 101 7 37 108 101 108 152 8 53 32 61 125 7 196 104 142 177 171 13 32 93
split_gain=110.11 100.77 106.815 131.376 154.247 148.55 112.431 102.127 94.7037 90.0178 83.304 103.361 133.254 116.14 130.539 104.688 80.9505 76.8113 72.5387 70.7068 64.0038 62.8511 60.2037 55.9706 54.9712 52.3298 49.659 44.6361 54.4712 62.5215
threshold=0.29710783064365393 0.42696128785610205 0.060054006054997451 0.2307550981640816 -0.19137859344482419 1.7676879763603213 -0.74378186464309681 -0.30474115908145899 0.040031777694821365 0.20280665159225467 0.050237094983458526 -0.27855427563190455 0.35200643539428716 0.20938024669885638 -0.77384138107299794 -0.095473803579807268 -1.1030265688896177 -0.074675556272268281 0.1353726536035538 0.67216628789901745 -0.59687292575836171 0.0067752252798527488 0.10001531615853311 -1.1576574444770811 -0.099327202886342988 -0.15302380919456479 -0.38986743986606592 0.60473033785820018 -0.046676483005285256 -1.1963328123092649
decision_type=2 2 2 2 2 2 2 2 2 2 2 2 2 2 2 2 2 2 2 2 2 2 2 2 2 2 2 2 2 2
left_child=10 2 6 4 -4 -6 7 -2 17 -9 11 27 13 14 -13 26 -3 -5 22 -12 -15 -8 25 -10 -17 -18 -14 28 29 -1
right_child=1 16 3 8 5 -7 21 9 23 -11 19 12 15 20 -16 24 18 -19 -20 -21 -22 -23 -24 -25 -26 -27 -28 -29 -30 -31
leaf_value=0.13180842697993386 0.0080060154893397909 -0.1521504704689747 0.17021005879867282 -0.0059139588761877955 0.0018705249658089518 0.17634934945539993 -0.016822237209878729 -0.0059619910602535823 -0.058917718841063671 -0.044019724887636232 0.0057400356260977718 -0.029422846204716364 0.10062422374341809 0.051034229136446355 0.0015173343179635389 0.059292800810692596 0.068581233001679814 0.16035902607846131 -0.0080836468035454436 0.023871283644789763 0.01173541994119949 0.0034620069071784098 -0.015190409251844762 -0.021568940906290423 0.024759848110516201 0.0088026365496768014 -0.0076548407174996894 -0.092574964763225354 -0.0092319128344250725 0.0054851143513732544
leaf_weight=39 686 25 54 3906 17211 48 2708 842 532 2443 7103 1507 43 624 14215 589 566 27 428 3098 1260 3489 153 1704 2237 203 1125 59 9837 2321
leaf_count=39 686 25 54 3906 17211 48 2708 842 532 2443 7103 1507 43 624 14215 589 566 27 428 3098 1260 3489 153 1704 2237 203 1125 59 9837 2321
internal_value=0 -0.00417662 -0.0052634 -0.00155121 0.00290926 0.00237096 -0.013826 -0.0269661 -0.0140832 -0.0342984 0.00333527 0.000945221 0.00510965 0.00136246 -0.00144393 0.0215997 0.0223359 -0.0047099 0.0257422 0.0112574 0.0248211 -0.00538781 0.0415395 -0.0305189 0.0320084 0.0529546 -0.00350873 -0.00638626 -0.00595438 0.0076651
internal_weight=0 35025 33650 23482 17313 17259 10168 3971 6169 3285 44057 33856 21600 17606 15722 3994 1375 3933 1350 10201 1884 6197 922 2236 2826 769 1168 12256 12197 2360
internal_count=79082 35025 33650 23482 17313 17259 10168 3971 6169 3285 44057 33856 21600 17606 15722 3994 1375 3933 1350 10201 1884 6197 922 2236 2826 769 1168 12256 12197 2360
is_linear=0
shrinkage=0.1


Tree=6
num_leaves=31
num_cat=0
split_feature=181 5 138 89 101 104 121 174 101 70 91 28 50 91 36 44 128 91 146 143 104 7 58 102 142 21 152 33 166 166
split_gain=104.115 80.3341 87.1417 86.3671 86.0207 98.5835 79.8675 77.4275 76.9512 153.047 108.301 73.9633 69.4201 68.3214 68.1476 65.5678 79.6599 93.3039 68.5148 61.0161 57.9459 56.3094 60.1688 38.6405 45.0828 37.078 34.6638 33.8041 69.9476 72.6247
threshold=0.81261819601058971 -0.59244310855865467 -0.41770227253437037 -0.17291805893182752 0.21271589398384097 -2.770712018013 0.07582621276378633 0.028674318455159668 0.21235176175832751 0.89956468343734752 1.1453609466552737 0.35917635262012487 0.077358320355415358 -0.51359111070632923 0.36595419049263006 -0.53953212499618519 -0.049812272191047662 -1.0512818098068235 -0.15302903205156324 0.50063973665237438 -0.70317566394805897 0.055794198065996177 -1.0000000180025095e-35 -0.064409904181957231 -0.075916808098554597 -0.23552496731281278 -0.080782532691955553 -0.71237361431121815 0.80539131164550792 0.41718211770057684
decision_type=2 2 2 2 2 2 2 2 2 2 2 2 2 2 2 2 2 2 2 2 2 2 2 2 2 2 2 2 2 2
left_child=1 13 6 4 19 -6 -3 -2 10 -10 -5 12 -8 15 27 16 17 -1 -17 -4 -16 22 -15 24 -23 -24 -20 28 29 -9
right_child=7 2 3 8 5 -7 11 14 9 -11 -12 -13 -14 21 20 18 -18 -19 26 -21 -22 23 25 -25 -26 -27 -28 -29 -30 -31
leaf_value=0.14649834544857521 -0.11397495896130037 -0.018885916059631167 -0.0044253703867060045 0.00066942613585835569 -0.10057602072020957 -0.017686842598323146 0.028110888388519963 -0.044882757238675984 0.0059928959831976802 0.062477889130708703 -0.01635955711227299 -0.1421803510857966 0.19063121895677304 0.011998254223045192 -0.060061061539259768 0.038146933917236336 -0.012062180043203634 0.045427546561683241 -0.027951222318261755 0.060854644317818576 -0.014827608112656935 0.017974094266927781 0.059764944527469055 -0.03868225940012017 0.10471884364065286 -0.0071707029246337387 0.058990344352530311 -0.0098626694519120244 -0.013657890230449655 0.11992756562387713
leaf_weight=111 83 448 10768 35063 149 3709 1730 34 7333 513 4178 24 26 2991 497 392 178 544 419 144 676 2532 83 115 61 4806 50 1135 183 107
leaf_count=111 83 448 10768 35063 149 3709 1730 34 7333 513 4178 24 26 2991 497 392 178 544 419 144 676 2532 83 115 61 4806 50 1135 183 107
internal_value=0 0.000692965 -0.000725596 -0.00142698 -0.00809896 -0.0209367 0.0186971 -0.0192314 0.00066395 0.00970531 -0.00114159 0.0282145 0.0306731 0.00810195 -0.0161675 0.0267559 0.0467626 0.0628878 0.00725945 -0.00354998 -0.034107 0.00510635 0.000817951 0.0175454 0.020089 -0.00600353 -0.0183797 -0.00166673 0.0266969 0.0794824
internal_weight=0 76367 64085 61857 14770 3858 2228 2715 47087 7846 39241 1780 1756 12282 2632 1694 833 655 861 10912 1173 10588 7880 2708 2593 4889 469 1459 324 141
internal_count=79082 76367 64085 61857 14770 3858 2228 2715 47087 7846 39241 1780 1756 12282 2632 1694 833 655 861 10912 1173 10588 7880 2708 2593 4889 469 1459 324 141
is_linear=0
shrinkage=0.1


Tree=7
num_leaves=31
num_cat=0
split_feature=181 128 88 193 32 196 8 45 70 174 77 177 58 42 140 163 198 36 104 182 53 66 172 135 93 181 28 104 45 196
split_gain=84.5189 70.4 82.9145 120.432 93.3167 179.787 150.523 66.173 63.9777 62.8512 56.6138 56.3115 53.6264 58.6383 52.3167 57.867 51.4793 41.4518 52.8112 36.4858 30.1663 28.5074 28.3093 26.3228 24.1011 21.0352 18.2809 15.6058 14.2369 11.6834
threshold=0.81261819601058971 -0.50845235586166371 0.95837876200675975 -0.082050129771232591 -2.7715858221054073 -0.63370791077613819 -2.3802493810653682 2.9999349117279057 -0.21197480708360669 0.028674318455159668 0.46747398376464849 -1.2552278041839597 -0.57537394762039173 0.42893698811531072 0.38997125625610357 0.18215656280517581 -0.027425501495599743 0.36595419049263006 1.0000000180025095e-35 -1.0876319408416746 -0.087807774543762193 -0.3172419667243957 -0.46213299036025995 0.71497246623039257 -0.70930039882659901 0.82481962442398082 1.0646324157714846 0.030472372658550743 -1.1263476014137266 0.025936758145689968
decision_type=2 2 2 2 2 2 2 2 2 2 2 2 2 2 2 2 2 2 2 2 2 2 2 2 2 2 2 2 2 2
left_child=1 14 4 7 5 -3 -7 11 23 25 17 -4 16 -14 -1 -16 -6 19 21 -11 -9 -19 -21 -5 -20 -2 -10 -17 -12 -30
right_child=9 2 3 8 12 6 -8 20 26 10 28 -13 13 -15 15 27 -18 18 24 22 -22 -23 -24 -25 -26 -27 -28 -29 29 -31
leaf_value=-0.025376157085379311 -0.032070434916653734 0.26036985577118416 0.050504783485912287 -0.064250416789566681 -0.002943311975504044 0.2313905415570964 0.015941723914583476 -0.10591114655401579 -0.0015651881454984919 0.12126542028370645 0.09167701889348967 -0.0047387751294835686 -0.00019886792075608469 0.029069908375947601 0.18513076550246033 -0.010411457593613281 0.014903239744794903 -0.10505789294335147 0.064452651027484945 -0.077604536760575521 -0.011280424036632025 -0.038948509467378926 -0.0052822636780036208 -0.16984764795909346 -0.0091547843031872019 -0.14169131750425604 -0.044546074381073351 0.039535776784725161 0.041284397211699492 -0.022880694207309579
leaf_weight=143 31 33 187 399 2364 33 784 92 291 21 41 9469 55885 692 26 66 5053 73 54 56 57 787 1237 26 228 52 153 614 98 37
leaf_count=143 31 33 187 399 2364 33 784 92 291 21 41 9469 55885 692 26 66 5053 73 54 56 57 787 1237 26 228 52 153 614 98 37
internal_value=0 0.000624597 0.000301214 -0.00786382 0.00164682 0.0345481 0.0250188 -0.00468866 -0.043536 -0.017327 -0.0145624 -0.00365422 0.00120782 0.000157925 0.0292451 0.0404622 0.0092026 -0.0185188 -0.0324667 -0.00630973 -0.0706445 -0.0447802 -0.00854265 -0.0712979 0.00477358 -0.102706 -0.0166532 0.0345407 0.0399131 0.0229626
internal_weight=0 76367 75518 10674 64844 850 817 9805 869 2715 2632 9656 63994 56577 849 706 7417 2456 1142 1314 149 860 1293 425 282 83 444 680 176 135
internal_count=79082 76367 75518 10674 64844 850 817 9805 869 2715 2632 9656 63994 56577 849 706 7417 2456 1142 1314 149 860 1293 425 282 83 444 680 176 135
is_linear=0
shrinkage=0.1


Tree=8
num_leaves=31
num_cat=0
split_feature=22 79 18 123 198 159 135 161 57 162 144 102 32 198 24 161 91 102 10 81 121 68 78 179 70 43 166 116 54 92
split_gain=79.6864 76.5266 144.045 105.102 183.099 89.4137 116.194 111.202 77.0961 70.7024 159.018 68.2505 66.0841 121.264 62.5767 78.0771 70.7563 81.0977 63.4926 58.4839 134.893 66.1084 57.7018 52.426 51.4463 41.4137 35.186 30.9774 32.3239 28.1655
threshold=0.29710783064365393 0.23825060576200488 -0.19137859344482419 1.7676879763603213 0.62933364510536205 0.062271257862448699 0.76317346096038829 -0.60729199647903431 0.038820082321763046 2.9998407363891606 0.32533794641494757 -0.14726644009351728 -1.9107544422149656 0.74082040786743175 0.17769344151020053 -2.9997824430465694 -0.44720561802387232 -0.087467566132545457 -0.075036305934190736 0.21332699060440066 -0.3333889096975326 -0.59785139560699452 0.25102366507053381 0.13330092281103137 0.87205287814140331 -0.1986584588885307 -0.50318506360054005 0.36645509302616125 -0.42424705624580378 0.28594727814197546
decision_type=2 2 2 2 2 2 2 2 2 2 2 2 2 2 2 2 2 2 2 2 2 2 2 2 2 2 2 2 2 2
left_child=9 2 -2 5 -5 7 -7 -4 11 14 -11 25 13 -13 15 -1 17 -17 -18 21 -21 22 -16 -14 -23 -3 -10 28 -28 -6
right_child=1 8 3 4 29 6 -8 -9 26 10 -12 12 23 -15 19 16 18 -19 -20 20 -22 24 -24 -25 -26 -27 27 -29 -30 -31
leaf_value=0.18177579287775533 0.15216654283961034 -0.025079232394768891 -0.020261477294816557 0.36044011132320675 0.085328288835102184 0.0025727759706550019 0.060221370741991992 -0.0017192829819561576 -0.15338769347122397 0.0015984827843735642 -0.29459907210401487 0.063522237094955608 -0.052557691943000584 -0.035940626503129437 0.022940653139690466 0.0051349420271986634 0.0067383826139440998 0.032516269153175639 -0.0024512317793376152 0.0088095979544941146 0.22343692594955677 -0.016216871891618745 -0.049807132804033816 -0.0066176443842677936 0.014012102755495151 -0.082349808285169246 -0.0069840733270010837 0.0034909963326775865 -0.066408355387854487 -0.076697722116404632
leaf_weight=24 60 588 4533 21 20 12495 359 11332 29 58 25 341 265 189 926 2630 18555 1849 12620 1443 29 5148 122 3982 628 164 126 123 377 21
leaf_count=24 60 588 4533 21 20 12495 359 11332 29 58 25 341 265 189 926 2630 18555 1849 12620 1443 29 5148 122 3982 628 164 126 123 377 21
internal_value=0 -0.00355336 -0.00138506 -0.00171348 0.127336 -0.00199959 0.00419457 -0.0070241 -0.0136488 0.00283705 -0.0888102 -0.00977947 -0.00534454 0.0278736 0.00301411 0.00483447 0.00470786 0.0164641 0.00301531 -0.00480277 0.0132439 -0.00871082 0.0143439 -0.00951764 -0.012912 -0.0377834 -0.046104 -0.0407576 -0.0517525 0.000217226
internal_weight=0 35025 28841 28781 62 28719 12854 15865 6184 44057 83 5529 4777 530 43974 35678 35654 4479 31175 8296 1472 6824 1048 4247 5776 752 655 626 503 41
internal_count=79082 35025 28841 28781 62 28719 12854 15865 6184 44057 83 5529 4777 530 43974 35678 35654 4479 31175 8296 1472 6824 1048 4247 5776 752 655 626 503 41
is_linear=0
shrinkage=0.1


Tree=9
num_leaves=31
num_cat=0
split_feature=137 77 139 29 96 158 134 72 22 175 166 116 22 102 8 121 185 69 37 80 13 0 44 162 147 28 121 196 162 182
split_gain=71.1227 79.2156 68.9801 107.581 130.778 122.805 121.817 87.379 91.5707 74.6149 72.7667 103.78 75.3577 107.68 70.6744 108.485 66.975 61.1864 52.2583 51.6549 52.7654 50.8003 48.9735 45.5532 40.8104 39.1711 37.5177 34.7325 34.2286 40.2728
threshold=0.83009311556816112 0.46747398376464849 -0.40944108366966242 1.7632491588592532 -0.60436701774597157 -1.6681425571441648 -0.9561757743358611 0.27781438827514654 0.5427798628807069 -0.067962884902954088 -0.42143514752387995 0.32396809756755834 0.54644456505775463 -0.048297110944986336 1.5629320144653323 -0.068529281765222536 -0.072721641510725007 1.8345813155174258 0.080780182033777251 0.46288944780826574 0.63922831416130077 0.72061502933502208 -0.42366722226142878 2.4108133316040044 0.92386046051979076 0.11427518725395204 -0.26062138378620142 0.03817997686564923 -0.69688150286674488 -0.84488126635551442
decision_type=2 2 2 2 2 2 2 2 2 2 2 2 2 2 2 2 2 2 2 2 2 2 2 2 2 2 2 2 2 2
left_child=2 19 10 4 7 -6 -7 8 -4 22 11 26 14 -14 16 -16 -12 -9 -15 21 28 23 -5 25 -13 -2 -1 -3 29 -21
right_child=1 27 3 9 5 6 -8 17 -10 -11 12 24 13 18 15 -17 -18 -19 -20 20 -22 -23 -24 -25 -26 -27 -28 -29 -30 -31
leaf_value=0.083926606021803726 -0.016513112202762414 0.059232934205886684 -0.030986299549681115 0.093495011551698912 0.17477163095709819 0.16770026558019194 -0.00078033509347632038 -0.10254712628617135 0.012203219637479088 -0.032918395848575248 -0.010879426341827363 0.022266383174203624 -0.0062852701024168015 0.17196902878991388 -0.017261626426009362 -0.28000734160592722 0.0055537556352374812 0.031666594904116607 0.062099363919644546 -0.028750756015500818 -0.11644659064426349 0.041022132876213778 0.2894610677669251 0.043530766891907872 0.16563192731511905 -0.13398747973285605 0.29021981487979753 -0.0094210986262199849 -0.041022617160867497 0.14031673850868839
leaf_weight=20 2768 205 1588 37 39 42 46857 205 706 24 2797 526 210 61 59 21 21636 39 169 32 87 169 22 125 20 28 20 111 436 23
leaf_count=20 2768 205 1588 37 39 42 46857 205 706 24 2797 526 210 61 59 21 21636 39 169 32 87 169 22 125 20 28 20 111 436 23
internal_value=0 -0.013012 0.000697414 -0.00147676 -0.00167054 -0.000472743 -0.000624034 -0.0237768 -0.0176534 0.111613 0.00492007 0.0397421 0.00409701 0.0450876 0.00335565 -0.0898826 0.00366831 -0.0806675 0.0922376 -0.0171702 -0.0446464 -0.0119877 0.171581 -0.0150996 0.0279701 -0.0177686 0.193733 0.0348614 -0.0315308 0.0414343
internal_weight=0 3984 75098 49559 49476 46938 46899 2538 2294 83 25539 586 24953 440 24513 80 24433 244 230 3668 578 3090 59 2921 546 2796 40 316 491 55
internal_count=79082 3984 75098 49559 49476 46938 46899 2538 2294 83 25539 586 24953 440 24513 80 24433 244 230 3668 578 3090 59 2921 546 2796 40 316 491 55
is_linear=0
shrinkage=0.1


Tree=10
num_leaves=31
num_cat=0
split_feature=89 101 104 91 153 91 200 25 172 84 149 68 22 149 96 161 121 100 55 50 59 41 115 12 198 34 8 89 44 44
split_gain=78.837 124.364 107.884 100.184 103.882 90.3087 169.555 77.4178 74.6741 95.4718 74.4032 79.0242 76.8414 128.053 678.205 87.4005 82.538 77.4935 71.2001 75.4167 82.0774 60.0094 91.3084 92.1905 57.3638 51.3109 49.9717 49.0647 53.2178 48.2871
threshold=-0.21898063272237775 0.20877651870250705 -2.313032746315002 -0.34729854762554163 0.06235941872000695 -2.9991089105606075 -0.074534844607114778 0.11740603670477869 -0.14069364219903943 1.7331724762916567 0.80910843610763561 -0.66280987858772267 0.28631594777107244 0.25949661433696752 -0.57542660832405079 -1.3295434713363645 -0.27763244509696955 0.37573094666004186 0.077798817306756987 0.074824746698141112 -0.04861881956458091 -1.256472587585449 -0.09239261224865912 -0.15589061379432675 -2.4273002147674556 -0.51678699254989613 -2.9995470046997066 -0.32198917865753168 0.7564399540424348 -0.19739060103893277
decision_type=2 2 2 2 2 2 2 2 2 2 2 2 2 2 2 2 2 2 2 2 2 2 2 2 2 2 2 2 2 2
left_child=1 3 8 4 5 6 -1 29 9 -3 11 18 13 15 -15 -13 -14 -18 19 -2 -21 22 -4 -24 -7 -12 -9 28 -23 -6
right_child=10 2 21 -5 7 24 -8 26 -10 -11 25 12 16 14 -16 -17 17 -19 -20 20 -22 27 23 -25 -26 -27 -28 -29 -30 -31
leaf_value=0.0164987253277156 0.016434645405390323 -0.071760524708406923 -0.029706968238409411 -0.016828921335302074 -0.012834695100852523 0.16686389284098849 0.20408756874712419 0.079685156444482222 -0.0060638460322463977 -0.24051326726643701 0.030183309853547849 0.10426250331931644 -0.01817939400625462 0.016139149107501801 0.62320457368306736 0.0032631207493321992 -0.00125743291219938 0.14178398193420941 -0.0070147960264350427 0.11357759347559689 0.027130107776444569 -0.027523346245961852 -0.0064525595885263813 0.1052260594417759 0.0082194176726490317 -0.018492827376337569 -0.075558274153228591 -0.0039559325056082303 0.058010101803478313 0.075009971348852511
leaf_weight=165 2588 250 226 2558 769 22 68 21 141 39 234 85 3318 155 20 36101 16984 37 1038 178 297 2989 133 161 5958 2600 286 1647 73 67
leaf_count=165 2588 250 226 2558 769 22 68 21 141 39 234 85 3318 155 20 36101 16984 37 1038 178 297 2989 133 161 5958 2600 286 1647 73 67
internal_value=0 -0.00653808 -0.0183651 0.000204394 0.00614194 0.0112494 0.0722582 -0.0215241 -0.0665218 -0.0955744 0.00139964 0.00213932 0.00116781 0.00392235 0.0890482 0.00350572 -0.00375189 -0.000933015 0.0155447 0.0232205 0.0598868 -0.0143754 0.0177465 0.0545246 0.00884535 -0.0144314 -0.0644175 -0.0179456 -0.0254358 -0.00560385
internal_weight=0 15573 5659 9914 7356 6213 233 1143 430 289 63635 60801 56700 36361 175 36186 20339 17021 4101 3063 475 5229 520 294 5980 2834 307 4709 3062 836
internal_count=79208 15573 5659 9914 7356 6213 233 1143 430 289 63635 60801 56700 36361 175 36186 20339 17021 4101 3063 475 5229 520 294 5980 2834 307 4709 3062 836
is_linear=0
shrinkage=0.1


Tree=11
num_leaves=31
num_cat=0
split_feature=59 37 87 89 101 30 43 93 30 146 101 108 112 32 109 81 70 143 155 89 108 109 5 7 41 115 13 84 153 166
split_gain=68.9803 70.6258 65.2487 62.6382 100.891 78.1756 131.302 95.7717 108.591 90.4164 76.5505 142.874 128.267 112.392 98.6831 93.7175 90.3432 83.9 75.0059 74.5544 70.0476 66.1661 61.1873 59.8714 55.5117 100.194 49.3511 43.6235 45.5939 42.5236
threshold=-1.176599860191345 0.8651779592037202 0.57607901096344005 -0.17291805893182752 0.21993874013423922 0.54625198245048534 1.787932872772217 -1.1531384587287901 0.57699501514434826 -0.18501061946153638 0.20916531234979632 -0.22760351002216336 -0.40241025388240809 -1.9107544422149656 -0.12050513923168181 0.091588441282510771 0.89956468343734752 -0.053873457014560693 -0.16020048409700391 -0.52995797991752613 0.911210596561432 0.76699244976043712 1.2415016293525698 0.013700305484235288 -1.3272490501403806 -0.09239261224865912 0.76370152831077587 -0.33982947468757624 0.053344471380114562 -0.31784078478813166
decision_type=2 2 2 2 2 2 2 2 2 2 2 2 2 2 2 2 2 2 2 2 2 2 2 2 2 2 2 2 2 2
left_child=1 2 -1 4 5 6 9 8 -7 -2 11 17 16 15 -15 -13 22 18 -5 -6 -9 -14 -12 -19 25 -21 27 -3 -29 -18
right_child=3 26 -4 10 19 7 -8 20 -10 -11 12 13 21 14 -16 -17 29 23 -20 24 -22 -23 -24 -25 -26 -27 -28 28 -30 -31
leaf_value=-0.042701030791601653 0.0094855102478761336 -0.01740767998978349 0.022126756683633741 0.12052817857617026 -0.04570561545286736 0.26362923167259406 0.18314175591608747 -0.002561963153471898 0.048681387206138599 -0.010421821460598588 0.018382127379791814 0.0039614247647287706 0.00242124733340051 0.0099486786002680808 -0.0021991264176685027 0.083589787153863115 0.019986278339623523 -0.016817344239245469 0.0039114196580793221 -0.045013427249697174 0.028760237853935351 -0.031256559590835099 -0.018909260247694508 -0.0036573333840163019 -0.016373149985131532 0.094849990156232092 0.060999453842526224 0.12653093378455899 0.010460096433734977 0.072979443611671718
leaf_weight=1067 3009 999 179 55 881 27 36 2120 167 9382 4915 274 5254 13200 13532 327 244 7176 4299 85 1072 655 480 6714 2008 124 117 37 344 429
leaf_count=1067 3009 999 179 55 881 27 36 2120 167 9382 4915 274 5254 13200 13532 327 244 7176 4299 85 1072 655 480 6714 2008 124 117 37 344 429
internal_value=0 -0.015721 -0.0333019 0.000415932 -0.00457545 -0.00133556 -0.00501124 0.0121242 0.080223 -0.00557955 0.00205769 0.00018595 0.00917187 0.00476217 0.00379593 0.047508 0.0193838 -0.00666478 0.00543232 -0.0210766 0.00793295 -0.00130022 0.0150439 -0.0104637 -0.0112312 0.037569 -0.00101263 -0.00637731 0.0222675 0.0539627
internal_weight=0 2743 1246 76465 18911 15813 12427 3386 194 12391 57554 45577 11977 27333 26732 601 6068 18244 4354 3098 3192 5909 5395 13890 2217 209 1497 1380 381 673
internal_count=79208 2743 1246 76465 18911 15813 12427 3386 194 12391 57554 45577 11977 27333 26732 601 6068 18244 4354 3098 3192 5909 5395 13890 2217 209 1497 1380 381 673
is_linear=0
shrinkage=0.1


Tree=12
num_leaves=31
num_cat=0
split_feature=78 88 193 137 32 147 176 139 65 77 60 81 143 112 177 90 5 172 88 34 104 22 143 196 82 5 57 48 70 199
split_gain=66.48 69.5965 79.5307 64.4339 84.8544 106.152 158.619 105.685 53.8776 52.5353 52.2395 49.7617 134.314 75.6718 46.7587 52.0862 46.8511 41.4013 49.0487 43.5335 33.5775 28.1333 27.814 27.245 26.3415 18.8434 20.4801 16.9937 16.5107 14.7402
threshold=-0.52801755070686329 0.95837876200675975 -0.082050129771232591 0.83009311556816112 -2.7715858221054073 -0.21174458414316175 -0.080598235130310045 -0.06927152723073958 2.4809782505035405 0.46747398376464849 1.7883249521255495 0.10835987702012063 -0.59300571680068959 2.3740625381469731 -1.2552278041839597 0.099139284342527403 1.1458379626274111 -0.19722648710012433 -2.8110485076904292 -0.51678699254989613 -0.50767374038696278 0.36641335487365728 0.058208126574754722 0.03817997686564923 0.66880440711975109 0.57369157671928417 -0.008289439603686331 -0.082758713513612733 -0.21197480708360669 -0.4087566584348678
decision_type=2 2 2 2 2 2 2 2 2 2 2 2 2 2 2 2 2 2 2 2 2 2 2 2 2 2 2 2 2 2
left_child=20 3 8 4 5 7 -7 -2 14 17 28 13 -13 -6 15 -3 -16 19 -19 -5 -1 -12 -23 -11 -10 26 29 -25 -4 -22
right_child=1 2 10 9 11 6 -8 -9 24 23 21 12 -14 -15 16 -17 -18 18 -20 -21 25 22 -24 27 -26 -27 -28 -29 -30 -31
leaf_value=-0.058441887416651711 0.02277817437637673 -0.0032922125483160892 -0.043624605219560575 0.021016790120562248 0.0028071216009546342 -0.0046618406194478546 0.10380857803540662 -0.1022786128229128 -0.15820199370559782 0.049566570525967267 -0.14563805222063883 0.22183279811991433 -0.0058763829149561138 -0.026612211717038609 -0.0032432720840907025 0.097272196111599887 -0.025177817349988609 0.15113724561688169 0.002152128477657765 -0.023556486285592489 0 -0.11157969627188238 0.00083333639069579479 0.01311398072025495 -0.021793432968679902 0.1054082941691209 -0.031110949093029989 -0.070964104015056442 -0.012847656699664515 0.033473119449610941
leaf_weight=46 238 110 307 235 51324 227 325 93 33 201 59 25 10289 888 8430 93 1103 22 645 2763 149 40 44 78 28 30 59 33 433 858
leaf_count=46 238 110 307 235 51324 227 325 93 33 201 59 25 10289 888 8430 93 1103 22 645 2763 149 40 44 78 28 30 59 33 433 858
internal_value=0 -0.000477345 -0.00797771 0.000710073 0.00148588 0.0322558 0.0590989 -0.0122646 -0.00537381 -0.0116329 -0.036724 0.00104934 -0.00529485 0.00230448 -0.00477156 0.0425519 -0.00579339 -0.0150046 0.00741637 -0.0200254 0.0238156 -0.0921343 -0.0522275 0.0275957 -0.0984161 0.0274022 0.025026 -0.0114237 -0.0257837 0.0284355
internal_weight=0 78066 10680 67386 63409 883 552 331 9797 3977 883 62526 10314 52212 9736 203 9533 3665 667 2998 1142 143 84 312 61 1096 1066 111 740 1007
internal_count=79208 78066 10680 67386 63409 883 552 331 9797 3977 883 62526 10314 52212 9736 203 9533 3665 667 2998 1142 143 84 312 61 1096 1066 111 740 1007
is_linear=0
shrinkage=0.1


Tree=13
num_leaves=31
num_cat=0
split_feature=78 87 24 64 65 81 101 5 79 34 167 109 111 167 167 88 30 140 196 100 61 64 104 121 104 50 91 128 83 132
split_gain=54.0853 62.4422 62.1719 109.173 104.314 86.3735 73.7852 76.4874 71.4368 68.1062 64.5341 58.9984 57.6395 54.8693 53.5664 49.1114 40.4564 31.8674 30.8322 30.09 28.2185 74.4078 47.0586 22.0973 26.9391 18.3937 21.8372 13.0608 8.87969 7.23042
threshold=-0.51665347814559925 -2.7866837978363033 0.11687196791172029 -0.065319117158651338 -0.8187551200389861 0.10752294585108758 0.22464035451412204 0.024292950518429283 -0.22621797025203702 -0.20742522925138471 -2.2924782037734981 0.76699244976043712 -0.11108580976724623 -0.61997413635253895 -1.0206306576728819 0.74623534083366405 -0.063358422368764863 0.29815678298473364 0.053540410473942764 0.36409340798854833 -0.6292017102241515 -0.051641492173075669 0.0097176134586334246 -0.23006350547075269 -0.50767374038696278 0.1059858873486519 -0.49293121695518488 -0.46443422138690943 0.074415806680917754 -0.13619332015514371
decision_type=2 2 2 2 2 2 2 2 2 2 2 2 2 2 2 2 2 2 2 2 2 2 2 2 2 2 2 2 2 2
left_child=19 13 3 4 12 11 10 18 -7 -6 -4 -5 -3 14 -2 -12 -9 28 -8 -1 21 -19 -22 24 27 29 -27 -21 -15 -26
right_child=1 2 6 5 9 8 7 16 -10 -11 15 -13 -14 17 -16 -17 -18 20 -20 23 22 -23 -24 -25 25 26 -28 -29 -30 -31
leaf_value=-0.063709676370504217 -0.040500390326350146 -0.0096300632029652344 0.17270439530329373 0.0021818413445377502 -0.0010675485761760114 0.16150183157268952 -0.015646867934931665 -4.0978890538174554e-05 -0.015090435990501581 0.016009736218935734 -0.00013177211595781683 -0.011952593472384494 0.032284307476795671 0.1117583266173313 -0.24396315364251558 -0.011321356330017249 -0.059748940573007961 -0.012409740987384302 0.023691886317356019 -0.10699003372757201 -0.047389397879532724 0.17425923329779744 -0.0091683762836533827 0.12467379111947763 -0.046400557341048601 0.05456983137444963 0.019609541746820898 -0.0063299235422777716 0.013521778071410332 0.019189138871197609
leaf_weight=41 39 374 20 32136 6493 22 932 144 4276 3638 16349 3250 2472 22 20 5167 597 99 251 21 495 26 945 20 50 223 1007 37 20 22
leaf_count=41 39 374 20 32136 6493 22 932 144 4276 3638 16349 3250 2472 22 20 5167 597 99 251 21 495 26 945 20 50 223 1007 37 20 22
internal_value=0 -0.00046804 -4.75202e-05 0.00185872 0.0098211 -0.000742829 -0.00433043 -0.0230948 -0.0141289 0.00505638 -0.00264868 0.000880704 0.0267415 -0.019614 -0.113829 -0.00282371 -0.0482887 -0.0160307 -0.00720772 0.0192118 -0.0184008 0.0266847 -0.0223954 0.0217864 0.0201176 0.0231457 0.0260623 -0.0455242 0.0685247 -0.0250681
internal_weight=0 77787 76121 52661 12977 39684 23460 1924 4298 10131 21536 35386 2846 1666 59 21516 741 1607 1183 1421 1565 125 1440 1380 1360 1302 1230 58 42 72
internal_count=79208 77787 76121 52661 12977 39684 23460 1924 4298 10131 21536 35386 2846 1666 59 21516 741 1607 1183 1421 1565 125 1440 1380 1360 1302 1230 58 42 72
is_linear=0
shrinkage=0.1


Tree=14
num_leaves=31
num_cat=0
split_feature=61 65 64 110 151 192 83 167 19 146 143 108 80 101 198 11 6 108 198 87 56 91 62 21 169 13 32 135 59 169
split_gain=48.4965 53.562 69.6829 96.2185 95.5512 73.2864 66.412 80.2026 64.2697 62.6858 91.3132 71.6179 56.8156 61.7116 85.2915 62.5657 55.9821 50.9866 50.2834 88.9284 49.1613 48.7045 44.6751 130.254 42.28 41.2502 40.083 39.3936 39.2604 36.2735
threshold=0.7478308677673341 0.15890721231698993 -0.065870758146047578 -0.82778477668762196 -0.50665101408958424 0.123724352568388 1.8810627460479739 -2.2924782037734981 -1.6343042254447935 -0.18501061946153638 -0.094324383884668336 1.5052250027656557 0.46288944780826574 0.20419573038816455 -0.22534181922674176 2.3247718811035161 -0.27442325651645655 -2.9990308284759517 2.9983685016632085 1.7619125843048098 -0.60150468349456776 -0.51359111070632923 -0.12712209671735761 -0.23193051666021344 0.090569224208593382 0.63533365726470958 1.0234128236770632 0.17288561910390857 0.086849398910999312 0.098772194236516966
decision_type=2 2 2 2 2 2 2 2 2 2 2 2 2 2 2 2 2 2 2 2 2 2 2 2 2 2 2 2 2 2
left_child=1 2 3 4 -1 -6 9 -8 -9 10 24 -12 13 15 -15 -4 -11 -18 -5 -20 -10 26 23 -23 -3 -14 27 -2 -29 -25
right_child=21 6 12 18 5 -7 7 8 20 16 11 -13 25 14 -16 -17 17 -19 19 -21 -22 22 -24 29 -26 -27 -28 28 -30 -31
leaf_value=-0.13847366614878967 0.017061384641029419 0.15900177174752808 -0.0030380300454755102 0.0026852737978062353 0.042308507565277181 0.0014181293840028844 0.14085639289625004 0.087268926936238778 -0.19868383351754001 0.0042938643016133564 0.0027458542778311334 0.068628988357572557 -0.019364678592654574 0.023641270174241332 0.0010618275781103545 0.051764708059008395 -0.14750328649675226 -0.0070484207963008652 0.24891375048747511 -0.0094674097798367503 -0.047087353505528548 0.26569789883623363 0.0012420300260745421 0.002787076194369876 0 -0.11494088238794686 -0.024676645494550266 0 0.084099475825052061 0.042774532109664677
leaf_weight=33 367 60 24413 7164 1489 628 23 33 22 5282 1817 181 979 2327 5981 209 25 20684 22 30 506 21 5454 575 23 47 109 73 251 380
leaf_count=33 367 60 24413 7164 1489 628 23 33 22 5282 1817 181 979 2327 5981 209 25 20684 22 30 506 21 5454 575 23 47 109 73 251 380
internal_value=0 -0.000887853 0.00132909 0.00896586 0.0275359 0.0302295 -0.00424266 -0.0376091 -0.0453207 -0.00354389 0.0131402 0.00879155 -0.000774735 -4.9492e-05 0.00739955 -0.00256701 -0.00488381 -0.00722932 0.00341687 0.100558 -0.053929 0.00770299 0.00478817 0.0244867 0.115407 -0.0239377 0.0309788 0.0399172 0.0653883 0.0188244
internal_weight=0 71978 43322 9366 2150 2117 28656 584 561 28072 2081 1998 33956 32930 8308 24622 25991 20709 7216 52 528 7230 6430 976 83 1026 800 691 324 955
internal_count=79208 71978 43322 9366 2150 2117 28656 584 561 28072 2081 1998 33956 32930 8308 24622 25991 20709 7216 52 528 7230 6430 976 83 1026 800 691 324 955
is_linear=0
shrinkage=0.1


Tree=15
num_leaves=27
num_cat=0
split_feature=167 76 37 100 7 94 83 102 61 21 7 121 50 61 139 45 7 156 104 37 13 145 6 157 123 78
split_gain=44.9289 44.1047 47.8118 67.4083 62.0656 61.9325 49.4013 48.0476 46.6153 45.0468 43.5736 38.3541 56.7116 39.4566 33.9152 79.7999 28.7898 27.3187 13.9257 11.6081 10.606 4.70711 4.36563 3.44296 2.40378 1.95249
threshold=-2.2924782037734981 -0.51141515374183644 -0.29678563773632044 -1.1466391682624815 0.045500986278057105 1.6129341721534731 -0.28845240175724024 -0.13480461388826367 0.42438553273677831 -0.15501940995454785 -0.52518948912620533 2.9973967075347905 -0.066713780164718614 0.54281654953956615 2.9996982812881474 0.265967607498169 -0.10578566044569014 -0.10915224999189375 0.019901634193956855 -0.39745105803012842 0.63148334622383129 -0.057226872071623795 -0.15776652842760083 -0.47593134641647333 2.2314922809600835 -0.54745319485664357
decision_type=2 2 2 2 2 2 2 2 2 2 2 2 2 2 2 2 2 2 2 2 2 2 2 2 2 2
left_child=-1 14 3 9 5 -5 11 16 -6 20 -9 12 -4 -13 17 25 -8 18 21 -20 -3 -2 23 -19 -24 -16
right_child=1 2 6 4 8 -7 7 10 -10 -11 -12 13 -14 -15 15 -17 -18 22 19 -21 -22 -23 24 -25 -26 -27
leaf_value=0.11169196589434097 0.0050780029344324141 -0.024789009674483792 -0.017212480920206438 -0.0082737692957173831 -0.0046665807892693608 0.10664708390911293 0.036035447713927686 -0.028165291646208335 0.012473148298390956 0.056819081345161837 0.00032625828387515494 0.041669102828804337 0.0066612520177893727 -0.080045313879927513 0.035085015626610892 0.25322008795840645 -0.021673507156336296 0.016882853619288006 0.043681747814016104 0.014583728687586218 -0.092993523449843352 -0.050608352610378243 -0.057101396065629619 -0.021684107253686594 -0.0077400464386743698 -0.0041175009126703027
leaf_weight=35 27 33 1067 13362 3079 46 90 543 3261 26 40618 436 14229 27 20 20 1427 35 312 269 141 27 39 58 20 23
leaf_count=35 27 33 1067 13362 3079 46 90 543 3261 26 40618 436 14229 27 20 20 1427 35 312 269 141 27 39 58 20 23
internal_value=0 -0.00012441 -0.000371418 -0.00459932 -0.0040076 -0.00786489 0.00107024 -0.000694593 0.00413486 -0.062258 -4.79385e-05 0.00585549 0.00498872 0.0342172 0.0225174 0.0929066 -0.0181668 0.0166569 0.0258346 0.0304186 -0.080806 -0.0214299 -0.0209853 -0.00613453 -0.0423412 0.0123189
internal_weight=0 79235 78385 19948 19748 13408 58437 42678 6340 200 41161 15759 15296 463 850 63 1517 787 635 581 174 54 152 93 59 43
internal_count=79270 79235 78385 19948 19748 13408 58437 42678 6340 200 41161 15759 15296 463 850 63 1517 787 635 581 174 54 152 93 59 43
is_linear=0
shrinkage=0.1


Tree=16
num_leaves=31
num_cat=0
split_feature=78 87 98 160 88 30 64 4 87 133 112 31 132 104 111 161 187 9 112 90 109 13 5 125 70 62 34 32 139 104
split_gain=39.5267 44.9497 43.3651 71.7423 57.5761 70.5569 109.485 82.5394 68.1843 66.0479 52.8879 42.8527 32.6603 73.2216 60.139 53.2618 29.4535 51.0812 26.656 28.4111 24.9854 33.3443 24.4922 22.8142 21.2342 17.5514 21.8485 13.8753 14.0945 12.329
threshold=-0.51665347814559925 -2.7866837978363033 0.47639970481395727 -0.3214647620916366 1.0488190650939944 -0.68545371294021595 -0.074717659503221498 2.9999994039535527 0.26785451173782354 0.38851596415042883 2.9998567104339604 -0.34172466397285456 -0.08887444436550139 0.030472372658550743 -0.099743902683258043 -1.1185227036476133 0.22976771742105487 -1.4891636967658994 2.3740625381469731 0.12393363937735559 0.93843877315521251 0.047337155789136894 0.91165983676910411 0.2438897714018822 -0.33546212315559382 -0.22514764219522473 -0.22530231624841687 1.011731803417206 -0.39246110618114466 0.69636583328247081
decision_type=2 2 2 2 2 2 2 2 2 2 2 2 2 2 2 2 2 2 2 2 2 2 2 2 2 2 2 2 2 2
left_child=20 11 4 18 5 6 -3 -7 10 -10 -6 12 15 14 -14 -2 24 -18 19 -4 21 25 -22 -17 -5 26 -1 -27 -29 -23
right_child=1 2 3 16 8 7 -8 -9 9 -11 -12 -13 13 -15 -16 23 17 -19 -20 -21 22 29 -24 -25 -26 27 -28 28 -30 -31
leaf_value=-0.098347200310719057 0.14339569148999154 0.098127997024512317 0.018813632935399859 -0.054477418063034515 -0.0017356558926810051 -0.00025463080589105467 0.010813793069495545 0.15346048828614114 -0.035090694160653635 0.0075214416557316272 -0.10132389881469453 0.11066331306404231 -0.16899493463571238 -0.011126650852307797 -0.050231787321692624 -0.00086008286391501577 0.18295028994366822 0.041489618133882827 0.11600180694617009 -0.012474321606484358 0.16990738546649142 -0.060813022242729498 0.012985020564272512 -0.034652938100310948 0.050475217426491727 0.031241394502760613 0.0049999436663209704 0.034762730323806869 -0.019158082780530345 0.023454413325625843
leaf_weight=21 22 150 635 21 5056 64309 3130 34 1492 476 53 25 58 438 175 713 47 61 21 530 20 76 22 280 129 762 292 78 124 20
leaf_count=21 22 150 635 21 5056 64309 3130 34 1492 476 53 25 58 438 175 713 47 61 21 530 20 76 22 280 129 762 292 78 124 20
internal_value=0 -0.000366957 -5.42494e-06 0.017152 -0.000338574 0.000558279 0.014863 -0.000169664 -0.00892064 -0.0247372 -0.00280601 -0.0163917 -0.0183932 -0.0355303 -0.0807674 -0.00694805 0.0648821 0.104982 0.00664521 0.00449958 0.0164919 0.0140501 0.0920271 -0.0105084 0.0349021 0.0183828 -0.00190791 0.0250649 0.00125999 -0.0422196
internal_weight=0 77855 76144 1444 74700 67623 3280 64343 7077 1968 5109 1711 1686 671 233 1015 258 108 1186 1165 1415 1373 42 993 150 1277 313 964 202 96
internal_count=79270 77855 76144 1444 74700 67623 3280 64343 7077 1968 5109 1711 1686 671 233 1015 258 108 1186 1165 1415 1373 42 993 150 1277 313 964 202 96
is_linear=0
shrinkage=0.1


Tree=17
num_leaves=31
num_cat=0
split_feature=138 129 21 125 159 121 130 159 135 61 179 146 143 81 59 200 105 81 68 108 108 75 127 7 166 22 140 20 67 147
split_gain=37.3681 57.4124 69.1309 56.7953 66.9184 58.3059 52.9485 118.878 81.8325 77.2248 51.0774 60.9736 48.7275 66.7729 47.8533 47.3895 44.4247 48.341 44.1085 70.2794 46.6236 43.3221 49.5386 42.626 40.7106 40.3656 37.38 34.0026 33.8818 31.5797
threshold=-0.4274959117174148 -0.69786897301673878 -0.19139651209115979 0.79561570286750805 0.060399984940886504 -0.097485333681106554 0.40977834165096289 0.063063997775316252 0.76804599165916454 -1.501053988933563 -0.72165241837501515 -0.15614319592714307 -0.448330208659172 0.11170195043087007 -0.15301610529422757 -0.06137405522167682 -0.33643695712089533 -2.999975204467773 -0.66208472847938526 -0.77384138107299794 -0.45719186961650843 0.24467834085226062 -1.0000000180025095e-35 -0.053634889423847192 -0.033096145838499062 -0.082198113203048692 -0.21696673333644864 -2.9992285966873165 -2.9978994131088252 -0.77257347106933583
decision_type=2 2 2 2 2 2 2 2 2 2 2 2 2 2 2 2 2 2 2 2 2 2 2 2 2 2 2 2 2 2
left_child=14 2 3 21 -5 -6 9 23 -9 15 11 -3 13 26 16 -4 17 -1 19 -14 -20 22 -2 -8 -13 -11 -12 -19 -26 -29
right_child=1 10 6 4 5 -7 7 8 -10 25 12 24 18 -15 -16 -17 -18 27 20 -21 -22 -23 -24 -25 28 -27 -28 29 -30 -31
leaf_value=0.091430288806051072 0.12114919649688947 0.19982865467050756 -0.021834760839988327 -0.043217907852406583 -0.065224991339839486 0.016472701634948714 -0.011349691082360006 0.057352743411040991 0.25377546392054551 0.12548314703550034 0.095132762700826434 0.15978185429931502 0.044913005288094096 0.1758922580315149 -0.036402958363328262 -0.090209194456469535 0.072829430798215647 -0.062674629990503467 -0.0048619728579121753 0.0046281151186917564 0.0015051696180635211 -0.079055923086236407 -0.0077060993702899733 0.015495060872519839 0.11115245917679145 -0.0022669464787336202 -0.0075479002799143952 0.0085481569048295545 0.0017789977106198542 0.07292156068584868
leaf_weight=77 29 22 304 1144 109 424 985 233 23 24 49 21 552 34 154 156 153 60 15206 2032 47180 84 4688 1470 32 2695 117 914 216 83
leaf_count=77 29 22 304 1144 109 424 985 233 23 24 49 21 552 34 154 156 153 60 15206 2032 47180 84 4688 1470 32 2695 117 914 216 83
internal_value=0 -0.00035373 -0.00660278 -0.0137321 -0.0295919 -0.000143109 0.0012231 0.011502 0.0762428 -0.00751352 0.000825574 0.0425645 0.000637124 0.0498086 0.0158926 -0.0453668 0.0222462 0.0152825 0.000483569 0.013284 -4.5289e-05 -0.0081677 -0.00686953 0.00468545 0.0286929 -0.00106096 0.0225613 0.00956839 0.0166436 0.0140667
internal_weight=0 77829 12368 6478 1677 533 5890 2711 256 3179 65461 291 65170 200 1441 460 1287 1134 64970 2584 62386 4801 4717 2455 269 2719 166 1057 248 997
internal_count=79270 77829 12368 6478 1677 533 5890 2711 256 3179 65461 291 65170 200 1441 460 1287 1134 64970 2584 62386 4801 4717 2455 269 2719 166 1057 248 997
is_linear=0
shrinkage=0.1


Tree=18
num_leaves=29
num_cat=0
split_feature=167 162 146 148 32 37 196 88 123 111 70 37 81 125 159 159 104 146 179 109 143 87 93 174 162 162 62 185
split_gain=35.8355 39.8833 93.7487 95.0104 75.644 62.3092 60.7186 59.8905 94.8804 134.467 48.2534 37.5942 69.8927 78.4388 62.2931 88.2886 593.405 66.735 65.8768 57.0989 55.1836 50.6542 49.8569 41.6246 36.9603 32.0681 23.7548 15.2859
threshold=-2.2924782037734981 -1.8887339830398557 -0.14672613888978955 0.75928980112075817 -1.1264470219612119 -0.30548730492591852 0.047653766348958022 1.3112383484840395 1.7676879763603213 -0.081416659057140336 -1.8605941534042356 -0.28009393811225886 0.12243619933724405 1.0000000180025095e-35 0.10476148873567583 0.099701821804046645 0.99888509511947643 -0.032619355246424668 0.15849944949150088 1.7960902452468874 -0.15704640001058576 0.58293014764785778 -0.48082168400287623 0.028674318455159668 0.38947780430316931 0.71500712633132946 0.0025125204119831328 -0.063702136278152452
decision_type=2 2 2 2 2 2 2 2 2 2 2 2 2 2 2 2 2 2 2 2 2 2 2 2 2 2 2 2
left_child=-1 2 3 4 6 -6 -2 8 10 -10 -4 12 13 25 15 17 -17 -13 19 -16 23 -15 -22 -14 -20 -3 27 -9
right_child=1 11 7 -5 5 -7 -8 26 9 -11 -12 14 20 21 18 16 -18 -19 24 -21 22 -23 -24 -25 -26 -27 -28 -29
leaf_value=0.099766602403431159 -0.053218541552806226 0.0060117770205061283 -0.092768801942781934 0.20993470591390301 0.13120376308377757 0.021712478435233135 0.024581418023698665 -0.18470348542365955 0.00087268513854937921 0.28348552727749055 -0.021063772028042271 0.00515266225615367 0.17528031821361342 -0.012083081374421805 -0.035543499841604397 0.010699912535579668 0.57259808322125805 -0.0026843295628580237 0.0066500846459004647 0.05847658262347543 0.018221444232616686 0.014212716845504679 -0.0052591800219317477 0 -0.01790203587281463 -0.007745689231667627 0 -0.086565848083956953
leaf_weight=35 212 6071 101 24 72 193 187 25 59 23 1379 32054 34 11362 1113 187 20 16419 1783 67 2092 779 1583 22 932 2345 22 75
leaf_count=35 212 6071 101 24 72 193 187 25 59 23 1379 32054 34 11362 1113 187 20 16419 1783 67 2092 779 1583 22 932 2345 22 75
internal_value=0 -9.54026e-05 -0.0128651 0.0181399 0.0107747 0.0521807 -0.0165466 -0.0255917 -0.0202105 0.0836262 -0.0260777 0.000297589 -0.00295469 -0.00524308 0.00180187 0.00277714 0.0678143 0.00249612 -0.0103604 -0.0300819 0.0096265 -0.0103871 0.00808262 0.107451 -0.00174646 0.00216672 -0.0930278 -0.113549
internal_weight=0 79235 2372 688 664 265 399 1684 1562 82 1480 76863 24288 20557 52575 48680 207 48473 3895 1180 3731 12141 3675 56 2715 8416 122 100
internal_count=79270 79235 2372 688 664 265 399 1684 1562 82 1480 76863 24288 20557 52575 48680 207 48473 3895 1180 3731 12141 3675 56 2715 8416 122 100
is_linear=0
shrinkage=0.1


Tree=19
num_leaves=31
num_cat=0
split_feature=200 78 59 147 32 125 132 44 15 32 37 159 159 1 32 43 171 75 55 162 145 142 121 162 87 181 123 132 136 183
split_gain=34.7568 40.8665 60.7998 66.6828 49.6496 49.3153 52.5196 47.4859 45.2449 44.8346 42.7403 74.3263 68.4865 86.3005 78.549 50.9489 59.4607 110.178 46.4749 53.3699 38.6615 32.0653 28.7727 31.4658 27.8527 27.0534 25.9425 23.8232 20.0978 19.483
threshold=-0.25498056411743159 -0.39496771991252894 0.17731036245822909 -0.62350717186927784 -0.085203196853399263 1.8826310634613039 -0.095929626375436769 -0.4145351350307464 0.45806398987770086 -0.79089155793189991 -0.26951533555984492 0.10767577961087228 0.061749264597892768 -0.26064820587635035 -0.30365893244743342 0.86506271362304699 -1.3513091802597044 0.12296594306826593 0.17199797928333285 -1.5274847149848936 0.25608922541141516 -0.14117784053087232 -0.24607756733894345 0.15994885563850406 0.52949997782707225 0.86792492866516124 -0.51327160000801075 -0.061320926994085305 -0.03993627987802028 0.83555757999420177
decision_type=2 2 2 2 2 2 2 2 2 2 2 2 2 2 2 2 2 2 2 2 2 2 2 2 2 2 2 2 2 2
left_child=22 2 3 -2 9 6 8 -8 -4 -5 15 12 13 -12 -14 16 17 -3 24 -20 -18 -7 23 -1 -13 27 -24 -17 -28 -25
right_child=1 10 5 4 -6 21 7 -9 -10 -11 11 18 14 -15 -16 25 20 -19 19 -21 -22 -23 26 29 -26 -27 28 -29 -30 -31
leaf_value=-0.042770562807369017 -0.037083972052374022 0.019958450653131388 -0.006628198679755691 0.068916913200325808 0.040842472083967622 0.20175808676671869 0.057553981988915197 0.012403865311372065 0.013577554142347827 0.22173709037016787 -0.012938151438439675 -0.022429020380059041 0.01587515123903124 0.0014922246231621706 0.0022926828039964357 0.06850717285568507 -0.0015642396272911648 0.25131641547522227 0.074605585057801446 -0.0054245166021072476 -0.011734360579330534 0.02015262724734113 -0.0082134249621275829 -0.0077234899244509082 -0.094219176620702866 -0.073887457974682158 0.0063424384665632539 -0.028343196823255659 0.13803787644026597 0.082902488624260556
leaf_weight=490 66 126 3568 48 159 20 279 1461 1606 36 5125 1669 6145 21610 13931 26 15647 24 88 1315 4923 21 122 150 56 136 24 347 25 27
leaf_count=490 66 126 3568 48 159 20 279 1461 1606 36 5125 1669 6145 21610 13931 26 15647 24 88 1315 4923 21 122 150 56 136 24 347 25 27
internal_value=0 0.000173418 0.00731865 0.0506909 0.074972 0.00537137 0.00470051 0.0197255 -0.000336672 0.137277 -0.000554637 0.00104163 0.00204077 -0.00127083 0.00645538 -0.00431405 -0.00354026 0.0589538 -0.0138763 -0.000290057 -0.00400329 0.113568 -0.020289 -0.0297132 -0.0248652 -0.0355616 0.0158795 -0.0211813 0.0767833 0.00593573
internal_weight=0 78432 7264 309 243 6955 6914 1740 5174 84 71168 49939 46811 26735 20076 21229 20720 150 3128 1403 20570 41 838 667 1725 509 171 373 49 177
internal_count=79270 78432 7264 309 243 6955 6914 1740 5174 84 71168 49939 46811 26735 20076 21229 20720 150 3128 1403 20570 41 838 667 1725 509 171 373 49 177
is_linear=0
shrinkage=0.1


Tree=20
num_leaves=31
num_cat=0
split_feature=138 12 127 62 147 28 83 104 43 62 64 176 119 6 6 157 197 142 21 32 134 34 198 177 196 84 98 129 119 92
split_gain=37.6959 55.5903 115.849 155.434 78.1442 89.2713 88.0025 72.2649 53.1166 208.473 273.354 61.7237 59.775 51.3525 49.9938 47.8846 46.1946 45.0663 43.6832 42.4596 49.6232 40.555 38.4939 33.4195 28.4015 36.8112 18.8821 15.7016 15.0053 14.7151
threshold=-0.4274959117174148 -0.091056592762470231 0.31325130164623266 -0.10207291692495345 0.22995819151401523 0.31514096260070806 -0.015660819597542282 -2.9987143278121944 0.16172914952039721 -0.57249736785888661 -0.051760664209723466 -0.087625104933977113 1.3578820228576662 1.1851081252098086 2.9995454549789433 0.0883784554898739 0.07669162750244142 0.047741124406456954 -0.21739064157009122 0.17480754852294925 -0.12713959813117978 -0.50169080495834339 -0.0035503031685948368 -0.15302380919456479 0.058900000527501113 -0.13002820312976834 -0.037797719240188592 -0.83925774693489064 -0.2644247561693191 -0.45216684043407435
decision_type=2 2 2 2 2 2 2 2 2 2 2 2 2 2 2 2 2 2 2 2 2 2 2 2 2 2 2 2 2 2
left_child=19 4 8 -4 5 16 26 22 12 10 -10 -11 13 -3 17 -9 18 -8 -2 20 23 -18 -7 24 25 -1 -6 -22 -26 -21
right_child=1 2 3 -5 6 7 14 15 9 11 -12 -13 -14 -15 -16 -17 21 -19 -20 29 27 -23 -24 -25 28 -27 -28 -29 -30 -31
leaf_value=0.062264461531896832 0.029583427731252672 0.00090172405018748222 0.32810078254921404 0.027717210175632636 0.01332314535751491 -0.19365297847136578 0.091038460991218054 0.053661731365518932 0.036232793545371303 -0.023548043310350639 0.38791920831522991 0.017596916681049082 -0.16856903639357529 -0.015354347271068172 0.010954852687282012 -0.048159959680912238 0.012870266579451332 0.26844871839788292 -0.05196998956220078 0.011761268199754272 -0.1246469684497627 -0.0060687878573205184 -0.070372345782363718 0.0010744629497845034 -0.044033026158528082 -0.016823829417966531 -0.11160340410973327 -0.0088545317459222551 0.031624981507965243 -0.024399235460229051
leaf_weight=513 78 59182 24 59 24 45 36 58 66 454 33 1810 20 2008 29 204 1247 28 361 192 24 11783 69 243 48 64 21 26 55 262
leaf_count=513 78 59182 24 59 24 45 36 58 66 454 33 1810 20 2008 29 204 1247 28 361 192 24 11783 69 243 48 64 21 26 55 262
internal_value=0 -0.000219578 0.0010333 0.118437 -0.00592961 -0.00668432 0.068631 -0.05471 0.000876753 0.015586 0.156985 0.00929776 0.000307119 0.000366485 0.12404 -0.0251456 -0.00533282 0.172909 -0.0372313 0.0161765 0.0279744 -0.00424818 -0.12106 0.0333181 0.0446833 0.0533145 -0.0440105 -0.0675873 -0.00279941 -0.00890525
internal_weight=0 77639 63656 83 13983 13845 138 376 63573 2363 99 2264 61210 61190 93 262 13469 64 439 1427 973 13030 114 923 680 577 45 50 103 454
internal_count=79066 77639 63656 83 13983 13845 138 376 63573 2363 99 2264 61210 61190 93 262 13469 64 439 1427 973 13030 114 923 680 577 45 50 103 454
is_linear=0
shrinkage=0.1


Tree=21
num_leaves=31
num_cat=0
split_feature=165 78 175 30 51 156 100 163 32 30 52 21 128 146 104 21 162 146 21 131 200 171 94 78 104 22 171 104 59 112
split_gain=33.8278 43.284 37.7802 34.9613 33.5565 78.34 207.008 61.5528 43.1605 160.598 147.767 75.3932 135.087 117.808 45.1503 86.6679 78.0755 44.3363 40.2112 36.8 36.4409 33.5092 28.0464 29.9079 27.9699 25.5866 18.0287 23.8507 17.7465 23.1138
threshold=0.63511219620704662 -0.23367869108915326 -0.3926794826984405 -0.70863601565361012 1.3312304019927981 -0.084151975810527788 -0.32491621375083918 0.34603646397590643 -1.9107544422149656 -1.5713644027709959 -0.07346611842513083 -0.11121585592627524 1.4929502010345461 -0.17390520125627515 -2.4419758319854732 -0.079959619790315614 -1.4416380524635313 -0.19841936975717542 1.5109502077102663 1.2770224213600161 -0.24201189726591107 0.14567734301090243 0.45167736709117895 1.097047030925751 0.66050201654434215 0.40505585074424749 0.19564932584762576 -1.036794066429138 0.24762231111526492 -1.3437060713768003
decision_type=2 2 2 2 2 2 2 2 2 2 2 2 2 2 2 2 2 2 2 2 2 2 2 2 2 2 2 2 2 2
left_child=4 28 -3 25 8 6 -6 18 9 10 -1 13 -13 -11 15 17 -17 -10 -8 -9 24 -22 26 -24 -16 -4 27 -7 -2 -30
right_child=1 2 3 -5 5 22 7 19 14 11 -12 12 -14 -15 20 16 -18 -19 -20 -21 21 -23 23 -25 -26 -27 -28 -29 29 -31
leaf_value=0.29600998540169637 -0.033739979344123358 0.16556805218345627 0.1098471296280203 0.0075011294788928755 0.29577400723313974 -0.072585720311264659 -0.0078362324470229294 0.0093682474277263714 0.069745317232096996 0.08263745989218553 -0.0034226870881667003 0.024749839972654161 0.1917065074921096 -0.0088470598537478962 -0.0056742540818749384 -0.018318228881558939 0.18887645476565415 -0.059951252683412476 0.017336835949542551 -0.071960958244512374 0.0014538553839386543 -0.0038647746773624245 -0.095423624394123038 0.0035055179792898676 -0.041502728040706191 -0.0040427130870969007 0.022544464178105298 -0.015119096924360581 0.11436090898969009 0.0080492386971733713
leaf_weight=37 99 25 79 162 22 118 2634 73 27 153 28 510 53 1639 572 42 30 358 834 207 54031 15168 149 36 359 24 58 200 20 1319
leaf_count=37 99 25 79 162 22 118 2634 73 27 153 28 510 53 1639 572 42 30 358 834 207 54031 15168 149 36 359 24 58 200 20 1319
internal_value=0 0.0139034 0.0491329 0.037239 -0.000239445 -0.00879135 -0.00357103 -0.00542797 0.000266686 0.0133961 0.167392 0.00903958 0.0409318 -0.000943528 -0.00018227 -0.0314798 0.068046 -0.0504602 -0.00175203 -0.0504592 2.07483e-05 0.000286634 -0.0436382 -0.0757421 -0.0196201 0.0826014 -0.0274393 -0.0368937 0.00670499 0.00978802
internal_weight=0 1728 290 265 77338 4331 3770 3748 73007 2420 65 2355 563 1792 70587 457 72 385 3468 280 70130 69199 561 185 931 103 376 318 1438 1339
internal_count=79066 1728 290 265 77338 4331 3770 3748 73007 2420 65 2355 563 1792 70587 457 72 385 3468 280 70130 69199 561 185 931 103 376 318 1438 1339
is_linear=0
shrinkage=0.1


Tree=22
num_leaves=31
num_cat=0
split_feature=87 132 32 35 181 153 116 135 78 74 126 170 90 23 88 4 22 39 90 104 59 87 198 32 104 104 64 116 27 38
split_gain=31.2242 45.1816 75.2567 59.4848 42.8347 41.5052 41.0011 37.7532 42.9508 36.9098 50.7861 79.9424 45.5255 39.2771 39.1424 53.3657 72.5788 50.7866 42.409 37.9727 33.9355 33.6838 32.635 31.4874 60.7821 28.5888 41.173 25.981 25.9184 27.293
threshold=-2.7866837978363033 -0.08887444436550139 -1.4376515746116636 0.45050852000713354 -0.46206949651241297 0.063965994864702239 0.32044672966003424 -0.66561013460159291 -0.39820347726345057 -1.0431156158447263 0.13108872622251513 0.17051236331462863 0.12393363937735559 -0.060754043981432908 0.95837876200675975 0.13540051877498629 0.56088364124298107 -0.44323506951332087 0.083204817026853575 -1.3588106632232664 0.13080909103155139 1.0310736894607546 2.9983685016632085 -2.3193792104721065 -2.5818332433700557 0.13132319599390033 -0.070163600146770463 0.29770810902118688 -0.63625892996788014 -0.29370966553688044
decision_type=2 2 2 2 2 2 2 2 2 2 2 2 2 2 2 2 2 2 2 2 2 2 2 2 2 2 2 2 2 2
left_child=1 28 3 -3 5 6 7 8 -2 10 12 13 21 -12 15 17 -17 -11 19 -16 -20 -6 -7 -8 -25 26 -4 -9 -1 -30
right_child=4 2 25 -5 9 22 23 27 -10 14 11 -13 -14 -15 18 16 -18 -19 20 -21 -22 -23 -24 24 -26 -27 -28 -29 29 -31
leaf_value=0.038783851062102172 0.19307759852849637 -0.054306538487289571 -0.18027608815361473 -0.28132719066091821 0.010575171166979971 0.029913922749326412 -0.050850619020898762 0.1186846825543626 0.02164454531640729 -0.0096076420365533988 -0.0095832004797774435 0.24197454848219807 0.15535838679368286 0.10632736934526069 -0.06884597510942117 0.010710700895502766 -0.041868397727069837 0.0002110190308766399 0.020280773372038697 -0.01631705361766398 -0.007303737256832539 -0.079180208661416548 0.12964344142415687 0.15509937934176599 0.0043853705658776837 -0.0073081382966973737 -0.036966994886993586 0.011960139204327116 -0.009393279531998559 0.087307170068282328
leaf_weight=144 31 30 22 20 805 382 101 25 30 5872 67 23 20 49 194 6510 272 50992 482 497 5621 43 36 26 4935 404 205 222 977 29
leaf_count=144 31 30 22 20 805 382 101 25 30 5872 67 23 20 49 194 6510 272 50992 482 497 5621 43 36 26 4935 404 205 222 977 29
internal_value=0 -0.0128384 -0.0332352 -0.150532 0.000370638 0.00864451 0.00625714 0.0416576 0.111925 -0.000298414 0.0186994 0.0747064 0.00954928 0.0390327 -0.000571601 0.000197168 0.00858238 -0.000801367 -0.00778641 -0.0312762 -0.0051068 0.00582848 0.0390043 0.00407701 0.00522393 -0.023578 -0.0519662 0.0235587 -0.000659967 -0.00643161
internal_weight=0 1831 681 50 77235 5788 5370 308 61 71447 1007 139 868 116 70440 63646 6782 56864 6794 691 6103 848 418 5062 4961 631 227 247 1150 1006
internal_count=79066 1831 681 50 77235 5788 5370 308 61 71447 1007 139 868 116 70440 63646 6782 56864 6794 691 6103 848 418 5062 4961 631 227 247 1150 1006
is_linear=0
shrinkage=0.1


Tree=23
num_leaves=31
num_cat=0
split_feature=138 57 62 59 91 101 112 55 87 104 40 22 90 22 129 104 70 178 147 190 92 15 171 32 134 161 24 177 196 109
split_gain=31.2359 43.7945 81.5389 56.5839 48.8653 105.884 112.75 102.826 125.701 146.46 96.6466 129.073 109.43 80.0352 63.6673 62.4266 62.1967 48.2245 40.0365 48.2993 44.3263 38.3913 36.3543 34.1635 39.6353 32.5602 40.457 28.0376 23.3052 29.5135
threshold=-0.4274959117174148 0.18503390252590182 -0.20020123571157453 0.34030465781688696 -0.3372324258089065 0.20877651870250705 -0.43540541827678675 0.067329362034797682 0.49768583476543432 -2.9987143278121944 -0.035704899579286568 0.33950757980346685 0.088179979473352446 0.49682162702083593 0.685478836297989 -1.6818176507949827 0.87205287814140331 2.9999862909317021 0.42650416493415838 -1.0884218215942381 -1.0143170356750486 -0.18442332744598386 0.041234211996197707 0.1353726536035538 -0.12713959813117978 0.11940542981028558 -0.59491214156150807 -0.050311792641878121 0.058900000527501113 0.88144728541374218
decision_type=2 2 2 2 2 2 2 2 2 2 2 2 2 2 2 2 2 2 2 2 2 2 2 2 2 2 2 2 2 2
left_child=23 4 17 18 7 13 16 8 9 -2 12 -12 -9 15 -15 -6 -7 25 19 -4 -20 -8 -10 24 27 26 -3 28 29 -1
right_child=1 2 3 -5 5 6 21 10 22 -11 11 -13 -14 14 -16 -17 -18 -19 20 -21 -22 -23 -24 -25 -26 -27 -28 -29 -30 -31
leaf_value=0.060465235868904843 0.19738650170602451 0.0047750593110238602 -0.096714462476822319 0.16170059094352199 0.043885180682217896 0.014941983691275971 0.074204227097270342 -0.0099696735870285439 -0.029128520980717883 0.03487120418063161 0.013170536719837596 0.19875605949943981 0.0079047638469570743 -0.029658363432239633 0.14541146637147254 -0.0026024654815458713 0.046132148250707737 -0.090586114619414487 0.19298380266764714 -0.0026651364392220309 0 -0.0025883439406330076 0.017504620402507175 -0.0074788055244061936 -0.059877649852064632 0.0013085618810500025 -0.040199581464998344 -0.0031354456342498407 -0.00075278438541062274 0.0095833005518144755
leaf_weight=445 57 252 54 20 290 3460 65 5312 411 1509 110 57 9631 1342 20 36843 790 108 21 10852 27 4782 278 462 50 446 902 193 117 160
leaf_count=445 57 252 54 20 290 3460 65 5312 411 1509 110 57 9631 1342 20 36843 790 108 21 10852 27 4782 278 462 50 446 902 193 117 160
internal_value=0 -0.000210472 -0.00558635 -0.00241245 0.000837701 -0.000817338 0.00888228 0.00537891 0.0252979 0.0409632 0.00239853 0.0778457 0.0015441 -0.00311215 -0.0269183 -0.00223574 0.020771 -0.0259106 -0.00273476 -0.00314791 0.0874348 -0.00152459 -0.0101769 0.0147147 0.0254353 -0.0214345 -0.0303003 0.0302582 0.0393085 0.0472018
internal_weight=0 77639 12682 10974 64957 47592 9097 17365 2255 1566 15110 167 14943 38495 1362 37133 4250 1708 10954 10906 48 4847 689 1427 965 1600 1154 915 722 605
internal_count=79066 77639 12682 10974 64957 47592 9097 17365 2255 1566 15110 167 14943 38495 1362 37133 4250 1708 10954 10906 48 4847 689 1427 965 1600 1154 915 722 605
is_linear=0
shrinkage=0.1


Tree=24
num_leaves=31
num_cat=0
split_feature=74 94 167 21 165 78 64 110 104 181 108 164 80 80 152 45 72 166 78 166 74 174 89 33 55 66 72 161 8 130
split_gain=31.6227 43.6142 40.429 36.7099 32.3764 43.4683 31.9246 77.2289 45.3585 30.1232 28.6474 103.785 84.1247 77.3644 57.9068 49.2878 38.7562 70.6493 96.2544 50.2373 40.401 70.9405 40.1147 25.5504 25.5269 24.8136 36.0645 29.323 21.9026 32.5611
threshold=0.21894811838865283 0.53649345040321361 -1.7186639904975889 0.9166296422481538 0.63511219620704662 -0.23151878267526624 -0.049204252660274499 -0.58570832014083851 -1.1832345128059385 -2.0243134498596187 -0.9799225628376006 -0.098245512694120393 0.44009108841419226 0.4581685215234757 -0.096503030508756624 -2.3801950216293331 1.2794699072837832 -0.25670111179351801 0.69056868553161632 -0.19776518642902371 -1.0431156158447263 -1.5746908783912656 1.0000000180025095e-35 -2.7419865131378169 0.065507095307111754 0.17359626293182376 -0.39251558482646937 -0.3332995325326919 -0.64727917313575734 -0.3216076642274856
decision_type=2 2 2 2 2 2 2 2 2 2 2 2 2 2 2 2 2 2 2 2 2 2 2 2 2 2 2 2 2 2
left_child=4 2 3 -2 10 28 9 8 -8 -4 11 12 15 14 -13 -1 20 18 -18 -19 21 -12 -22 -3 -11 26 -7 -27 29 -6
right_child=1 23 6 -5 5 25 7 -9 -10 24 16 13 -14 -15 -16 -17 17 19 -20 -21 22 -23 -24 -25 -26 27 -28 -29 -30 -31
leaf_value=-0.14163851276900158 0.0073536356077537023 -0.12437423828605176 0.04538288024379504 0.18368318813512888 -0.013062963721130083 0.13922318613899806 0.20573956305498903 -0.021077636589512398 0.048546604338638777 -0.049899576337189729 0.17273224087808053 0.027749285303939754 -0.22774146918322991 -0.037407952443870539 -0.00054941805627751626 -0.022557791101263051 -0.0070391454652136282 -0.10984209981577986 0.15992550284139417 -0.024881453336414922 -0.00062380181123940985 0.01897071587530165 0.0047528353574877204 -0.021103841104352105 -0.0092105845388701004 0.024776033306990779 0.015046946074639425 0.18838149187603237 0.0028069874351101774 0.077851788102350508
leaf_weight=35 30 49 96 20 62 28 28 119 59 161 31 825 20 510 5761 1558 2653 109 34 203 39383 569 21405 52 3902 21 137 27 1080 99
leaf_count=35 30 49 96 20 62 28 28 119 59 161 31 825 20 510 5761 1558 2653 109 34 203 39383 569 21405 52 3902 21 137 27 1080 99
internal_value=0 -0.00806977 -0.00655143 0.0818598 0.000546977 0.0153191 -0.00760351 0.030627 0.101893 -0.00952651 0.00025164 -0.00512912 -0.0280179 6.3437e-05 0.00298451 -0.0253166 0.000980983 -0.0101131 -0.00483534 -0.0551101 0.00152466 0.0273336 0.00126793 -0.0728292 -0.0108576 0.0570242 0.0373681 0.120615 0.00804637 0.0423833
internal_weight=0 4516 4415 50 74550 1454 4365 206 87 4159 73096 8709 1613 7096 6586 1593 64387 2999 2687 312 61388 600 60788 101 4063 213 165 48 1241 161
internal_count=79066 4516 4415 50 74550 1454 4365 206 87 4159 73096 8709 1613 7096 6586 1593 64387 2999 2687 312 61388 600 60788 101 4063 213 165 48 1241 161
is_linear=0
shrinkage=0.1


Tree=25
num_leaves=31
num_cat=0
split_feature=61 10 91 104 87 159 39 132 143 71 130 162 48 67 7 42 12 146 57 189 147 83 39 127 59 81 89 122 127 110
split_gain=27.3285 43.5033 47.3469 67.6587 85.7722 53.1681 50.1235 37.314 40.1639 63.7893 42.7134 54.4665 53.8811 43.9219 40.3721 34.5663 38.2854 126.503 112.97 57.9136 49.5532 65.5492 62.6665 35.3339 33.7899 32.7012 31.9307 60.1609 148.599 40.1857
threshold=0.71517205238342296 -0.070571899414062486 -0.46988406777381891 0.20893063396215442 0.38282674551010137 0.066716540604829802 0.13774114102125171 -0.12393323332071303 -0.13030599802732465 0.044835945591330535 -0.11696957424283026 -1.3684566617012022 0.055286031216382987 0.23568870872259143 -0.08963873982429503 0.42696128785610205 -0.091056592762470231 0.069459985941648497 0.15445216745138171 -0.50509986281394947 0.24103353917598727 -0.015660819597542282 -0.41937413811683649 0.14282525330781939 0.34354953467845922 -2.999975204467773 -0.022467465139925476 -0.084533154964447008 0.31325130164623266 -0.22860524803400037
decision_type=2 2 2 2 2 2 2 2 2 2 2 2 2 2 2 2 2 2 2 2 2 2 2 2 2 2 2 2 2 2
left_child=7 2 3 4 -2 -5 -6 8 9 14 12 -12 -10 -13 -1 16 20 19 -19 -18 22 -22 -9 -17 -14 -25 29 28 -28 -4
right_child=1 -3 26 5 6 -7 -8 15 10 -11 11 13 24 -15 -16 23 17 18 -20 -21 21 -23 -24 25 -26 -27 27 -29 -30 -31
leaf_value=0.17833072936390759 0.0061402075915509523 -0.015367552979122991 0.027662225479601191 -0.019988204600630517 0.019035426563285589 0.032878107102038347 0.14749790040303523 -0.026138815310290303 0.14464242155265086 -0.010357875117726026 -0.084154286369856973 -0.013782173622424693 0.0014733972067799668 -0.13326080664409343 0.046877537293649414 0.083525412693232048 0.013009785551859882 0.0021625347199865346 0.33942345419191805 0.00013175270624292407 -0.036077257603546749 0.10961444710889978 -0.00305070378764845 0.0789158112912028 -0.011380515800335599 0.0081859107585710144 0.015813146178353114 -0.0061184791619543297 0.28335876575802277 -0.0080681490364750107
leaf_weight=28 131 935 357 318 43 466 123 1312 23 230 138 1063 3785 31 153 74 3813 20 20 41572 47 83 11421 69 4418 1127 3125 1606 20 2572
leaf_count=28 131 935 357 318 43 466 123 1312 23 230 138 1063 3785 31 153 74 3813 20 20 41572 47 83 11421 69 4418 1127 3125 1606 20 2572
internal_value=0 0.00509348 0.00728942 0.0268925 0.0675253 0.0113156 0.115088 -0.000573623 -0.006269 0.024244 -0.00760729 -0.0249844 -0.00499061 -0.0173672 0.0685599 0.000368613 1.12462e-05 0.00137669 0.177075 0.00121604 -0.00480309 0.0563362 -0.00543892 0.0166833 -0.00543844 0.0124052 0.00451482 0.00958246 0.0176298 -0.00367319
internal_weight=0 9696 8761 1081 297 784 166 69427 9869 411 9458 1232 8226 1094 181 59558 58288 45425 40 45385 12863 130 12733 1270 8203 1196 7680 4751 3145 2929
internal_count=79123 9696 8761 1081 297 784 166 69427 9869 411 9458 1232 8226 1094 181 59558 58288 45425 40 45385 12863 130 12733 1270 8203 1196 7680 4751 3145 2929
is_linear=0
shrinkage=0.1


Tree=26
num_leaves=31
num_cat=0
split_feature=74 94 157 43 161 155 127 59 144 194 179 50 62 87 91 127 131 18 21 43 30 159 74 35 32 81 59 37 88 44
split_gain=28.6722 46.2358 35.2158 47.0546 36.5833 27.7315 73.6708 667.974 64.2281 82.2614 58.1872 56.2006 55.7707 78.7531 71.8375 65.9689 52.2882 57.9972 51.8951 48.6521 45.132 64.113 45.1123 43.4587 52.5121 46.6185 38.9392 37.8693 37.0208 29.3863
threshold=0.45677872002124792 0.62430882453918468 -0.41367739439010615 -0.21683729439973828 -1.4771500229835508 -0.045406905934214585 0.27317619323730474 0.30999897420406347 0.76427486538887035 0.16910372674465182 -0.023670909926295277 0.043999744579195983 -0.14799355715513227 0.5004783868789674 -2.9991089105606075 0.063811477273702635 -0.21254418045282361 0.018660349771380428 -0.17643062025308606 0.77295091748237621 0.28683544695377355 0.063869688659906401 -0.10043375939130782 -0.11811030656099318 -2.5981347560882564 0.083593554794788374 -0.43719360232353205 0.70607000589370739 0.038835290819406516 -0.070558335632085786
decision_type=2 2 2 2 2 2 2 2 2 2 2 2 2 2 2 2 2 2 2 2 2 2 2 2 2 2 2 2 2 2
left_child=5 2 3 -2 -4 6 8 16 23 10 -10 -11 20 14 19 26 17 -8 -16 -14 21 -7 -22 24 -1 -25 -15 -24 -17 -23
right_child=1 -3 4 -5 -6 12 7 -9 9 11 -12 -13 13 15 18 28 -18 -19 -20 -21 22 29 27 25 -26 -27 -28 -29 -30 -31
leaf_value=0.13737773292724345 0.0051600351468681499 -0.10671580316340959 -0.058879050486587425 0.10979691539989148 -0.010088255770106132 -0.05938852154185769 -0.0025218597464243108 0.57828562149697393 0.23082003360654149 0.12704482516680088 0.060848292031918806 -0.024058089000394099 -0.031995375645805839 0.15929475557420544 -0.01271908668175392 0.01567853490742643 0.10483374029423241 0.15371988150543106 -0.00019511916581486523 0.11266165734849796 -0.059275891671175675 0.074983319416452601 -0.015112432607418461 0.0071538583896977974 -0.014353299278227108 2.7988306443139693e-06 0 0.014209872935134555 -0.020093369065739365 -0.061497984543833928
leaf_weight=22 442 48 168 47 1860 412 480 21 34 30 55 118 30 48 4841 2632 58 24 10498 86 170 58 1367 11763 2177 40623 23 646 322 20
leaf_count=22 442 48 168 47 1860 412 480 21 34 30 55 118 30 48 4841 2632 58 24 10498 86 170 58 1367 11763 2177 40623 23 646 322 20
internal_value=0 -0.0102865 -0.00837028 0.0156044 -0.0142026 0.000459536 0.00163658 0.0369736 0.00125842 0.0531076 0.128589 0.00654802 -0.00261887 -0.000660337 -0.00355352 0.0140863 0.0156362 0.00500529 -0.00415443 0.074482 -0.0161188 -0.0435739 -0.00989638 0.00103064 -0.0127334 0.00161045 0.108864 -0.00565306 0.0117419 0.0384659
internal_weight=0 2565 2517 489 2028 76558 55405 583 54822 237 89 148 21153 18480 15455 3025 562 504 15339 116 2673 490 2183 54585 2199 52386 71 2013 2954 78
internal_count=79123 2565 2517 489 2028 76558 55405 583 54822 237 89 148 21153 18480 15455 3025 562 504 15339 116 2673 490 2183 54585 2199 52386 71 2013 2954 78
is_linear=0
shrinkage=0.1


Tree=27
num_leaves=31
num_cat=0
split_feature=136 87 132 78 38 196 147 160 75 24 159 146 108 43 132 32 199 56 37 68 17 9 43 166 110 172 80 54 7 131
split_gain=25.8169 34.6592 26.9939 45.4131 43.6725 76.743 43.3478 60.3962 42.2111 34.1395 72.7157 44.8339 32.0577 43.7387 26.8851 64.1704 47.1445 27.2043 25.9235 22.3587 32.9778 25.1385 18.2752 17.9809 16.0847 14.3936 14.1629 13.7 13.6502 10.1956
threshold=-0.50809690356254567 -2.7866837978363033 -0.13795237988233564 -0.39496771991252894 0.45943097770214086 0.052997212857007987 2.3603929281234746 -0.1891747713088989 -0.28873313963413233 0.12727519124746325 0.10767577961087228 2.9972658157348637 1.4654021859169009 -0.27013216912746424 -0.08887444436550139 -1.4376515746116636 -0.32084190845489496 0.71367186307907116 -0.66992142796516407 1.5737014412879946 2.9999830722808842 -1.0845134854316709 -0.29801060259342188 -0.46342743933200831 0.42047162353992468 0.98255443572998058 -1.7440107464790342 -0.31512008607387537 -0.016247107647359368 0.089239370077848448
decision_type=2 2 2 2 2 2 2 2 2 2 2 2 2 2 2 2 2 2 2 2 2 2 2 2 2 2 2 2 2 2
left_child=25 14 4 12 6 -6 8 -8 -3 10 -5 -11 18 -14 19 16 -16 22 -4 20 21 -2 -17 24 -21 28 -19 -25 -1 -27
right_child=1 2 3 9 5 -7 7 -9 -10 11 -12 -13 13 -15 15 17 -18 26 -20 23 -22 -23 -24 27 -26 29 -28 -29 -30 -31
leaf_value=-0.0076815702291551605 0.025687480766732381 0.0011500796988936017 -0.044437865068455977 0.0022813900061625491 -0.011168201718368628 0.23360902294694383 0.056430667283470126 -0.12164746059153703 -0.014761532185618823 -0.0041272364270103249 -0.019976022726296103 0.042002413089521171 0.01700086141556266 0.16774528290420435 -0.25544932229991174 -0.15616179702177427 -0.049435692090406019 -0.0371234874488892 0.011610860800610089 0.021884731897804297 0.12989279775256155 -0.0349588465159094 -0.029352152620797087 -0.013994195747785347 -0.035547998188299339 0.10207561282638411 -0.0032294608022173789 -0.053183579776580142 0.018168525184223672 0.030651629472330411
leaf_weight=287 232 2947 83 46589 31 20 188 20 3807 17420 1514 212 56 30 20 23 28 186 3408 181 23 95 27 273 65 25 384 140 670 139
leaf_count=287 232 2947 83 46589 31 20 188 20 3807 17420 1514 212 56 30 20 23 28 186 3408 181 23 95 27 273 65 25 384 140 670 139
internal_value=0 -0.000114696 0.000196617 0.000796048 -0.00571354 0.0855108 -0.00640702 0.0383779 -0.00780551 0.000197399 0.0015785 -0.00356497 0.011768 0.0719369 -0.0143321 -0.0299002 -0.140507 -0.0209822 0.0102393 -0.00391294 0.0163571 0.00772861 -0.0913733 -0.0148305 0.00624635 0.0151627 -0.0144994 -0.0275998 0.0103171 0.0426405
internal_weight=0 78002 76325 69312 7013 51 6962 208 6754 65735 48103 17632 3577 86 1677 668 48 620 3491 1009 350 327 50 659 246 1121 570 413 957 164
internal_count=79123 78002 76325 69312 7013 51 6962 208 6754 65735 48103 17632 3577 86 1677 668 48 620 3491 1009 350 327 50 659 246 1121 570 413 957 164
is_linear=0
shrinkage=0.1


Tree=28
num_leaves=31
num_cat=0
split_feature=162 101 115 62 200 44 36 196 185 174 180 132 50 193 91 22 87 44 147 161 127 70 84 111 188 52 180 110 143 108
split_gain=24.479 72.8681 58.906 51.9787 61.9025 41.5728 41.4413 25.5908 43.5648 46.1765 24.4055 78.2552 56.9576 62.2304 32.2894 28.1509 53.3444 43.0252 37.702 37.4768 36.7042 43.2316 30.8353 29.5483 59.9866 35.0534 27.0366 45.5227 25.9669 22.7872
threshold=-2.3209923505783077 0.20645285397768023 -0.11329578235745429 -1.0563153624534605 -0.073701336979866014 1.5644047856330874 0.24632655829191211 0.062914159148931517 -0.066880561411380754 -0.85697984695434559 -0.95454224944114674 -0.072870068252086626 0.122545063495636 -0.10010209307074545 -0.91802409291267384 -0.23019869625568387 0.46138277649879461 -0.6683804690837859 2.7740019559860234 0.80920910835266124 -0.3166669607162475 0.19847254455089572 -0.51260289549827565 -0.11205532401800154 0.14504118263721469 -0.067700430750846849 -1.3098601102828977 2.9999117851257329 0.06694482266902925 1.1933213472366335
decision_type=2 2 2 2 2 2 2 2 2 2 2 2 2 2 2 2 2 2 2 2 2 2 2 2 2 2 2 2 2 2
left_child=1 2 -1 4 -4 6 -5 -3 -9 -10 11 12 28 14 -14 16 20 -18 -19 23 22 -22 -12 24 -17 -25 27 -13 29 -2
right_child=10 7 3 5 -6 -7 -8 8 9 -11 15 26 13 -15 -16 19 17 18 -20 -21 21 -23 -24 25 -26 -27 -28 -29 -30 -31
leaf_value=-0.042330074810923435 -0.017530646301287114 -0.054234886471343863 0.023458929926211583 0.048070534530389557 0.22330644274465672 -0.079956821300031344 -0.012094413227609707 -0.12313809279991253 0.14749713102132408 -0.0089358637423560365 0.056626983960666281 0.19004820142260176 0.090413666595182948 0.17400057957291853 0.0032492416982956417 -0.0053833002989417469 0.16415942317942131 0.021578767367322567 0.15814332043071921 -0.039946469740154929 0.0049515338533834023 0.043974227793890014 -0.00047461662980685941 0.0032084167525508948 -0.16087471908462311 -0.0018294314903847973 0.014896085893629979 0 0.0026966904806856578 -0.061911082322670702
leaf_weight=183 3385 402 40 249 26 44 207 25 22 101 95 23 45 23 612 6818 22 947 20 232 794 447 6475 31447 24 24603 1028 25 638 121
leaf_count=183 3385 402 40 249 26 44 207 25 22 101 95 23 45 23 612 6818 22 947 20 232 794 447 6475 31447 24 24603 1028 25 638 121
internal_value=0 -0.0135175 0.00667147 0.0227267 0.105657 0.0114106 0.0205826 -0.0411477 -0.00484314 0.0191936 0.000318653 -0.00586182 -0.0113134 0.0154247 0.00948572 0.000827035 0.00612552 0.0280076 0.0246539 8.67974e-05 0.00333966 0.0191066 0.000344663 0.000236586 -0.00596487 0.000995378 0.0184792 0.0914983 -0.0157263 -0.0191058
internal_weight=0 1299 749 566 66 500 456 550 148 123 77824 5900 4824 680 657 71924 8800 989 967 63124 7811 1241 6570 62892 6842 56050 1076 48 4144 3506
internal_count=79123 1299 749 566 66 500 456 550 148 123 77824 5900 4824 680 657 71924 8800 989 967 63124 7811 1241 6570 62892 6842 56050 1076 48 4144 3506
is_linear=0
shrinkage=0.1


Tree=29
num_leaves=31
num_cat=0
split_feature=136 87 167 167 21 153 1 69 67 88 4 147 136 181 110 56 132 68 30 166 92 172 139 200 123 179 121 109 78 50
split_gain=21.4025 28.0193 25.5467 30.1086 24.4845 60.8989 82.1906 61.9304 47.816 28.8299 60.2279 62.564 42.2633 31.582 30.5184 22.1236 25.9503 23.8529 35.7758 19.3875 18.7054 11.8145 13.2903 12.1102 13.8788 10.2157 9.18159 10.073 9.94609 8.36869
threshold=-0.50809690356254567 -2.7866837978363033 -0.56777915358543385 -1.0010785460472105 2.3176935911178593 0.062862157821655287 -0.50431662797927845 -0.59645321965217579 0.36286367475986486 0.93061536550521862 0.13540051877498629 -0.16930293291807172 0.33944427967071539 -0.46206949651241297 -1.3417895436286924 0.71367186307907116 -0.08887444436550139 1.5737014412879946 -1.1787112951278684 -0.46342743933200831 0.34663167595863348 0.80110397934913646 -0.085515506565570817 -0.17873666435480115 0.71805861592292797 0.34580211341381079 -0.48407953977584833 -0.71225950121879567 -0.38824744522571558 0.094562701880931868
decision_type=2 2 2 2 2 2 2 2 2 2 2 2 2 2 2 2 2 2 2 2 2 2 2 2 2 2 2 2 2 2
left_child=21 2 3 -2 9 8 7 -7 -6 10 13 -12 14 -3 -11 16 29 18 -17 -19 -10 23 -23 24 -1 26 27 -25 -28 -4
right_child=1 4 15 -5 5 6 -8 -9 20 12 11 -13 -14 -15 -16 17 -18 19 -20 -21 -22 22 -24 25 -26 -27 28 -29 -30 -31
leaf_value=0.070885105654792571 -0.021007241665745698 0.012639841951004181 0.031253330614106782 -0.16099570635668858 -0.10200381019683263 0.053319738594275426 -0.015732458767844883 0.29053557236070582 0.021372410831773922 0.056473235628113766 -0.0094636188835895991 0.013707504426274796 -0.083238814692293231 -0.00074805683228821055 -0.0051065754425217522 0.057229648757023147 -0.10687813437856114 0.0053849581273989096 -0.0047972357675190981 -0.024436548746658411 -0.045583559677120841 0.11287383992216043 0.026285271394325255 0.021767280342344229 -0.013218763672119502 -0.012592714464975181 0.048294269962900982 -0.0078849340249034991 -0.013216963662228116 -0.036962158719191444
leaf_weight=60 46 1817 26 24 36 22 34 25 481 80 1440 6006 68 56919 9353 126 49 307 339 711 44 20 181 200 26 232 111 260 31 49
leaf_count=60 46 1817 26 24 36 22 34 25 481 80 1440 6006 68 56919 9353 126 49 307 339 711 44 20 181 200 26 232 111 260 31 49
internal_value=0 -0.000113731 -0.012897 -0.0718553 0.000166053 0.0195982 0.100223 0.184736 0.00763842 0 0.000740492 0.00921299 -0.00514994 -0.000332087 -0.00456862 -0.0102288 -0.0507607 -0.00674539 0.0118886 -0.0153534 0.015508 0.0137964 0.0358619 0.00884038 0.0444992 0.00500311 0.0119509 0.00481953 0.0342026 -0.0119682
internal_weight=0 78002 1677 70 76325 642 81 47 561 75683 66182 7446 9501 58736 9433 1607 124 1483 465 1018 525 1121 201 920 86 834 602 460 142 75
internal_count=79123 78002 1677 70 76325 642 81 47 561 75683 66182 7446 9501 58736 9433 1607 124 1483 465 1018 525 1121 201 920 86 834 602 460 142 75
is_linear=0
shrinkage=0.1


Tree=30
num_leaves=31
num_cat=0
split_feature=162 23 14 163 163 34 59 52 121 30 71 37 143 147 104 75 13 137 93 187 197 38 87 131 85 142 21 22 13 5
split_gain=31.613 62.8136 37.4886 36.8239 32.8396 30.1085 28.8009 47.9184 49.2606 46.8528 55.0983 40.1883 34.7782 67.0273 33.7893 33.3112 36.2718 34.1817 42.1363 28.0353 27.8788 37.6079 26.8228 27.0614 25.4896 22.4671 38.2438 22.2685 21.614 24.6235
threshold=-2.4780861139297481 -0.12218840047717093 0.026864144019782547 0.25564743578433996 0.28872852027416235 -0.52241939306259144 -1.176599860191345 0.045509688556194312 0.18815950304269793 0.065422061830759062 0.19671291857957843 0.8031841814517976 -0.59300571680068959 -0.74538424611091603 -2.770712018013 -0.27616754174232477 0.76370152831077587 1.0737128853797915 1.5351978540420534 1.9980334639549258 2.0319354534149174 0.9774206578731538 0.56930744647979747 -0.47728668153285975 -0.14779108017683026 -0.10164194181561469 -0.079959619790315614 0.34984932839870458 0.67019066214561474 1.5970677733421328
decision_type=2 2 2 2 2 2 2 2 2 2 2 2 2 2 2 2 2 2 2 2 2 2 2 2 2 2 2 2 2 2
left_child=1 2 5 -3 -5 -1 11 12 -9 -10 -11 14 13 -8 -2 16 19 -17 -19 -13 21 -14 23 -16 -15 27 -27 -7 29 -4
right_child=6 3 28 4 -6 25 7 8 9 10 -12 15 20 24 22 17 -18 18 -20 -21 -22 -23 -24 -25 -26 26 -28 -29 -30 -31
leaf_value=-0.13915878725160413 -0.11710079304176985 0.0056119618422320293 -0.018767053123622215 0.20742327154998563 0.039873052267456632 -0.023575945309200846 -0.022175352202028022 -0.01938831899471366 -0.024154676580239995 0.11495351249111552 0.025606119532277649 -0.010120132552112375 0.00046635323173569533 0.01816089734930805 -0.041524561722724701 -0.0037705126727443183 0.049939089261023813 0.0023008396891810953 0.18421174796627535 0.096652106179264133 0.070166132325687566 -0.017049101686696551 0.014424153395134299 -0.0070612551787179907 0.12199403230257699 -0.043685708326063021 0.036018690092021848 -0.14892302997975218 -0.077506016779779058 0.03496508277498183
leaf_weight=32 37 107 199 20 32 28 92 309 174 73 1262 1254 72073 37 554 48 117 23 31 24 56 1246 181 400 81 341 71 34 35 147
leaf_count=32 37 107 199 20 32 28 92 309 174 73 1262 1254 72073 37 554 48 117 23 31 24 56 1246 181 400 81 341 71 34 35 147
internal_value=0 -0.0171164 -0.0275581 0.0403573 0.108675 -0.045388 0.000375759 0.000738339 0.0167733 0.0242486 0.0306412 -0.0098287 0.000340675 0.0408884 -0.0236922 0.000969745 -0.00301477 0.0559116 0.109839 -0.00797044 0.000222805 0.000167179 -0.0204681 -0.0271954 0.0906399 -0.0385918 -0.0296689 -0.0950339 -0.00357568 0.00382076
internal_weight=0 1046 887 159 52 506 78072 75403 1818 1509 1335 2669 73585 210 1172 1497 1395 102 54 1278 73375 73319 1135 954 118 474 412 62 381 346
internal_count=79118 1046 887 159 52 506 78072 75403 1818 1509 1335 2669 73585 210 1172 1497 1395 102 54 1278 73375 73319 1135 954 118 474 412 62 381 346
is_linear=0
shrinkage=0.1


Tree=31
num_leaves=31
num_cat=0
split_feature=162 101 111 23 145 143 20 198 145 34 59 132 21 80 166 94 62 59 144 146 104 80 13 22 30 185 80 152 123 70
split_gain=25.6466 52.0675 53.3422 40.5071 39.8371 35.0372 32.9894 28.928 33.003 26.8444 29.1903 46.0975 59.6924 38.572 35.255 42.6609 32.7226 31.8732 30.8147 37.8762 30.4636 29.2657 26.3006 24.9026 24.3926 23.8391 25.9534 23.4201 17.7992 17.5453
threshold=-2.4780861139297481 0.20645285397768023 -0.11838809773325919 -0.36184634268283838 0.38992184400558477 0.041880775243043906 -0.97980761528015126 -0.12395915016531943 0.40219289064407354 -0.5514220893383025 -1.176599860191345 0.05569198168814183 -0.17365670949220655 0.3483892977237702 0.72404637932777416 0.87765160202980053 -0.1747433468699455 -0.93279108405113209 0.81146609783172619 -0.12326535210013388 -2.4419758319854732 0.46050684154033666 0.67019066214561474 0.47972017526626592 -1.5713644027709959 -0.0552560556679964 0.35091075301170355 -0.058541327714920037 1.0000000180025095e-35 -1.1490743160247801
decision_type=2 2 2 2 2 2 2 2 2 2 2 2 2 2 2 2 2 2 2 2 2 2 2 2 2 2 2 2 2 2
left_child=1 2 -1 5 -5 24 -6 8 -3 -2 18 14 13 -13 17 -16 -14 -12 20 -20 -11 -21 -7 25 -4 29 -27 -22 -25 -9
right_child=9 7 3 4 6 22 -8 23 -10 10 11 12 16 -15 15 -17 -18 -19 19 21 27 -23 -24 28 -26 26 -28 -29 -30 -31
leaf_value=-0.088195409496904353 0.033394175778468378 -0.033155600523289828 0.022269470737760141 0.0033840225739717247 0.1908485701963778 0.035975346578873031 0.05210009162669426 -0.00012422931019167929 -0.19947557653415179 -0.11654360582650887 0.040246266838809691 -0.025672035359100481 -0.01755906659354415 0.016376346081630071 -0.0058241245412069872 -0.044962096353761943 0.06281845368924853 0.00045617757268936337 0.1279846111139136 -0.0015805893038345062 0.053207741590140439 -0.032176148021920432 -0.056426596567967335 -0.042447930822555519 -0.063227582487762099 0.12371774830416288 -0.0066263775927380628 -0.034675869006645758 -0.1416572957171762 -0.055606850896199704
leaf_weight=56 244 28 44 75 29 195 49 102 23 42 201 286 57 898 1362 352 340 71741 20 1811 32 379 35 57 117 21 46 307 30 139
leaf_count=56 244 28 44 75 29 195 49 102 23 42 201 286 57 898 1362 352 340 71741 20 1811 32 379 35 57 117 21 46 307 30 139
internal_value=0 -0.0154164 0.00368043 0.0134498 0.0569362 -0.00342097 0.106565 -0.0412729 -0.112267 0.000338836 0.000233576 0.000594218 0.017485 0.00612678 0.000230154 -0.0139376 0.051025 0.000569198 -0.0101984 -0.00561207 -0.0364728 -0.00693045 0.0213286 -0.0316192 -0.0392818 -0.0177552 0.0339882 -0.0259751 -0.0788988 -0.0326099
internal_weight=0 1046 600 544 153 391 78 446 51 78072 77828 75237 1581 1184 73656 1714 397 71942 2591 2210 381 2190 230 395 161 308 67 339 87 241
