tree
version=v4
num_class=1
num_tree_per_iteration=1
label_index=0
max_feature_idx=65
objective=regression
feature_names=Column_0 Column_1 Column_2 Column_3 Column_4 Column_5 Column_6 Column_7 Column_8 Column_9 Column_10 Column_11 Column_12 Column_13 Column_14 Column_15 Column_16 Column_17 Column_18 Column_19 Column_20 Column_21 Column_22 Column_23 Column_24 Column_25 Column_26 Column_27 Column_28 Column_29 Column_30 Column_31 Column_32 Column_33 Column_34 Column_35 Column_36 Column_37 Column_38 Column_39 Column_40 Column_41 Column_42 Column_43 Column_44 Column_45 Column_46 Column_47 Column_48 Column_49 Column_50 Column_51 Column_52 Column_53 Column_54 Column_55 Column_56 Column_57 Column_58 Column_59 Column_60 Column_61 Column_62 Column_63 Column_64 Column_65
feature_infos=[-0.20962683856487274:3] [-0.37540921568870544:3] [-3:3] [-3:3] [-3:3] [-3:0.096717290580272675] [-0.82599103450775146:3] [-3:0.82500344514846802] [-0.73068571090698242:3] [-0.2096448540687561:3] [-3:3] [-3:3] [-0.3270128071308136:3] [-3:2.4776651859283447] [-2.5686731338500977:3] [-1.8737003803253174:3] [-3:3] [-3:3] [-3:3] [-3:3] [-0.24169446527957916:3] [-3:0.096442170441150665] [-1.3313096761703491:3] [-3:3] [-2.4640495777130127:3] [-2.4100196361541748:2.426471471786499] [-3:3] [-3:3] [-3:3] [-3:3] [-2.3083386421203613:3] [-3:3] [-0.30943107604980469:3] [-3:3] [-3:0.75786268711090088] [-3:0.90732991695404053] [-3:3] [-3:3] [-3:3] [-3:3] [-3:3] [-0.93613255023956299:3] [-3:3] [-2.2819473743438721:3] [-3:3] [-0.24151955544948578:3] [-3:3] [-3:3] [-3:2.0213592052459717] [-3:3] [-3:3] [-3:3] [-3:3] [-1.1656721830368042:3] [-3:3] [-0.07387571781873703:3] [-3:3] [-3:3] [-3:3] [-3:2.2552089691162109] [-3:0.8764498233795166] [-3:1.160143256187439] [-3:3] [-3:3] [-3:3] [-3:3]
tree_sizes=2900 2886 2875 2885 2927 2936 2878 2838 2843 2890 2895 2899 2934 2848 2888 2870 2855 2786 2897 2927 2881 2872 2868 2944 2925 2860 2846 2857 2901 2867 2891 2874 2845 2863 2950 2858 2825 2843 2838 2913 2909 2860 2885 2868 2870 2873 2821 2812 2823 2875 2926 2913 2875 2822 2821 2853 2829 2861 2889 2848 2839 2867 2935 2863 2844 2820 2877 2863 2852 2540 2824 2886 2830 2903 2940 2822 2840 2882 2822 2811 2848 2808 2827 2868 2917 2874 2887 2843 2879 2913 2812 2901 2911 2934 2928 2843 2856 2871 2837 2865

Tree=0
num_leaves=31
num_cat=0
split_feature=17 10 2 44 14 46 25 23 0 53 49 17 13 12 34 4 45 55 45 46 22 27 26 14 36 22 51 39 18 45
split_gain=94.6466 67.0685 72.1649 62.4009 101.531 59.8145 46.4575 44.5476 45.3796 44.0293 40.7391 47.3254 40.4584 61.0277 38.2449 56.2763 40.876 40.5173 38.0673 36.5292 32.3496 31.9784 32.1441 31.8201 47.7616 30.2103 63.6773 34.5041 29.6959 30.2663
threshold=0.97423124313354503 -1.6091858744621275 1.6652321815490725 -2.9992555379867549 -0.99436959624290455 2.4944388866424565 0.021672043018043045 -0.29032489657402033 -0.066405434161424623 -0.15134731680154798 0.17365098744630816 -0.0067414396908134213 -2.341091394424438 -0.21034542471170423 -1.7476021647453306 0.95105910301208507 -0.051419410854578011 -0.052428856492042535 -0.18948553502559659 2.2549746036529545 -1.0768045783042905 -0.18722494691610334 0.012995135039091112 2.7905836105346684 -0.79877245426177967 -1.0582271814346311 2.999214887619019 -0.047810846939682954 0.39239263534545904 -0.064470019191503511
decision_type=2 2 2 2 2 2 2 2 2 2 2 2 2 2 2 2 2 2 2 2 2 2 2 2 2 2 2 2 2 2
left_child=3 5 20 4 -1 18 21 8 -8 -7 11 12 13 -5 15 17 -17 -12 -2 -9 -3 -4 -23 -16 -25 27 -27 -20 -13 -30
right_child=1 2 6 10 -6 9 7 19 -10 -11 14 28 -14 -15 23 16 -18 -19 25 -21 -22 22 -24 24 -26 26 -28 -29 29 -31
leaf_value=-0.19397628398834307 0.11863560420770003 -0.081863301471499034 -0.14096034765917928 -0.081186312980181793 -0.020821079889133308 0.048886797998474729 -0.18255010528108337 -0.061044535704575562 -0.0023577775691576959 -0.1155192387815884 -0.018558424006608641 0.0008767530254668248 0.0054345146961116385 0.044130554793484766 -0.002145745088851517 0.042482233622410923 0.21904710030416485 0.10202599158721375 0.042874203497013957 0.06250833460612519 -0.0089995394293245195 0.00074090880444447607 -0.050060331023113171 0.027960234037039733 -0.0970090062122657 0.007521854889992889 0.12189615398920776 -0.054792760502227679 0.00065879281911730529 -0.070539431247787415
leaf_weight=38 30 61 21 41 279 20 56 244 20 66 121 36173 32227 471 19481 31 25 35 46 25 6065 351 189 46 83 2160 49 147 126 117
leaf_count=38 30 61 21 41 279 20 56 244 20 66 121 36173 32227 471 19481 31 25 35 46 25 6065 351 189 46 83 2160 49 147 126 117
internal_value=0.000658793 -0.00865609 -0.0136736 0.00181733 -0.0423962 0.00531873 -0.040038 -0.0690079 -0.136988 -0.0760835 0.00197638 0.00312268 0.00588161 0.0337772 -0.00201796 0.0401002 0.125302 0.00834029 0.00826515 -0.0490328 -0.00975327 -0.0219655 -0.0169218 -0.00248003 -0.0518415 0.00680103 0.0101529 -0.030932 0.000644862 -0.0341303
internal_weight=0 9550 7032 89294 317 2518 906 345 76 86 88977 69155 32739 512 19822 212 56 156 2432 269 6126 561 540 19610 129 2402 2209 193 36416 243
internal_count=98844 9550 7032 89294 317 2518 906 345 76 86 88977 69155 32739 512 19822 212 56 156 2432 269 6126 561 540 19610 129 2402 2209 193 36416 243
is_linear=0
shrinkage=1


Tree=1
num_leaves=31
num_cat=0
split_feature=54 44 14 37 34 58 22 33 25 53 16 59 10 44 29 24 54 16 5 22 58 25 14 14 32 10 14 3 50 34
split_gain=83.6166 53.6495 110.516 44.2089 46.0235 41.7509 54.6363 74.1864 72.5869 47.9308 41.7394 40.6542 55.4166 88.6255 46.7605 39.5686 34.0849 30.3992 29.8533 50.6843 38.6964 36.5136 27.7003 32.4788 28.5063 24.759 38.2152 33.1056 31.7628 42.3438
threshold=-0.34301374852657313 -2.9992555379867549 -1.1512024402618406 0.22128360718488696 -2.421554327011108 2.9999902248382573 -1.0582271814346311 2.1326237916946416 0.018972381018102173 -1.0000000180025095e-35 0.054710159078240402 -2.9989488124847408 -2.7338688373565669 2.4483696222305302 0.050024941563606269 -0.90699562430381764 0.32897812128067022 0.046814003959298141 0.063656158745288863 -0.98676848411560047 -1.4837350845336912 2.0077860355377202 2.3181025981903081 2.4534766674041752 -0.074879553169012056 1.3122975230216982 0.64368426799774181 -0.011712505947798489 -0.87364616990089405 -1.4857612848281858
decision_type=2 2 2 2 2 2 2 2 2 2 2 2 2 2 2 2 2 2 2 2 2 2 2 2 2 2 2 2 2 2
left_child=3 2 -2 5 10 11 9 17 -9 -7 -5 12 13 -1 -14 -13 22 -8 19 -6 -20 -22 -3 -24 -25 26 -18 -28 -27 -30
right_child=1 16 -4 4 18 6 7 8 -10 -11 -12 15 14 -15 -16 -17 25 -19 20 -21 21 -23 23 24 -26 28 27 -29 29 -31
leaf_value=-0.010282153262328446 -0.2018992685753366 -0.00040423663522432619 -0.01594217530263024 -0.2213866713957979 0.13197831927436421 0.065004368774398788 -0.037288565651555576 0.041473390419520126 0.25516372562947559 -0.096818166668365513 -0.033227942469618278 -0.10011653410264304 -0.043775864139545741 0.14646445734217114 0.020391210779382694 -0.0039269256847373497 0.0036128435766669786 0.029985511047629206 -0.16733563289152978 -0.0092507322314565425 -0.019901158469054641 -0.11175447881718995 0.10986547953853538 -0.020284305263562799 0.057289383716317865 -0.069198656420008317 0.0076543957679152943 0.032835901438384184 0.11546346815519555 -0.0091874040748398805
leaf_weight=178 37 39836 214 22 29 24 79 41 27 64 28 42 785 44 130 18882 33637 393 20 162 531 47 45 101 86 85 1418 839 27 991
leaf_count=178 37 39836 214 22 29 24 79 41 27 64 28 42 785 44 130 18882 33637 393 20 162 531 47 45 101 86 85 1418 839 27 991
internal_value=0 0.00166601 -0.0443892 -0.00538044 -0.0278923 -0.00446169 0.0208788 0.0329018 0.130045 -0.0513938 -0.120467 -0.00526064 -0.0236362 0.0208504 -0.0345438 -0.00415044 0.00181779 0.0184725 -0.0217677 0.0122446 -0.0327919 -0.0277054 -0.000200827 0.0341775 0.0149951 0.00400648 0.00446192 0.0170671 -0.0107196 -0.00568354
internal_weight=0 77316 251 21528 839 20689 628 540 68 88 50 20061 1137 222 915 18924 77065 472 789 191 598 578 40068 232 187 36997 35894 2257 1103 1018
internal_count=98844 77316 251 21528 839 20689 628 540 68 88 50 20061 1137 222 915 18924 77065 472 789 191 598 578 40068 232 187 36997 35894 2257 1103 1018
is_linear=0
shrinkage=0.1


Tree=2
num_leaves=31
num_cat=0
split_feature=17 22 7 58 41 16 40 23 57 2 44 14 10 10 2 25 47 41 29 31 61 7 17 26 1 28 50 40 46 2
split_gain=66.2777 50.6914 88.1249 74.7081 61.0516 50.4989 48.1198 47.0084 59.9272 43.8247 42.5377 66.7063 34.7785 28.7269 51.5749 38.6571 30.6132 33.6645 28.033 25.2405 26.6203 30.9403 24.827 28.5289 26.2438 24.712 23.4055 23.0063 22.5297 21.5528
threshold=0.97423124313354503 -1.0582271814346311 0.16429310292005542 2.9999902248382573 2.1091327667236333 0.065043095499277129 -1.5899412035942075 1.0728351473808291 0.64494064450263988 2.575509905815125 -2.9992555379867549 -1.0355463624000547 -1.0695896148681638 -1.5519391894340513 1.6652321815490725 0.021672043018043045 -0.5023059844970702 -0.2195562198758125 -0.060196924954652779 0.15322560817003253 0.77664971351623546 0.68594995141029369 -0.52039188146591175 -0.05750093795359134 -0.26185306906700129 -2.9996390342712398 -2.025112390518188 0.63164624571800243 1.655901372432709 2.1845657825469975
decision_type=2 2 2 2 2 2 2 2 2 2 2 2 2 2 2 2 2 2 2 2 2 2 2 2 2 2 2 2 2 2
left_child=10 2 5 13 12 9 -5 8 -8 -2 11 -1 18 16 27 -16 17 -3 -4 20 21 26 23 -21 -25 -18 -12 -15 -7 -22
right_child=1 3 4 6 -6 28 7 -9 -10 -11 19 -13 -14 14 15 -17 25 -19 -20 22 29 -23 -24 24 -26 -27 -28 -29 -30 -31
leaf_value=-0.16031084818095556 -0.078840959872369443 0.17245296731353621 -0.097907216965744892 -0.11560798894818475 0.15838171919820521 -0.09325305113961653 0.032005612878825591 -0.068985099790060789 0.13851127842643887 -0.20496234320811887 -0.022626786689953066 -0.018226292341069771 -0.08795234493416472 0.00042672071040225314 -0.017625013096306718 -0.063381006841437507 0.095502314115278375 -0.0022886975995111583 0.023691657762327942 0.020084984921196834 0.0011054378029554729 -0.045289113524041247 0.0015636017768102973 0.023449312662453967 0.0032944453187692931 -0.00093049690339301833 -3.9264840662586725e-05 -0.012701707170526792 0.029197504921351227 0.15126896590563452
leaf_weight=37 77 21 21 20 21 23 370 36 62 48 462 280 51 2001 487 306 26 20 134 1520 20 152 27081 711 7275 1861 51736 3927 38 20
leaf_count=37 77 21 21 20 21 23 370 36 62 48 462 280 51 2001 487 306 26 20 134 1520 20 152 27081 711 7275 1861 51736 3927 38 20
internal_value=0 -0.00779997 -0.0420685 -0.0062364 0 -0.0929111 0.0317533 0.0384748 0.047781 -0.129207 0.000964365 -0.0355385 -0.0170138 -0.00839412 -0.0114829 -0.0354555 0.0023244 0.086827 0.00611174 0.00109586 -0.000310001 -0.000374845 0.00311151 0.00751063 0.00510332 0.000395269 -0.000241413 -0.00825482 -0.0161609 0.0802746
internal_weight=0 9550 413 9137 227 186 488 468 432 125 89294 317 206 8649 6721 793 1928 41 155 88977 52390 52350 36587 9506 7986 1887 52198 5928 61 40
internal_count=98844 9550 413 9137 227 186 488 468 432 125 89294 317 206 8649 6721 793 1928 41 155 88977 52390 52350 36587 9506 7986 1887 52198 5928 61 40
is_linear=0
shrinkage=0.1


Tree=3
num_leaves=31
num_cat=0
split_feature=54 24 33 15 33 40 59 10 37 22 16 10 17 40 35 35 27 28 30 54 21 47 64 10 50 3 34 13 5 27
split_gain=60.7811 38.9777 42.1785 36.7995 33.8216 104.34 41.5413 28.9519 27.2095 32.8124 45.8853 28.1622 70.9051 68.4056 51.5717 39.2467 35.2936 25.4637 24.6844 22.9162 21.8133 27.6671 23.4646 20.7795 31.861 32.258 30.5557 22.4434 39.488 25.1336
threshold=-0.14710260927677152 -0.69292667508125294 -0.65217754244804371 0.9375605881214143 -2.5067473649978633 1.0170512795448305 0.30153454840183264 -1.0000000180025095e-35 0.22128360718488696 -1.1014534831047056 0.066227830946445479 -2.223825097084045 1.7118495702743532 0.86054837703704845 0.3351095318794251 0.44340202212333685 2.9601820707321171 -1.2337427735328672 0.85451936721801769 0.45439945161342626 0.045996040105819709 -0.29569499194622034 -0.22076393663883206 1.3122975230216982 -0.87364616990089405 -0.049999946728348725 -1.4857612848281858 -1.0766617059707639 0.059809638187289245 1.6128837466239931
decision_type=2 2 2 2 2 2 2 2 2 2 2 2 2 2 2 2 2 2 2 2 2 2 2 2 2 2 2 2 2 2
left_child=1 2 3 -1 5 6 7 -2 11 10 -10 13 17 16 -15 -14 -3 -13 -8 -6 22 -22 -11 27 25 -25 -26 28 -21 -29
right_child=4 8 -4 -5 19 -7 18 -9 9 20 -12 12 15 14 -16 -17 -18 -19 -20 23 21 -23 -24 24 26 -27 -28 29 -30 -31
leaf_value=-0.049499801235802922 0.15074177668143515 0.0023257994740357706 -0.020137569792705527 -0.2236651650050778 0.00025801693596145902 -0.21199016371036017 -0.093312481524136071 0.00051348481663051086 -0.18515137979937368 -0.074109081841459756 0 -0.013010977792596023 -0.019204185329568718 0.026505370105578747 0.11598948338060061 -0.11032123332338994 -0.055549545743359234 -0.0011456602495690971 0.0033375114074314354 -0.061761408557351377 0.096956945177677292 -0.0085338971437373991 -0.016201100718492775 -0.14828947205463924 0.10796610801308244 -0.0098714508878399495 -0.0089214254036657278 0.003664383124665346 0.016567986731462602 -0.10089162788952424
leaf_weight=33 21 1378 176 21 41323 29 52 34 27 109 26 1984 2057 412 77 48 113 20751 49 65 25 558 211 32 22 38 774 26267 2110 22
leaf_count=33 21 1378 176 21 41323 29 52 34 27 109 26 1984 2057 412 77 48 113 20751 49 65 25 558 211 32 22 38 774 26267 2110 22
internal_value=0 -0.00383843 -0.0447859 -0.121655 0.00166442 -0.0409065 -0.00740656 0.0611569 -0.00349442 -0.0200807 -0.0962024 -0.00289897 -0.00381657 0.00856108 0.0409874 -0.0213759 -0.00202936 -0.00218578 -0.0458969 0.00177778 -0.0154114 -0.00369722 -0.036383 0.00391566 -0.0113057 -0.0756255 -0.00544681 0.00438246 0.0141575 0.00356963
internal_weight=0 28006 230 54 70838 185 156 55 27776 956 53 26820 24840 1980 489 2105 1491 22735 101 70653 903 583 320 29330 866 70 796 28464 2175 26289
internal_count=98844 28006 230 54 70838 185 156 55 27776 956 53 26820 24840 1980 489 2105 1491 22735 101 70653 903 583 320 29330 866 70 796 28464 2175 26289
is_linear=0
shrinkage=0.1


Tree=4
num_leaves=31
num_cat=0
split_feature=54 24 13 36 14 1 38 65 61 47 36 3 17 18 9 65 43 27 34 21 26 23 12 6 41 49 31 54 48 38
split_gain=49.3052 31.9079 36.345 25.1509 85.8892 25.0958 22.8664 29.6366 35.4174 49.3782 42.1036 26.3349 25.776 22.8484 26.1474 26.0525 22.4974 42.2563 34.302 51.7555 45.6218 27.7039 24.9018 24.7449 20.9763 20.6786 19.7507 17.0902 15.9875 15.2144
threshold=-0.14710260927677152 -0.69292667508125294 -1.8820443749427793 -2.9991686344146724 -0.99436959624290455 -0.23982970416545865 0.053395034745335586 2.5785175561904912 0.77664971351623546 -0.13229665160179135 2.9995915889739995 0.042933167889714248 -2.9997919797897334 0.29423922300338751 -0.15474670380353925 0.54191523790359508 0.11494219303131105 1.6955084204673769 -1.7476021647453306 0.059813674539327628 -0.12857128679752347 -0.082275360822677598 2.995924830436707 -0.3089101761579513 0.062235329300165183 0.18576797097921374 0.37895883619785314 0.69402053952217113 0.36150670051574713 -0.017064360901713368
decision_type=2 2 2 2 2 2 2 2 2 2 2 2 2 2 2 2 2 2 2 2 2 2 2 2 2 2 2 2 2 2
left_child=1 2 -1 4 -2 29 12 8 10 -10 -8 28 -3 15 -15 -14 17 25 19 20 -18 23 -23 -20 -13 27 -4 -5 -9 -6
right_child=3 6 26 16 5 -7 7 11 9 -11 -12 24 13 14 -16 -17 18 -19 21 -21 -22 22 -24 -25 -26 -27 -28 -29 -30 -31
leaf_value=-0.13509196344073873 -0.1508570491212308 0.089505708477608803 -0.011164389908473606 0.00045510727568978871 0.099898808448262932 -0.021037354733997052 -0.0072254103897171603 -0.044204353265492782 -0.044678071350277314 0.13146537844096093 -0.078699375902917715 -0.051127410267643086 -0.0025862811627447111 -0.042238050768700353 -0.002425562422732481 0.0076189680228501326 0.20923912085270283 -0.11623382362294853 0.014454124913248368 -0.066760214196701625 0.049131156947105042 0.0017064186637911511 -0.037531953805574163 0.0025479459630472876 0.087836959780258336 -0.0044285318233610411 -0.11298431039942697 0.005378778224292338 -0.12536097611041061 0.0057301567940793224
leaf_weight=34 46 30 175 35978 29 258 5732 71 24 41 83 21 18132 294 387 2898 21 30 3899 30 119 11260 163 3201 20 6974 21 8784 43 46
leaf_count=34 46 30 175 35978 29 258 5732 71 24 41 83 21 18132 294 387 2898 21 30 3899 30 119 11260 163 3201 20 6974 21 8784 43 46
internal_value=0 -0.00345883 -0.0405103 0.00149737 -0.0241462 -0.00597881 -0.00314723 -0.00859627 -0.00743493 0.0652806 -0.00827461 -0.0517293 -0.00162997 -0.00176419 -0.0197875 -0.00117517 0.00163698 0.000561079 0.00461118 0.0492533 0.0750697 0.00419383 0.00113512 0.00910072 0.0148495 0.000632774 -0.0230484 0.00142353 -0.0764256 0.044187
internal_weight=0 28006 230 70838 379 333 27776 6035 5880 65 5815 155 21741 21711 681 21030 70459 51766 18693 170 140 18523 11423 7100 41 51736 196 44762 114 75
internal_count=98844 28006 230 70838 379 333 27776 6035 5880 65 5815 155 21741 21711 681 21030 70459 51766 18693 170 140 18523 11423 7100 41 51736 196 44762 114 75
is_linear=0
shrinkage=0.1


Tree=5
num_leaves=31
num_cat=0
split_feature=54 42 28 29 13 65 25 5 52 55 47 3 33 40 24 64 35 51 31 35 49 27 34 30 42 13 42 54 57 62
split_gain=52.1799 34.6528 63.0485 38.5745 62.3979 38.8145 52.0747 45.1676 39.3092 36.979 55.6148 34.4292 30.8439 80.3019 33.9384 28.6692 28.895 24.9595 24.3719 34.1359 33.582 30.2701 34.1061 22.6276 22.023 38.0045 22.7968 21.7313 20.5325 19.5067
threshold=-0.6932639181613921 -1.1918534636497495 -0.87738531827926625 -0.053314106538891785 -1.4751530885696409 0.12096616625785829 -0.017081511206924912 0.081934005022048964 0.0048449526075273761 -0.062948439270257936 -0.063949752599000917 0.21643482893705371 -2.5067473649978633 1.1814194917678835 -0.79434823989868153 -2.0057027339935298 0.4029496312141419 2.999214887619019 0.3095789253711701 0.26075610518455511 0.20392476767301562 2.0671452283859257 -1.7476021647453306 -1.648986220359802 0.050098890438675887 -0.96031206846237172 -0.018260582350194451 0.32897812128067022 2.225713968276978 0.26549689471721655
decision_type=2 2 2 2 2 2 2 2 2 2 2 2 2 2 2 2 2 2 2 2 2 2 2 2 2 2 2 2 2 2
left_child=1 2 -1 4 9 15 7 -7 -8 11 -11 -3 13 14 -2 23 -17 -6 20 -20 27 22 -22 -5 26 -26 -21 -14 -29 -16
right_child=12 3 -4 5 17 6 8 -9 -10 10 -12 -13 18 -15 29 16 -18 -19 19 24 21 -23 -24 -25 25 -27 -28 28 -30 -31
leaf_value=0.19170638964864201 -0.082107807590445669 -0.022814697181448022 -0.0016885404241037323 0.028543354903820584 -0.0071688124145869283 0.018221163220959413 -0.017536357601849441 0.12559534730128172 0.011186571285742242 -0.10227408053142575 -0.029578845581048091 0.10938969975451947 -0.00042123044739611742 -0.20972510389594792 0.074036316138398159 -0.0050175984578926568 -0.045886831149047652 -0.11239024546395071 0.002922304695757254 0.02971134554017479 0.07091187779435125 -0.097567062673607929 -0.0046102877208074227 -0.043347258778052788 0.072749663992246541 -0.00069375131782202027 0.0023023675476018315 0.0031410889254102135 0.046510150249693377 -0.010329344064507629
leaf_weight=24 54 183 49 48 2029 1179 1049 40 868 185 257 21 36109 23 35 7266 177 22 7544 512 59 34 12299 336 178 112 764 27075 109 110
leaf_count=24 54 183 49 48 2029 1179 1049 40 868 185 257 21 36109 23 35 7266 177 22 7544 512 59 34 12299 336 178 112 764 27075 109 110
internal_value=0 -0.0059012 0.0622547 -0.00627668 -0.0169981 -0.0036292 0.00575287 0.0219174 -0.00448225 -0.0441122 -0.0603741 -0.00829792 0.000741694 -0.0363946 -0.014985 -0.00740064 -0.00600799 -0.00839528 0.000840447 0.00572723 0.000250919 -0.00450781 -0.00423662 -0.0340659 0.019169 0.0441491 0.0133886 0.00118418 0.0033201 0.00973323
internal_weight=0 13733 73 13660 2697 10963 3136 1219 1917 646 442 204 85017 222 199 7827 7443 2051 84795 9110 75685 12392 12358 384 1566 290 1276 63293 27184 145
internal_count=98750 13733 73 13660 2697 10963 3136 1219 1917 646 442 204 85017 222 199 7827 7443 2051 84795 9110 75685 12392 12358 384 1566 290 1276 63293 27184 145
is_linear=0
shrinkage=0.1


Tree=6
num_leaves=31
num_cat=0
split_feature=17 22 8 11 47 27 8 15 32 8 3 18 8 52 34 29 11 61 37 10 29 54 35 36 41 14 62 11 28 36
split_gain=46.2447 37.5542 56.6404 58.6558 54.5079 43.7859 59.3824 61.543 69.265 50.9542 42.9001 37.9869 35.2093 34.8142 32.7315 32.6487 29.5318 28.7948 28.1203 38.5441 26.3354 23.8485 24.0038 29.5535 37.7513 26.1887 25.9841 34.7812 23.8434 44.4528
threshold=1.7118495702743532 -1.0582271814346311 -0.3232708722352981 -0.11634816974401473 -0.064741611480712877 1.9198382496833803 -0.24625831842422483 1.6086169481277468 -0.075925748795270906 -0.30709223449230189 -0.07947643473744391 -0.01466892985627055 -0.039150249212980263 0.085240125656127944 -2.9982445240020748 -0.026840677484869954 0.045026943087577827 0.6625833809375764 0.54061755537986766 1.7438060045242312 -0.049760989844799035 0.32897812128067022 0.31687887012958532 2.6969908475875859 -0.42222766578197474 0.52370244264602672 0.83572357892990123 -0.03997919708490371 -1.2337427735328672 2.9995915889739995
decision_type=2 2 2 2 2 2 2 2 2 2 2 2 2 2 2 2 2 2 2 2 2 2 2 2 2 2 2 2 2 2
left_child=18 2 4 -4 14 11 7 9 -9 -7 13 -3 -12 -8 -2 17 -17 -5 21 -20 -13 28 23 25 -25 -23 27 -24 -1 -30
right_child=1 5 3 15 -6 6 10 8 -10 -11 12 20 -14 -15 -16 16 -18 -19 19 -21 -22 22 26 24 -26 -27 -28 -29 29 -31
leaf_value=-0.0085035500602563732 0.18124397389575186 -0.0091563109350999046 0.07566974563738002 -0.090934679781575697 -0.060687836739866552 -0.017659442834397906 -0.042658157080935795 0.013682635374740119 0.17096426987187441 0.091659140972721098 -0.026835787508733278 0.010294758822908125 0.043173138551009571 0.072928215372701041 0.0027942055565147246 -0.074474646748144677 0.056123526313206218 -0.21183427084666462 -0.013299068979157631 -0.10458174960265508 -0.052252608611523955 0.0017691642430311093 -0.042365724981996852 -0.027659159801869299 0.096279546214016104 0.012114823678013566 -0.095244189138013649 0.0099645349138561823 -0.00053177574616291581 0.043526515222974099
leaf_weight=3836 23 1595 23 86 37 158 313 52 64 57 109 78 201 27 20 64 22 29 571 50 391 33647 217 35 72 2643 40 299 53762 229
leaf_count=3836 23 1595 23 86 37 158 313 52 64 57 109 78 201 27 20 64 22 29 571 50 391 33647 217 35 72 2643 40 299 53762 229
internal_value=0 -0.0117121 -0.0452428 -0.0710736 0.0258953 -0.00832033 0.00900488 0.0434653 0.101955 0.0111585 -0.00843531 -0.0166012 0.0182448 -0.033023 0.10226 -0.0886125 -0.0397251 -0.123728 0.000241248 -0.02095 -0.0416483 0.000381304 0.0023663 0.00268378 0.0549722 0.00252555 -0.0182153 -0.0118962 -0.000885534 -0.000342383
internal_weight=0 3349 304 224 80 3045 981 331 116 215 650 2064 310 340 43 201 86 115 95401 621 469 94780 36953 36397 107 36290 556 516 57827 53991
internal_count=98750 3349 304 224 80 3045 981 331 116 215 650 2064 310 340 43 201 86 115 95401 621 469 94780 36953 36397 107 36290 556 516 57827 53991
is_linear=0
shrinkage=0.1


Tree=7
num_leaves=31
num_cat=0
split_feature=59 22 8 7 56 47 65 10 30 23 16 1 49 65 36 12 2 16 61 32 4 44 11 19 26 43 10 45 38 40
split_gain=38.3188 34.553 48.6559 46.1728 49.6781 42.0141 34.244 31.6468 40.1869 64.2284 52.4149 48.6122 27.1125 27.0839 34.8498 27.1326 26.1327 39.5171 39.0004 25.2446 25.0485 44.4162 46.2024 44.7514 31.3014 28.5401 36.9197 29.5242 28.5076 36.6703
threshold=-1.8665697574615476 -1.0582271814346311 -0.28641915321350092 0.16429310292005542 -0.0070074785035103551 -0.033985143527388566 2.5785175561904912 -2.9998813867568965 -1.1005434989929197 -0.071890953928232179 0.059193942695856101 -0.17615748196840283 0.27338950335979467 1.1556314229965212 1.5267494916915896 -0.066738136112689958 0.97891888022422802 0.059688666835427291 0.6625833809375764 -0.16441783308982846 1.8602946400642397 1.462510943412781 -0.024517369456589218 0.25307391583919531 -0.01046979473903775 2.9994826316833501 1.1825031042099001 -0.08034211769700049 0.0085301017388701456 -2.1999552249908443
decision_type=2 2 2 2 2 2 2 2 2 2 2 2 2 2 2 2 2 2 2 2 2 2 2 2 2 2 2 2 2 2
left_child=1 2 3 -1 -5 6 -4 8 9 10 -3 -11 -2 15 -15 -10 -9 18 -18 -19 25 28 24 -24 -23 -14 -27 -28 -22 -30
right_child=12 7 5 4 -6 -7 -8 16 13 11 -12 -13 20 14 -16 -17 17 19 -20 -21 21 22 23 -25 -26 26 27 -29 29 -31
leaf_value=-0.074693238155939645 0.00091485343320731819 -0.13470927694278631 -0.069497855848776061 -0.041781021809141963 0.13740579480537249 0.046998447202763353 -0.20474593982197878 -0.0033534902164617641 0.0095309203046156921 0.040012759268565262 0.055456250651419951 0.18681572094830906 -0.0044278933680140823 -0.0196233870234865 0.15650071718756409 -0.050163535225817658 -0.021281575292375475 0.055791804239243452 0.035367924176548542 -0.045736307498769169 0.020947046579482834 -0.08069435087587104 0.05822719519934591 0.2350879422044829 0.059498798486950638 -0.063119958637836746 -0.072329420994676444 0.036558764634928402 -0.07754076159076205 -0.0011652207043959405
leaf_weight=35 81969 24 156 24 38 25 22 1678 200 52 33 43 11840 20 22 120 405 24 172 559 431 25 43 23 40 187 33 91 77 339
leaf_count=35 81969 24 156 24 38 25 22 1678 200 52 33 43 11840 20 22 120 405 24 172 559 431 25 43 23 40 187 33 91 77 339
internal_value=0 -0.0101983 -0.0427237 0.0146432 0.0669503 -0.0705418 -0.087743 -0.00724772 0.015486 0.0584895 -0.0238698 0.108642 0.000238143 -0.00241482 0.0718412 -0.0126407 -0.0114024 -0.0229514 -0.00419997 -0.0413101 -0.00397932 0.0113791 0.0653801 0.123741 0.0037522 -0.00522409 -0.0351255 0.00649055 0.00285118 -0.0156743
internal_weight=0 3652 300 97 62 203 178 3352 514 152 57 95 95098 362 42 320 2838 1160 577 583 13129 978 131 66 65 12151 311 124 847 416
internal_count=98750 3652 300 97 62 203 178 3352 514 152 57 95 95098 362 42 320 2838 1160 577 583 13129 978 131 66 65 12151 311 124 847 416
is_linear=0
shrinkage=0.1


Tree=8
num_leaves=31
num_cat=0
split_feature=17 48 56 65 6 2 20 53 39 25 62 50 18 42 11 22 40 33 42 53 44 16 35 4 7 35 26 22 17 22
split_gain=35.4335 33.4871 37.9869 46.49 37.9906 36.5292 65.5161 39.8486 37.55 32.7195 32.0221 31.4796 26.7517 32.513 22.1102 20.9483 20.7141 29.9872 35.9914 98.6453 44.3024 33.439 29.5991 28.396 27.4909 22.579 36.2314 33.5739 31.9523 30.0197
threshold=0.28748014569282537 1.3987582325935366 -0.044012501835823052 1.3899438977241518 -0.151873804628849 2.7682020664215092 -0.20590718835592267 -0.84038618206977833 0.042226664721965797 -0.039417631924152367 -0.6775655448436736 -0.010724972933530806 0.29423922300338751 0.066130127757787718 0.004443435464054347 -1.0768045783042905 -2.7852094173431392 -2.5067473649978633 0.054286662489175803 0.13268345594406131 0.7582761049270631 0.0077784953173249969 -1.0847569108009336 0.35683713853359228 0.23921448737382892 0.26299364864826208 -0.051662551239132874 -1.0768045783042905 -0.30159181356430048 -1.1361495256423948
decision_type=2 2 2 2 2 2 2 2 2 2 2 2 2 2 2 2 2 2 2 2 2 2 2 2 2 2 2 2 2 2
left_child=16 5 4 9 -3 12 14 -8 -9 11 -11 -4 -2 15 -7 -14 17 -1 21 23 -21 24 -23 -20 -19 -18 27 -27 -29 -28
right_child=1 2 3 -5 -6 6 7 8 -10 10 -12 -13 13 -15 -16 -17 25 18 19 20 -22 22 -24 -25 -26 26 29 28 -30 -31
leaf_value=-0.11438708369221007 -0.0015170853629921691 -0.13237543622791229 -0.10056460725929567 0.12310687610898985 -0.02616888753029209 0.018960005513356325 0.081912638334081661 -0.018691746365795611 -0.067073327588672127 0.076766320546965375 -0.017336023818044104 0.033515299028443316 -0.10421272177457351 -0.1049087370695076 0.17102668311331323 -0.011548284650033974 0.00080468440905082008 -0.036835480044646166 0.0049450820489791748 0 0.1282974728004693 0.089898126959203684 -0.01041518407154543 -0.08069365740880742 -0.1494958070840737 0.10856775790939394 -0.065378468269008699 0.030684624870505509 -0.011522761044168314 0.004597566492240978
leaf_weight=26 26919 60 75 23 83 21 29 489 245 42 226 21 25 44 20 546 62153 176 98 39 89 29 1284 61 25 45 61 733 233 4830
leaf_count=26 26919 60 75 23 83 21 29 489 245 42 226 21 25 44 20 546 62153 176 98 39 89 29 1284 61 25 45 61 733 233 4830
internal_value=0 -0.00308011 -0.0279805 -0.0113445 -0.0719706 -0.00261013 -0.0236192 -0.0303703 -0.035036 -0.0203987 -0.00201635 -0.0702137 -0.00199242 -0.0226095 0.0975967 -0.0159379 0.00108439 -0.00941404 -0.00778638 0.0245089 0.0897014 -0.0139826 -0.00806389 -0.0276002 -0.0519557 0.00136775 0.00728015 0.0245209 0.0204046 0.00369289
internal_weight=0 28868 530 387 143 28338 804 763 734 364 268 96 27534 615 41 571 69882 1827 1801 287 128 1514 1313 159 201 68055 5902 1011 966 4891
internal_count=98750 28868 530 387 143 28338 804 763 734 364 268 96 27534 615 41 571 69882 1827 1801 287 128 1514 1313 159 201 68055 5902 1011 966 4891
is_linear=0
shrinkage=0.1


Tree=9
num_leaves=31
num_cat=0
split_feature=17 22 7 34 28 25 26 24 48 65 5 37 61 7 13 58 65 65 65 31 36 47 43 5 20 63 24 57 36 61
split_gain=28.7169 28.0907 55.3737 31.2792 30.0292 39.0946 24.1381 25.9871 24.5926 27.3082 23.1951 23.0502 24.0936 30.5064 26.0045 21.2035 39.0125 19.0473 19.4033 18.8177 20.8885 22.2912 19.6141 36.455 31.3321 24.6242 19.3085 18.0709 18.8998 17.0942
threshold=0.28748014569282537 -1.1014534831047056 0.16608620434999469 -1.7476021647453306 -0.87738531827926625 -0.012754969764500855 -0.049910767003893845 -0.82543957233428944 1.3987582325935366 1.3098170161247256 0.064750503748655333 0.086999114602804198 0.77664971351623546 0.15628419071435931 -2.7968411445617671 0.72362652420997631 1.0919440984725954 2.2542530298233037 0.80799227952957164 0.15322560817003253 -2.0626938343048091 -0.045741653069853776 1.6225523948669436 0.08223209530115129 -0.1224086433649063 0.013903084211051466 -0.63512301445007313 -2.2187362909317012 -1.9345613121986387 0.77664971351623546
decision_type=2 2 2 2 2 2 2 2 2 2 2 2 2 2 2 2 2 2 2 2 2 2 2 2 2 2 2 2 2 2
left_child=19 2 3 -2 5 -4 11 -8 10 -10 -9 12 14 -14 -3 16 -6 18 -13 27 21 26 29 24 -24 -25 -21 28 -1 -22
right_child=1 6 4 -5 15 -7 7 8 9 -11 -12 17 13 -15 -16 -17 -18 -19 -20 20 22 -23 23 25 -26 -27 -28 -29 -30 -31
leaf_value=0.0005824003519903073 -0.14752973375423381 -0.059076727869118363 0.14770728677013586 -0.037754468495346444 -0.075002740167063583 -0.0082439042127179524 -0.10743628073897626 -0.0032931213060856247 -0.033020338765483263 0.08352993796435064 0.003153233272635423 -0.025640373567228959 0.13599401945749329 -0.012462008430696817 -0.0055128392167961698 -0.062821901544693637 0.10912181862251076 -0.096635282089381935 0.037805086780811084 -0.13585803884752962 0.0026967146717077114 0.0091222387939108029 -0.0031560225425343162 0.014570846459158788 0.027163628339390813 0.14025414772184469 -0.032377959283110359 -0.00020894336091256652 -0.067434712220722032 -0.070389914526625991
leaf_weight=76 50 92 26 61 20 37 22 12935 354 20 9810 662 26 26 4546 72 24 35 50 27 25704 68 721 30 637 37 64 42406 81 31
leaf_count=76 50 92 26 61 20 37 22 12935 354 20 9810 662 26 26 4546 72 24 35 50 27 25704 68 721 30 637 37 64 42406 81 31
internal_value=0 -0.00277335 -0.0337146 -0.0888837 0.00025718 0.0558695 -0.00245494 -0.00104139 -0.000931622 -0.0263385 -0.000508593 -0.00845259 -0.00582475 0.06108 -0.0066077 -0.0293422 0.023499 -0.024796 -0.0210072 0.000975714 0.00302427 -0.0329553 0.00323954 0.0146703 0.0110052 0.0863666 -0.0652004 -0.000336954 -0.0341023 0.00260239
internal_weight=0 28868 290 111 179 63 28578 23141 23119 374 22745 5437 4690 52 4638 116 44 747 712 69882 27319 159 27160 1425 1358 67 91 42563 157 25735
internal_count=98750 28868 290 111 179 63 28578 23141 23119 374 22745 5437 4690 52 4638 116 44 747 712 69882 27319 159 27160 1425 1358 67 91 42563 157 25735
is_linear=0
shrinkage=0.1


Tree=10
num_leaves=31
num_cat=0
split_feature=33 14 7 40 41 54 47 19 46 0 60 64 52 57 65 40 42 10 40 11 23 56 28 42 27 16 61 54 37 17
split_gain=29.8652 79.7208 32.4167 28.5799 26.9932 27.6011 36.1968 52.2083 27.4781 29.3287 26.5547 23.6218 27.1859 21.6261 20.9825 42.8991 19.795 19.7272 42.8359 63.26 40.606 39.1015 56.7964 32.3409 29.0996 62.5118 44.6497 22.3536 24.3228 24.0729
threshold=-2.5067473649978633 -0.99436959624290455 0.075502380728721633 -2.9998699426650997 -0.38211801648139948 -0.60071170330047596 -0.46210125088691706 0.80354660749435436 1.7433264255523684 -0.13403746485710141 -0.91634944081306446 -0.029201611876487728 0.052543489262461669 -0.49491825699806208 1.2294483780860903 -0.77762392163276661 -0.038225384429097169 -2.9998813867568965 1.1560475230216982 0.034888943657279022 -0.24822768568992612 -0.16884820163249967 -0.38854414224624628 -0.17575407028198239 2.9601820707321171 0.060671484097838409 -0.60260003805160511 0.051489669829607017 0.54061755537986766 -2.9997919797897334
decision_type=2 2 2 2 2 2 2 2 2 2 2 2 2 2 2 2 2 2 2 2 2 2 2 2 2 2 2 2 2 2
left_child=1 2 -1 -3 5 6 7 -2 16 -10 -5 12 -12 -7 -15 -16 -8 18 21 20 -20 22 -6 -23 27 26 -26 28 -19 -29
right_child=4 3 -4 10 17 13 8 -9 9 -11 11 -13 -14 14 15 -17 -18 24 19 -21 -22 23 -24 -25 25 -27 -28 29 -30 -31
leaf_value=-0.19503628814668084 0.0027141206236706299 -0.10999289105435413 -0.03741366398000049 -0.045651345530265494 0.21082650509520789 -0.02256924500667928 0.0030706979461696537 0.14813368874941771 -0.10369297116856756 -0.023998823264554454 0.076764905210809684 -0.018635093187543954 -0.037721442504425273 -0.0010353819254224181 0.050432605970163885 -0.0025333153957646294 -0.011529767843468852 -0.00057947787534689773 -0.079630457091653062 0.18696020186737464 0.063747134443285197 0.11773182354646827 -0.01228196227147948 -0.0060347610965842992 -0.093973073100133281 -0.19032365843384921 0.10973683068855478 -0.023256220001907212 -0.039205955763067117 0.0031512613642913582
leaf_weight=35 89 24 24 82 21 454 1228 34 53 387 90 81 25 24385 242 404 3688 32225 25 33 78 21 22 543 20 24 21 347 163 34035
leaf_count=35 89 24 24 82 21 454 1228 34 53 387 90 81 25 24385 242 404 3688 32225 25 33 78 21 22 543 20 24 21 347 163 34035
internal_value=0 -0.028679 -0.134112 -0.00741162 9.85109e-05 -0.00234546 -0.00878606 0.0445051 -0.0100353 -0.0340165 0.00144819 0.0217606 0.0509521 -0.000956798 -0.000560166 0.0172065 -0.00786341 0.00121975 0.017422 0.0680082 0.0276231 0.0058432 0.0967183 -0.00106805 0.00103797 -0.0653311 0.00822378 0.00110493 -0.000777952 0.00288135
internal_weight=0 361 59 302 98542 30964 5479 123 5356 440 278 196 115 25485 25031 646 4916 67578 743 136 103 607 43 564 66835 65 41 66770 32388 34382
internal_count=98903 361 59 302 98542 30964 5479 123 5356 440 278 196 115 25485 25031 646 4916 67578 743 136 103 607 43 564 66835 65 41 66770 32388 34382
is_linear=0
shrinkage=0.1


Tree=11
num_leaves=31
num_cat=0
split_feature=49 9 4 64 10 19 10 0 63 15 10 60 13 32 57 6 31 60 62 48 31 54 33 50 57 53 25 7 53 13
split_gain=26.547 33.162 35.8628 60.0171 80.8268 34.2553 28.508 25.3159 23.3875 24.6021 38.7396 24.0726 24.6893 23.381 38.4837 22.4188 22.066 21.6596 21.0416 22.4557 21.1606 21.0366 20.4532 20.2515 18.8369 43.6832 27.1878 36.7866 23.2006 17.5284
threshold=0.17365098744630816 -0.13732698559761045 1.7885839343070986 -0.59194436669349659 0.31342618167400366 0.47396685183048254 -1.8294526338577268 -0.086269006133079515 -0.12042126804590224 2.3040128946304326 -0.738966405391693 -1.1845888495445249 -2.2160335779190059 0.16200521588325503 2.998483538627625 -0.046167584136128419 2.5443630218505864 -0.91634944081306446 0.40227334201335913 0.10304220020771028 -1.678811192512512 0.44318750500679022 -1.2908312082290647 -2.3993029594421382 0.49933156371116644 2.9999225139617924 1.0000000180025095e-35 0.18253773450851443 1.9527056813240053 -1.8820443749427793
decision_type=2 2 2 2 2 2 2 2 2 2 2 2 2 2 2 2 2 2 2 2 2 2 2 2 2 2 2 2 2 2
left_child=21 5 7 4 -4 8 -7 18 11 23 -11 -2 -13 14 -8 -5 22 -15 20 -20 -3 -1 -9 -10 28 26 29 -28 -23 -26
right_child=1 2 3 15 -6 6 13 16 9 10 -12 12 -14 17 -16 -17 -18 -19 19 -21 -22 24 -24 -25 25 -27 27 -29 -30 -31
leaf_value=-0.00021474146741889068 0.075898774578660899 -0.039233489056993733 0.27849684015493459 0.024518178434120727 0.002679560516914252 -0.086161888777132226 -0.015062606891800376 -0.074392072854768704 -0.043733737804694389 0.14789948203042896 0.015247756700364365 -0.05439390671520769 -0.01257446041616269 -0.11317539598639469 0.061333728522388498 -0.081167253891010566 -0.11145703143891401 -0.025402991172028867 0.042895454496650914 0.0031383309297660887 0.0043062477720746577 0.0031892441525812696 -0.0057002323791725965 -0.002390584976899611 -0.064780607869863782 0.15172620423451694 0.015156465122548257 0.104579039983698 -0.040317091396386756 0.0046817601769898794
leaf_weight=53954 27 115 21 355 22 58 1863 44 119 24 216 160 1298 44 67 20 20 88 293 286 2818 22466 1530 12347 42 24 171 64 122 225
leaf_count=53954 27 115 21 355 22 58 1863 44 119 24 216 160 1298 44 67 20 20 88 293 286 2818 22466 1530 12347 42 24 171 64 122 225
internal_value=0 -0.00308494 0.00360098 0.0317372 0.142651 -0.00535515 -0.0172208 0.00127354 -0.00357481 -0.00217767 0.029438 -0.0154561 -0.0172612 -0.0151968 -0.0123324 0.0184381 -0.00915121 -0.0559747 0.00603329 0.0234583 0.00255457 0.00086499 -0.0077245 -0.00279617 0.00338938 0.0221077 0.015447 0.0402355 0.00294837 -0.0060813
internal_weight=0 21835 5524 418 43 16311 2120 5106 14191 12706 240 1485 1458 2062 1930 375 1594 132 3512 579 2933 77068 1574 12466 23114 526 502 235 22588 267
internal_count=98903 21835 5524 418 43 16311 2120 5106 14191 12706 240 1485 1458 2062 1930 375 1594 132 3512 579 2933 77068 1574 12466 23114 526 502 235 22588 267
is_linear=0
shrinkage=0.1


Tree=12
num_leaves=31
num_cat=0
split_feature=44 12 41 22 25 59 13 30 37 6 22 36 8 42 7 17 3 13 21 42 30 31 59 31 52 39 15 64 26 2
split_gain=25.8859 67.4087 21.7679 22.4605 31.1435 21.1452 23.938 20.3039 29.3035 19.1796 55.4043 75.4284 49.518 36.1435 27.8714 25.9908 23.4928 43.5328 40.6614 28.6221 35.8754 27.6006 18.9293 23.4184 44.7113 19.9344 32.0956 26.8438 17.228 33.5023
threshold=-2.9992555379867549 -0.21570643037557599 -0.38211801648139948 -1.1014534831047056 -0.012754969764500855 0.4903122633695603 -2.341091394424438 -1.3880656361579893 0.074459366500377669 -0.046350812539458268 -0.96314105391502369 2.4557604789733891 -0.40142527222633356 -0.25664006173610682 0.062726497650146498 -2.9997919797897334 -1.0000000180025095e-35 -2.2160335779190059 0.058472942560911186 0.037002779543399818 -1.1396075487136839 -1.4871587157249448 0.4864995032548905 -2.9998183250427242 -0.048670163378119462 0.042226664721965797 1.6633894443511965 -2.0057027339935298 0.055763812735676772 0.6071835756301881
decision_type=2 2 2 2 2 2 2 2 2 2 2 2 2 2 2 2 2 2 2 2 2 2 2 2 2 2 2 2 2 2
left_child=1 -1 3 4 7 6 -6 -2 -9 16 13 15 -13 -11 -15 -12 19 18 -18 21 -21 -4 25 24 -24 27 -27 -5 29 -3
right_child=2 28 9 22 5 -7 -8 8 -10 10 11 12 -14 14 -16 -17 17 -19 -20 20 -22 -23 23 -25 -26 26 -28 -29 -30 -31
leaf_value=-0.18527285666288976 0.082322038147376 -0.015615592285060001 -0.02090838513868043 -0.043438955167577516 -0.14146785466274056 0.012262353798112543 -0.040225364623319701 0.029771678268144471 -0.076620316694736859 0.080376166357280412 -0.071737496500745249 0.19408387918077297 0.042099612654390696 -0.12486685214828011 -0.031118108128751605 -0.00025147789104401353 0.04379276164285284 0.0045071186662884325 -0.014779156537398912 0.030877759480273353 0.0037778484749462307 -0.00084945445050802295 0.18231386613736467 0.0020638836727677446 0.01044722746284503 0.00049197967536656175 0.041400432260484669 -0.0044459248611153175 0.019482969272553365 -0.13456921310946759
leaf_weight=24 25 228 726 178 45 25 57 57 45 26 50 25 150 34 500 33928 521 15037 150 573 3376 12467 20 6938 60 5502 198 17810 102 26
leaf_count=24 25 228 726 178 45 25 57 57 45 26 50 25 150 34 500 33928 521 15037 150 573 3376 12467 20 6938 60 5502 198 17810 102 26
internal_value=0 -0.0260234 9.43011e-05 -0.00210041 -0.0316826 -0.0665361 -0.0867072 0.00266371 -0.0165171 0.00110142 -0.000535305 -2.05245e-05 0.0652823 -0.031708 -0.0374759 -0.000361471 0.00283383 0.00562765 0.0305554 0.000268016 0.00774058 -0.00196191 -0.00185164 0.00270232 0.0562228 -0.00320489 0.00193634 -0.00483933 -0.0145568 -0.0286206
internal_weight=0 380 98523 30960 254 127 102 127 102 67563 34713 34153 175 560 534 33978 32850 15708 671 17142 3949 13193 30706 7018 80 23688 5700 17988 356 254
internal_count=98903 380 98523 30960 254 127 102 127 102 67563 34713 34153 175 560 534 33978 32850 15708 671 17142 3949 13193 30706 7018 80 23688 5700 17988 356 254
is_linear=0
shrinkage=0.1


Tree=13
num_leaves=31
num_cat=0
split_feature=48 25 21 31 28 12 18 60 62 49 9 19 2 9 17 4 64 10 61 4 17 9 50 60 0 6 36 14 51 22
split_gain=22.0299 30.0429 29.5866 50.6096 30.3054 24.3265 23.7729 23.2776 22.7034 21.8046 31.467 31.7264 33.119 31.7848 28.4692 26.5972 49.161 65.1151 25.6946 36.3792 22.2004 34.5867 20.0813 20.0342 18.3319 18.2437 17.6586 30.9198 20.8177 44.9686
threshold=1.4570814967155459 -1.8941411375999448 0.049854027107357986 -2.5252454280853267 -1.610594570636749 -0.061806838959455483 -0.11386818438768385 -1.8469378948211668 -1.0503713488578794 0.18912891298532489 -0.13732698559761045 -0.034106567502021783 2.575509905815125 -0.16398128122091291 -2.9997919797897334 1.7885839343070986 -0.59194436669349659 0.34104005992412573 0.69420000910758983 -1.0000000180025095e-35 2.6396635770797734 -0.1411909535527229 1.0445561408996584 0.2217839136719704 -0.092459112405776964 -0.046691924333572381 -2.9991686344146724 -1.1512024402618406 -1.2234247326850889 -1.0768045783042905
decision_type=2 2 2 2 2 2 2 2 2 2 2 2 2 2 2 2 2 2 2 2 2 2 2 2 2 2 2 2 2 2
left_child=9 7 3 5 -5 -3 -6 -2 -4 26 11 12 14 -14 -11 18 17 -17 24 -20 22 -22 -13 -10 -12 -18 27 -1 29 -28
right_child=1 2 8 4 6 -7 -8 -9 23 10 15 20 13 -15 -16 16 25 -19 19 -21 21 -23 -24 -25 -26 -27 28 -29 -30 -31
leaf_value=-0.098980693897153998 -0.16329803791440911 0.172761611547881 0.04374552757217065 -0.11253223555957628 0.099953504523550507 0.017826081901290824 -0.0055115190177947009 -0.037218747033421186 -0.061999792331968645 -0.07664719696719044 0.007637861571551551 -0.0067263845688921428 -0.03344859843980335 0.096832179373529045 0.001640121929330735 0.24527883050488489 0.027492577745980823 0 -0.15855673196295855 0.010299458163781432 -0.079381596024896153 0.058832378509658091 -0.029633151125492675 0.023444405279042554 -0.0052977458837977585 -0.02838476626014776 0.067495109960159616 -0.00997280503321832 0.0005534896864882406 0.0056850826237284137
leaf_weight=43 22 24 28 24 22 20 304 51 182 46 2821 10048 24 67 4170 22 286 21 23 25 91 21 400 30 1782 71 120 392 72760 4963
leaf_count=43 22 24 28 24 22 20 304 51 182 46 2821 10048 24 67 4170 22 286 21 23 25 91 21 400 30 1782 71 120 392 72760 4963
internal_value=0 -0.0175827 -0.0103574 0.00630301 -0.00625298 0.106315 0.00158494 -0.0781096 -0.0380196 0.00012103 -0.00283186 -0.00515134 0.0020642 0.0614487 0.000746341 0.00397611 0.0287049 0.12884 0.00182351 -0.070177 -0.00810318 -0.0523485 -0.00761507 -0.0494119 0.00260929 0.0160685 0.000873637 -0.0191857 0.000987186 0.00717533
internal_weight=0 707 634 394 350 44 326 73 240 98196 19918 14867 4307 91 4216 5051 400 43 4651 48 10560 112 10448 212 4603 357 78278 435 77843 5083
internal_count=98903 707 634 394 350 44 326 73 240 98196 19918 14867 4307 91 4216 5051 400 43 4651 48 10560 112 10448 212 4603 357 78278 435 77843 5083
is_linear=0
shrinkage=0.1


Tree=14
num_leaves=31
num_cat=0
split_feature=54 14 13 32 58 34 44 8 59 7 36 14 34 62 1 2 44 2 46 58 13 63 48 65 51 18 27 27 59 29
split_gain=19.0571 24.2854 46.6767 18.4083 17.1432 28.2465 33.219 26.2322 20.9161 19.5219 17.8537 37.7953 27.3052 22.3521 17.6862 17.3759 37.6639 19.4159 24.4265 17.256 16.3708 16.3172 16.004 57.1182 57.0759 33.1928 16.0152 74.6141 15.8908 15.651
threshold=0.44318750500679022 -1.2562292814254759 -0.66991084814071644 -0.19821386784315106 -1.0432949066162107 -2.421554327011108 2.6781287193298344 1.3030673265457156 0.59595781564712536 0.26259285211563116 1.0382885932922366 -1.2562292814254759 -2.0340672731399532 0.4450735896825791 -0.25097429752349848 2.433573961257935 1.0927125811576845 2.1845657825469975 1.3625978231430056 2.672641515731812 -1.3974977135658262 0.90987005829811107 1.4570814967155459 0.91188818216323864 1.3998028635978701 -0.053530596196651452 2.5179922580718999 2.9601820707321171 -2.4505493640899654 -0.022560107521712777
decision_type=2 2 2 2 2 2 2 2 2 2 2 2 2 2 2 2 2 2 2 2 2 2 2 2 2 2 2 2 2 2
left_child=1 2 -1 20 5 -2 8 9 21 -8 15 -12 -13 -14 -10 17 -17 19 -19 -6 29 -7 26 25 -25 -24 28 -28 -5 -3
right_child=4 3 -4 22 10 6 7 -9 14 -11 11 12 13 -15 -16 16 -18 18 -20 -21 -22 -23 23 24 -26 -27 27 -29 -30 -31
leaf_value=-0.17792975967994454 0.10136563757617395 -0.097568268169947542 -0.018466621263799787 -0.010328359431649564 0.0023157647738983552 0.0010302544529771428 -0.13939899796656871 0.0088025312468479507 0.014089137922608734 -0.015411166042293124 0.14484088840408588 -0.074775318696945689 0.011622980561486071 0.079042801590810258 -0.018967358817212884 -0.091038383343166163 0.031096781657551167 -0.0029149321283531652 0.14703292700690984 0.077130721786295667 -0.0087960255169587109 0.062004710659923426 -0.046211112550652189 -0.013590675210188292 0.20567000911556232 0.0068454858039333185 0.05106160684663677 -0.019699054830432758 -0.00035059079519269995 -0.020364762376719817
leaf_weight=20 24 41 171 1637 25223 2101 42 31 187 21 21 34 1215 51 1057 58 42 20 20 30 1197 44 328 24 21 179 299 293 64388 84
leaf_count=20 24 41 171 1637 25223 2101 42 31 187 21 21 34 1215 51 1057 58 42 20 20 30 1197 44 328 24 21 179 299 293 64388 84
internal_value=0 -0.000925895 -0.0364572 -0.000824918 0.00208746 -0.0044744 -0.00525841 -0.0636569 -0.00359321 -0.100398 0.00295259 0.0142971 0.0120111 0.0144712 -0.013915 0.00235816 -0.0389906 0.00252686 0.0714108 0.0024113 -0.0125101 0.00235218 -0.000593346 -0.0175403 0.0888002 -0.0273143 -0.000451247 0.0159042 -0.00059956 -0.0469867
internal_weight=0 68682 191 68491 30221 3507 3483 94 3389 63 26714 1321 1300 1266 1244 25393 100 25293 40 25253 1322 2145 67169 552 45 507 66617 592 66025 125
internal_count=98903 68682 191 68491 30221 3507 3483 94 3389 63 26714 1321 1300 1266 1244 25393 100 25293 40 25253 1322 2145 67169 552 45 507 66617 592 66025 125
is_linear=0
shrinkage=0.1


Tree=15
num_leaves=31
num_cat=0
split_feature=46 7 62 39 55 54 24 34 20 54 61 34 8 55 59 55 22 6 25 10 52 40 44 31 11 54 5 63 49 13
split_gain=23.289 53.9185 44.1539 56.0621 39.0421 61.0641 49.0447 39.8794 35.5962 36.6033 39.8682 35.4131 35.1928 36.5288 32.4047 28.8274 27.3666 25.1439 23.2715 28.7012 21.0476 20.4831 34.1155 20.0228 21.2316 25.3111 29.0258 25.7165 24.0549 19.184
threshold=1.7433264255523684 0.11457308754324914 -1.0503713488578794 -0.049727778881788247 -0.053503105416893952 -0.6177275776863097 2.5595133304595952 -2.9982445240020748 -0.17120342701673505 -2.9999045133590694 0.68124672770500194 -2.421554327011108 -0.48628300428390497 -0.046812504529952996 -2.6944715976715083 -0.063177447766065584 -1.0768045783042905 -0.45408482849597925 0.063929300755262389 -1.444221496582031 -0.016026933677494522 1.2887202501296999 -2.4990186691284175 0.57453927397727977 0.042721915990114219 -1.2343040108680723 0.064574386924505248 0.022435283288359645 2.1841288805007939 -2.341091394424438
decision_type=2 2 2 2 2 2 2 2 2 2 2 2 2 2 2 2 2 2 2 2 2 2 2 2 2 2 2 2 2 2
left_child=21 4 3 -3 5 7 16 14 9 -4 -11 -8 -10 -14 -2 -9 20 -5 19 -7 -6 23 -23 -1 28 26 -26 -27 29 -25
right_child=1 2 8 17 6 18 11 15 12 10 -12 -13 13 -15 -16 -17 -18 -19 -20 -21 -22 22 -24 24 25 27 -28 -29 -30 -31
leaf_value=0.00018194871736089364 -0.19810413125237694 0.21260338819379956 -0.10463099201247315 -0.064602491195560371 -0.13630663098860693 0.073481007078173552 -1.2555768175395931e-05 -0.015319569736144602 0.10892756911510593 -0.022290284252392448 0.09432727210163494 0.14273246785671242 -0.00050663743627725878 0.050810170279688871 -0.044278627542172329 -0.080143111715354237 -0.00040368215581661286 0.084654215183536802 -0.056377132810128565 -0.013397384088315551 -0.0019034881087949336 -0.10842154780001234 -0.0093015357756470688 0.035525655118081874 0.10211581031286393 0.034903954308673088 0.010326050134560704 -0.0082287488538487236 -0.05336928191615125 0.0030498221606079052
leaf_weight=90115 38 21 50 20 28 40 29 131 31 491 30 38 1972 148 25 155 292 23 115 501 22 35 1283 197 78 278 66 268 70 2408
leaf_count=90115 38 21 50 20 28 40 29 131 31 491 30 38 1972 148 25 155 292 23 115 501 22 35 1283 197 78 278 66 268 70 2408
internal_value=0 -0.00731841 0.000722046 0.0822277 -0.0232175 -0.0338164 0.00261259 -0.067638 -0.00118746 -0.0233888 -0.0152338 0.0804129 0.00466964 0.00305222 -0.140112 -0.0509313 -0.0125325 0.0131751 -0.0156065 -0.006681 -0.080172 0.000290302 -0.0120819 0.000465879 0.00803914 0.0236945 0.0610443 0.0135814 0.00395845 0.00555428
internal_weight=0 4200 2786 64 1414 1005 409 349 2722 571 521 67 2151 2120 63 286 342 43 656 541 50 94798 1318 93480 3365 690 144 546 2675 2605
internal_count=98998 4200 2786 64 1414 1005 409 349 2722 571 521 67 2151 2120 63 286 342 43 656 541 50 94798 1318 93480 3365 690 144 546 2675 2605
is_linear=0
shrinkage=0.1


Tree=16
num_leaves=31
num_cat=0
split_feature=54 37 3 47 59 60 3 61 38 26 20 50 57 46 7 8 19 23 26 1 33 7 47 14 6 7 41 13 3 35
split_gain=20.0181 29.2317 66.9609 54.3444 34.6066 45.7641 23.8687 23.5924 73.0939 45.5426 50.4217 36.5618 25.6212 23.9165 55.7372 33.7951 24.0194 30.2734 26.0289 23.1923 22.5931 32.5249 39.7683 59.9692 32.0258 32.3756 28.1271 25.9573 24.6738 26.2641
threshold=-0.34301374852657313 0.099117305129766478 -1.2502748370170591 -0.55723345279693592 0.61979311704635631 -0.22251451015472409 -0.093054872006177888 0.77664971351623546 -0.0035056732594966884 -0.037656048312783234 -0.091656450182199464 -0.22589635103940961 0.23146288096904757 1.7433264255523684 0.11542891338467599 -0.47180254757404322 2.9989833831787114 -0.26488862931728357 -0.067582949995994554 -0.18354373425245282 2.7594864368438725 0.11082429066300394 -0.045884272083640092 2.1984088420867924 -0.046108590438961976 0.1301703825592995 -0.49914552271366114 -1.8199880123138426 -0.16575269401073453 0.25622655451297766
decision_type=2 2 2 2 2 2 2 2 2 2 2 2 2 2 2 2 2 2 2 2 2 2 2 2 2 2 2 2 2 2
left_child=1 7 -3 -4 6 -6 -5 13 12 11 -11 -10 -9 16 19 -16 18 -18 -1 -15 -2 28 24 26 25 -23 -24 -26 29 -22
right_child=20 2 3 4 5 -7 -8 8 9 10 -12 -13 -14 14 15 -17 17 -19 -20 -21 21 22 23 -25 27 -27 -28 -29 -30 -31
leaf_value=-0.012592459490798374 0.00054788174531236473 -0.091530642383323105 0.11477878549920982 -0.025170275014813018 0.18381471524375151 0 -0.0056769573228737501 -0.0053636230458769495 0.25035900550985662 0.079060834326222781 -0.066456982778695259 0.066547682982651207 -0.1208613725396388 -0.021374302606878049 0.12443503205417734 -0.0041262994253711653 0.13897377859130641 0.013606078248855897 0.00034994403650436277 -0.072153097921679288 -0.11090802136954821 0.12089257268481193 -0.056804811416400813 0.18882617235419308 -0.13729661455586875 0.013961993451141725 0.066926499274246348 -0.0012953176873039777 0.013721500063953916 -0.00799069846844375
leaf_weight=1728 76568 101 34 938 20 38 1956 74 21 76 33 27 26 187 20 833 26 76 15242 188 36 35 22 37 20 149 82 47 275 83
leaf_count=1728 76568 101 34 938 20 38 1956 74 21 76 33 27 26 187 20 833 26 76 15242 188 36 35 22 37 20 149 82 47 275 83
internal_value=0 -0.00271791 -0.0117303 -0.00897104 -0.010465 0.0651499 -0.0120341 -0.00121303 0.0287989 0.0714017 0.0339474 0.152204 -0.0371889 -0.00164118 -0.0151185 -0.00086564 -0.000665393 0.0474729 -0.000962972 -0.0472021 0.000722428 0.0175839 0.0379566 0.0804074 0.0135194 0.0353322 0.0395701 -0.0446427 -0.00248746 -0.0405491
internal_weight=0 21644 3087 2986 2952 58 2894 18557 257 157 109 48 100 18300 1228 853 17072 102 16970 375 77354 786 392 141 251 184 104 67 394 119
internal_count=98998 21644 3087 2986 2952 58 2894 18557 257 157 109 48 100 18300 1228 853 17072 102 16970 375 77354 786 392 141 251 184 104 67 394 119
is_linear=0
shrinkage=0.1


Tree=17
num_leaves=31
num_cat=0
split_feature=43 37 30 62 9 1 17 65 14 27 50 50 1 33 22 40 33 2 55 62 60 23 24 51 10 24 14 40 17 45
split_gain=18.2576 42.2062 47.3662 44.669 36.1161 48.006 53.7896 29.862 29.3617 28.0482 27.0991 26.7684 36.6737 25.7716 20.9674 18.27 30.0701 29.2887 25.4385 23.7759 27.0889 15.3064 22.3295 21.9091 16.1897 28.8604 36.4661 27.8913 17.4886 37.1343
threshold=2.9994826316833501 -0.0033477573888376351 0.4742786586284638 -0.091119755059480653 -0.10629956051707266 -0.18296635150909421 2.9997072219848637 0.15188279002904895 1.8867781162261965 0.95780190825462352 0.1401370167732239 0.20428284257650378 -0.18242912739515302 0.43927243351936346 -1.0168259739875791 1.2887202501296999 -1.3397536873817442 0.015899392776191238 -0.046941887587308877 -1.3509227633476255 -1.0602855086326597 -2.4129832983016963 1.3968693017959597 -0.3227675706148147 -1.5519391894340513 -0.22008428722620008 1.0296836495399477 0.96122536063194286 2.0239028930664067 -0.04587841406464576
decision_type=2 2 2 2 2 2 2 2 2 2 2 2 2 2 2 2 2 2 2 2 2 2 2 2 2 2 2 2 2 2
left_child=15 8 4 -4 5 6 -3 -5 11 -7 -6 12 14 -10 -2 21 17 -17 19 -18 -21 22 -1 -24 25 26 -23 -27 -26 -30
right_child=1 2 3 7 10 9 -8 -9 13 -11 -12 -13 -14 -15 -16 16 18 -19 -20 20 -22 24 23 -25 28 27 -28 -29 29 -31
leaf_value=-0.0069628174792717564 0.11958521851692659 -0.0094098693681105555 0.16693781854923759 0.10169094127382157 -0.15751904132967559 -0.0057557548685524557 -0.13864501051511485 -0.034719326064190731 -0.028028720628954062 0.08024339245061797 -0.0078512560509010881 -0.058141127085669708 -0.086751446062923593 -0.1543368537447464 0.0054823584489775683 -0.0105885602127821 0.097984566211971991 -0.15092447622491045 -0.072330414675700658 -0.060345953320020164 -0.0026199575472844027 0 0 -0.096475061113087124 0.00023871160954866793 0.0026755005671230039 0.15087662562366833 0.029284090827349396 -0.022951947162022573 0.04230718260311897
leaf_weight=978 26 336 29 25 27 62 35 40 31 89 24 120 26 40 45 33 21 29 58 87 1147 32 38 57 90063 4245 30 435 692 98
leaf_count=978 26 336 29 25 27 62 35 40 31 89 24 120 26 40 45 33 21 29 58 87 1147 32 38 57 90063 4245 30 435 692 98
internal_value=0 -0.013779 0 0.0654756 -0.0107726 -0.00266636 -0.0221802 0.0170148 -0.0457034 0.0444921 -0.0903474 -0.0266134 0.0116058 -0.101607 0.0496141 0.000107915 -0.0113324 -0.0790257 -0.00800877 -0.00490803 -0.00681 0.000271734 -0.0115971 -0.0577748 0.000406063 0.0061021 0.073479 0.00517447 0.000107657 -0.0146953
internal_weight=0 955 667 94 573 522 371 65 288 151 51 217 97 71 71 98043 1375 62 1313 1255 1234 96668 1073 95 95595 4742 62 4680 90853 790
internal_count=98998 955 667 94 573 522 371 65 288 151 51 217 97 71 71 98043 1375 62 1313 1255 1234 96668 1073 95 95595 4742 62 4680 90853 790
is_linear=0
shrinkage=0.1


Tree=18
num_leaves=31
num_cat=0
split_feature=17 33 62 3 59 0 5 65 40 6 39 0 34 31 51 12 13 33 61 56 15 48 54 26 51 5 43 57 52 26
split_gain=17.3917 24.3291 54.7187 46.3617 26.4825 36.893 33.0848 22.7063 21.5343 31.7327 22.8919 28.1067 25.3106 20.1945 34.0011 35.0362 27.7148 27.5938 26.2027 27.6217 25.4557 25.0198 23.7512 20.9253 26.2998 26.2444 35.2333 19.259 21.3481 28.6225
threshold=0.27990211546421057 2.7594864368438725 -0.19622156023979184 0.24794821441173556 0.60611262917518627 -0.064782828092575059 0.069085638970136656 0.11140102520585062 -2.7852094173431392 -0.67059645056724537 -0.043696301057934754 -0.088239215314388261 0.3275610357522965 -2.5252454280853267 -2.9992289543151851 -0.078004866838455186 -1.60332316160202 -2.5067473649978633 0.38542070984840399 0.051360961049795158 2.4311693906784062 0.11697280034422876 -1.6032216548919676 -0.045330157503485673 -2.6405117511749263 0.069375198334455504 2.7912789583206181 0.39153023064136511 0.059516457840800292 -0.073291171342134462
decision_type=2 2 2 2 2 2 2 2 2 2 2 2 2 2 2 2 2 2 2 2 2 2 2 2 2 2 2 2 2 2
left_child=1 8 3 4 6 -6 -3 -5 9 -1 11 -11 -12 14 22 16 -16 20 19 -17 -15 -20 -2 24 -19 26 -25 -10 29 -29
right_child=13 2 -4 7 5 -7 -8 -9 27 10 12 -13 -14 17 15 18 -18 23 21 -21 -22 -23 -24 25 -26 -27 -28 28 -30 -31
leaf_value=-0.11379956953812123 0.097300085376983397 0.009644817332635669 0.14285053569196024 0.031182131101739227 0.01707074953856727 0.12053110990696046 -0.038160439825536373 0.16510329541878538 0.00052691425428000294 -0.01425700119349912 -0.023892121858667861 0.034370248929030338 0.03641565405590344 -0.026458476399269827 0.071300454980016859 -0.041998267570362458 -0.01823423557913648 0.07510199333530336 -0.14412327317340587 0.053855942273888117 -0.15302579365937408 -0.050724633798087726 -0.004105349138340526 -0.0021075850072597431 -0.0071360964931249694 0.004511689145028995 -0.049935869161432549 0.055112406300754341 0.035068132815138341 0.0032608294241849886
leaf_weight=29 36 513 32 28 246 40 200 27 64882 252 823 221 74 81 47 167 121 38 45 35 20 96 57 14098 6213 8024 155 112 291 1995
leaf_count=29 36 513 32 28 246 40 200 27 64882 252 823 221 74 81 47 167 121 38 45 35 20 96 57 14098 6213 8024 155 112 291 1995
internal_value=0 0.000833442 0.0156808 0.0116047 0.00653531 0.0322229 -0.00366466 0.10031 0.000597068 -0.0116738 -0.00936532 0.00828604 -0.0187778 -0.00207203 -0.0201673 -0.0303887 0.00651194 -0.00168629 -0.0487068 -0.0247474 -0.0536455 -0.081967 0.0347241 -0.00149723 -0.00660964 -5.81811e-05 -0.00263767 0.000853797 0.00965487 0.00608572
internal_weight=0 69765 1086 1054 999 286 713 55 68679 1399 1370 473 897 29233 604 511 168 28629 343 202 101 141 93 28528 6251 22277 14253 67280 2398 2107
internal_count=98998 69765 1086 1054 999 286 713 55 68679 1399 1370 473 897 29233 604 511 168 28629 343 202 101 141 93 28528 6251 22277 14253 67280 2398 2107
is_linear=0
shrinkage=0.1


Tree=19
num_leaves=31
num_cat=0
split_feature=49 56 46 44 26 8 18 59 45 14 27 28 24 17 63 1 18 53 50 37 19 62 21 17 23 2 51 3 19 53
split_gain=15.9878 16.6631 34.6664 32.7951 33.2296 39.301 50.1101 26.7097 26.8193 26.0175 23.8788 36.2773 28.2194 23.4292 23.1658 17.256 15.7465 22.6337 18.8135 20.8448 31.7417 23.9862 17.2826 16.3968 31.5664 37.7665 21.1827 14.5897 18.9842 17.8994
threshold=0.17365098744630816 -0.058185962960124009 2.7627692222595219 2.1280167102813725 -0.12857128679752347 0.2034573778510094 -0.080465249717235551 -2.9989488124847408 -0.04587841406464576 2.7905836105346684 0.88548371195793163 -1.4426753520965574 1.5874918103218081 2.378283023834229 -0.19099237024784085 -0.23579482734203336 -0.054549027234315865 2.7414031028747563 0.32328030467033392 0.22128360718488696 -0.17452032119035718 -1.3509227633476255 0.079637274146080031 -1.1495814919471739 -0.54766070842742909 0.93275320529937755 2.6272790431976323 -0.21228168904781339 2.9989833831787114 0.67293676733970653
decision_type=2 2 2 2 2 2 2 2 2 2 2 2 2 2 2 2 2 2 2 2 2 2 2 2 2 2 2 2 2 2
left_child=16 2 10 7 -5 6 -6 8 15 -7 27 -12 -13 14 -9 -3 17 18 19 21 -21 -1 23 24 25 -18 -26 29 -29 -2
right_child=1 3 -4 4 5 9 -8 13 -10 -11 11 12 -14 -15 -16 -17 22 -19 -20 20 -22 -23 -24 -25 26 -27 -28 28 -30 -31
leaf_value=0.066054837324899668 -0.01628183187987324 -0.12051766579815296 -0.12396996341688785 0.1433758851114065 -0.069683995113587957 0.044445335334934666 0.014656821022252754 -0.013538885647157606 0.029179651302300647 -0.017895669607590693 0.085224874372864329 -0.057389683350346325 0.011343756549850039 0.099211950850123173 -0.00066599302376646984 -0.037844703082409614 0.078677969538763604 0.087504881430230746 -0.0042120073514823192 0.075284495588882006 -0.047133223856670563 0.0026799355453214495 -0.017497833214966379 -0.0010932335943232758 0.0064684363424055875 -0.026339372940629043 -0.070139382350106041 -0.0032833003453533894 0.079432135241935861 -0.096290398019581128
leaf_weight=59 393 38 25 20 101 386 224 1537 39 78 23 252 75 22 15616 93 124 30 4506 23 160 37531 617 32693 1335 45 36 2860 27 30
leaf_count=59 393 38 25 20 101 386 224 1537 39 78 23 252 75 22 15616 93 124 30 4506 23 160 37531 617 32693 1335 45 36 2860 27 30
internal_value=0 -0.00241012 -0.00854425 -0.00115936 0.0184971 0.0150428 -0.011389 -0.00208262 -0.0414387 0.0337461 -0.00769791 -0.0325517 -0.0413483 -0.00168526 -0.0018257 -0.0632412 0.000654557 0.00195179 0.00188687 0.00261702 -0.0309216 0.0027836 -0.000917609 -0.000615522 0.00945869 0.0501649 0.00434043 -0.00503259 -0.00245095 -0.0223833
internal_weight=0 21839 3685 18154 809 789 325 17345 170 464 3660 350 327 17175 17153 131 77159 42309 42279 37773 183 37590 34850 34233 1540 169 1371 3310 2887 423
internal_count=98998 21839 3685 18154 809 789 325 17345 170 464 3660 350 327 17175 17153 131 77159 42309 42279 37773 183 37590 34850 34233 1540 169 1371 3310 2887 423
is_linear=0
shrinkage=0.1


Tree=20
num_leaves=31
num_cat=0
split_feature=33 22 64 7 49 4 42 29 29 20 9 40 40 16 7 35 29 40 23 26 44 17 22 62 6 58 20 19 32 15
split_gain=17.9982 48.2593 63.1772 57.7974 63.348 38.0016 36.8749 55.2191 38.6363 25.6676 27.7906 22.9812 20.8229 32.5516 22.9484 21.8116 31.9698 31.6422 47.0639 30.078 34.6444 26.8617 25.347 25.2784 25.1325 30.664 22.7301 20.4421 29.9354 20.9013
threshold=2.7594864368438725 -0.20742651820182798 -0.0047333587426692239 0.11082429066300394 1.7582406401634219 -0.097483552992343889 0.058729955926537521 0.015600623097270729 -0.061196124181151383 -0.20283494144678113 0.40356791019439703 -1.2695493698120115 -2.7852094173431392 0.0077784953173249969 0.36289811134338384 0.26299364864826208 0.064487159252166762 0.96122536063194286 -0.11427505686879157 0.043722946196794517 2.272828340530396 2.9997072219848637 -0.8693137764930724 -0.031446365639567368 -0.4053750336170196 -0.69060769677162159 -0.054810989648103707 1.7971442341804507 -0.055572314187884324 2.4311693906784062
decision_type=2 2 2 2 2 2 2 2 2 2 2 2 2 2 2 2 2 2 2 2 2 2 2 2 2 2 2 2 2 2
left_child=12 3 5 9 6 -3 8 -8 -5 -2 11 -11 13 14 -1 22 17 21 -19 20 -18 -17 24 -21 26 -26 -14 -15 29 -29
right_child=1 2 -4 4 -6 -7 7 -9 -10 10 -12 -13 15 27 -16 16 19 18 -20 23 -22 -23 -24 -25 25 -27 -28 28 -30 -31
leaf_value=-0.036615179871144619 0.065797910886184238 -0.076452335211329769 0.20079232505794758 -0.065588400921829423 0.17577145934685484 0.086350833523341677 0.12224056790446676 -0.011724257737666638 0.017535403236779969 -0.0021974200681364759 0.080209377850530839 -0.037802733168011284 0.0012835062089092833 -0.0020819604499038771 -0.14574320872105284 0.0034546445543454543 0.037038967515577642 -0.019468072081618954 0.068218519312339562 0.039587116302121389 0.16630771484769769 -0.023884582795846168 -3.5506297450633076e-05 -0.046903165308441998 -0.036904967533654472 -0.008883377689442952 -0.044359991064735704 -0.087293935040668444 -0.14193537838197168 0.01817198829069476
leaf_weight=172 38 23 29 60 26 34 76 49 639 355 27 383 2532 1152 22 7880 311 92 172 58 22 375 81477 77 500 1853 113 27 25 54
leaf_count=172 38 23 29 60 26 34 76 49 639 355 27 383 2532 1152 22 7880 311 92 172 58 22 375 81477 77 500 1853 113 27 25 54
internal_value=0 0.0101071 0.0828138 0.00622156 0.0244221 0.0188426 0.0193344 0.0692798 0.0101853 -0.0129322 -0.0170438 -0.0208289 -0.00015428 -0.0120357 -0.0501277 2.55629e-05 0.00471508 0.00330287 0.0373423 0.0301602 0.0463125 0.00219859 -0.000460748 -0.00902862 -0.00737268 -0.0148907 -0.000645804 -0.00605261 -0.0479153 -0.0164285
internal_weight=0 1739 86 1653 850 57 824 125 699 803 765 738 96914 1452 194 95462 8987 8519 264 468 333 8255 86475 135 4998 2353 2645 1258 106 81
internal_count=98653 1739 86 1653 850 57 824 125 699 803 765 738 96914 1452 194 95462 8987 8519 264 468 333 8255 86475 135 4998 2353 2645 1258 106 81
is_linear=0
shrinkage=0.1


Tree=21
num_leaves=31
num_cat=0
split_feature=41 28 10 44 46 28 22 59 54 3 24 40 17 56 60 65 18 50 40 35 21 45 59 61 44 53 2 32 24 6
split_gain=17.7537 18.3398 26.0722 24.5484 40.9951 36.367 27.6134 24.0225 26.3903 23.2045 32.6597 22.7691 19.7394 24.5699 18.1899 21.8726 18.0662 17.7525 17.6641 16.3754 16.1094 20.5328 16.0171 36.9026 43.3632 33.8214 24.4078 23.5449 25.1892 20.7886
threshold=-0.42502532899379725 -1.4426753520965574 1.2140321135520937 2.4483696222305302 1.9573106765747073 -0.27027601003646845 -1.1014534831047056 0.45104698836803442 -0.030466498807072636 -0.82470148801803578 1.2451689243316653 0.69258370995521557 -2.2718051671981807 0.034630924463272102 -0.6882432997226714 0.3421552181243897 -0.051816882565617554 -0.72263780236244191 -2.7852094173431392 0.24940662086009982 0.052988449111580856 -0.097710039466619478 0.64089706540107738 0.73654040694236766 1.4199092388153078 2.7414031028747563 2.9997240304946904 -0.11743899062275885 0.034319918602705009 -0.36230419576168055
decision_type=2 2 2 2 2 2 2 2 2 2 2 2 2 2 2 2 2 2 2 2 2 2 2 2 2 2 2 2 2 2
left_child=1 2 9 6 7 -6 20 11 -9 10 -1 -5 13 -8 15 -11 -7 -16 -14 -4 21 -3 29 24 25 26 -24 -26 -29 -2
right_child=22 3 19 4 5 16 12 8 -10 14 -12 -13 18 -15 17 -17 -18 -19 -20 -21 -22 -23 23 -25 27 -27 -28 28 -30 -31
leaf_value=0 0.0041769458280114091 0.0021545271319245158 -0.12059974325604217 -0.024868241435732123 0.18486999853450203 -0.019988697148529324 0.0026646779857555317 0.13134809310366247 0.0039902733747666438 0.0019571819183818785 -0.15641747676060053 0.058404185742055893 -0.030948678843078004 0.069240338922772274 -0.047234886477969945 0.082353007907244036 0.10297437052738129 -0.0056067677124098138 -0.001708794550069493 -0.034561406309344664 0.018075078825306637 -0.0831826898650663 -0.0045730183748989789 -0.12547275564056601 0.085336803836271444 -0.10684309163567507 -0.089780214417380155 0.034695947989306454 -0.024904833009515022 0.000199199030844951
leaf_weight=31 17975 37 27 176 26 25 162 28 41 124 24 39 208 86 114 47 20 1045 22752 153 32 94 5859 24 61 32 33 245 97 49036
leaf_count=31 17975 37 27 176 26 25 162 28 41 124 24 39 208 86 114 47 20 1045 22752 153 32 94 5859 24 61 32 33 245 97 49036
internal_value=0 -0.00226067 -0.0127509 -0.00156423 0.0244798 0.0920202 -0.00196488 0.00701081 0.0581118 -0.00799867 -0.0712258 -0.00913261 -0.00167165 0.0263091 -0.00526366 0.0249397 0.0335932 -0.00981857 -0.00197909 -0.0485576 -0.0428842 -0.0585179 0.000811671 -0.00398398 -0.00348936 -0.00566354 -0.00508077 0.0281734 0.0174925 0.00126765
internal_weight=0 25291 1565 23726 355 71 23371 284 69 1385 55 215 23208 248 1330 171 45 1159 22960 180 163 131 73362 6351 6327 5924 5892 403 342 67011
internal_count=98653 25291 1565 23726 355 71 23371 284 69 1385 55 215 23208 248 1330 171 45 1159 22960 180 163 131 73362 6351 6327 5924 5892 403 342 67011
is_linear=0
shrinkage=0.1


Tree=22
num_leaves=31
num_cat=0
split_feature=49 4 10 50 13 60 61 9 59 46 1 21 8 27 59 52 65 30 29 35 43 2 8 51 15 55 58 43 60 2
split_gain=15.2234 30.5999 44.7718 33.8183 31.5393 26.5919 25.3044 21.0841 19.267 18.4257 44.7899 26.5743 18.1111 30.002 24.5817 17.5412 15.0778 27.9454 21.6162 49.712 28.7579 26.4671 35.1386 21.9908 19.1842 32.7437 30.9059 27.7273 26.8438 22.2822
threshold=0.207840271294117 1.7162948250770571 -2.0009630918502803 1.0445561408996584 -1.2675637602806089 0.37404850125312811 0.73654040694236766 -0.10919658467173575 0.20870956778526309 2.7627692222595219 -0.15190082043409345 0.050863532349467284 0.27373589575290685 2.0671452283859257 1.1214915513992312 0.015972686931490902 0.80799227952957164 0.7105199694633485 0.041626146063208587 0.38131074607372289 2.6161282062530522 2.9997240304946904 -0.27433183789253229 1.1478605270385744 2.1764315366745 -0.066262736916542039 1.1988880038261416 2.1620147228240971 -1.7175482511520384 2.575509905815125
decision_type=2 2 2 2 2 2 2 2 2 2 2 2 2 2 2 2 2 2 2 2 2 2 2 2 2 2 2 2 2 2
left_child=16 6 -3 5 8 7 9 -4 -5 12 11 -11 13 -2 -14 -8 24 18 21 20 -20 23 -23 -18 -1 27 -27 -26 -28 -29
right_child=1 2 3 4 -6 -7 15 -9 -10 10 -12 -13 14 -15 -16 -17 17 -19 19 -21 -22 22 -24 -25 25 26 28 29 -30 -31
leaf_value=0.00048628269798632861 -0.005753874992714631 0.13931096101625509 0.017428070224581753 -0.016409576342381129 0.013160472263638204 -0.0061205677501131499 -0.0066727009124004756 0.065623551717185355 -0.14764124495125683 -0.037755347079154178 -0.15625635778569447 0.083899351389579532 0.00075930785930275729 0.075073299755598691 0.051396267342363591 -0.14052048745628018 0.0068731009444316761 -0.0047193709251485911 0.015107483011262291 0.15818687421477973 0.089229870313092277 0.049536955777524622 -0.054169706421957557 0.042662960003397601 -0.0049421972147031673 -0.010087133994160549 -0.08274106657705349 0.10324136135671902 -0.014830423163755308 0.0049363067324895227
leaf_weight=74476 11674 26 754 20 43 461 20 105 32 79 26 22 4825 45 97 22 1969 1553 642 27 57 41 138 189 165 805 127 55 115 43
leaf_count=74476 11674 26 754 20 43 461 20 105 32 79 26 22 4825 45 97 22 1969 1553 642 27 57 41 138 189 165 805 127 55 115 43
internal_value=0 -0.00258574 0.0113784 0.00886866 -0.0482559 0.0130836 -0.00378901 0.0234957 -0.100162 -0.00358652 -0.0414549 -0.0097896 -0.00328945 -0.00542934 0.00178626 -0.0805527 0.000613293 0.00616242 0.0117105 0.0268183 0.0214004 0.00696751 -0.0297516 0.010069 0.000273978 -0.0117151 -0.0196823 0.019599 -0.0510447 0.0615291
internal_weight=0 18251 1441 1415 95 1320 16810 859 52 16768 127 101 16641 11719 4922 42 80402 4616 3063 726 699 2337 179 2158 75786 1310 1047 263 242 98
internal_count=98653 18251 1441 1415 95 1320 16810 859 52 16768 127 101 16641 11719 4922 42 80402 4616 3063 726 699 2337 179 2158 75786 1310 1047 263 242 98
is_linear=0
shrinkage=0.1


Tree=23
num_leaves=31
num_cat=0
split_feature=53 41 34 39 53 52 50 14 26 32 47 41 24 10 11 21 26 31 63 54 46 63 42 33 62 34 26 45 57 18
split_gain=15.0248 14.7008 16.7264 44.0065 36.3045 32.0351 24.4681 19.7582 22.1943 21.5168 19.2841 18.6794 16.9727 16.3477 29.0293 34.2061 33.8303 31.2616 27.5196 24.3191 30.8491 40.9681 24.2938 23.3949 59.7059 24.6386 20.5385 19.2736 15.9511 15.4777
threshold=-1.0256158113479612 -0.42502532899379725 0.11274620890617372 -0.070355307310819612 1.102988660335541 -0.10399984195828436 0.055450903251767165 0.055246986448764808 -0.085965905338525758 -0.095958899706602083 -0.13229665160179135 -0.43555608391761774 0.49820077419281011 -1.2704463601112364 0.004443435464054347 0.045851841568946845 -0.18293751031160352 -0.2488727122545242 0.029189336113631729 -2.9999045133590694 0.74418795108795177 -0.35507462918758387 -0.18497384339570996 2.7594864368438725 -0.15456479042768476 -0.43604999780654902 0.054734289646148689 -0.04587841406464576 -0.17534141242504117 0.15074615180492404
decision_type=2 2 2 2 2 2 2 2 2 2 2 2 2 2 2 2 2 2 2 2 2 2 2 2 2 2 2 2 2 2
left_child=-1 2 3 6 11 -6 10 12 9 -9 -2 -5 -4 14 16 26 18 -17 -3 20 27 -22 -18 25 -25 -21 -16 -15 -10 -14
right_child=1 13 7 4 5 -7 -8 8 28 -11 -12 -13 29 19 15 17 22 -19 -20 23 21 -23 -24 24 -26 -27 -28 -29 -30 -31
leaf_value=0.01347509181771611 -0.082136850574125106 0.025178454016247284 -0.0021000439755963444 -0.0047012637148414315 0.1354528803974103 0.018640626418905178 0.0072873687314334691 0.099975802753561022 -0.0090559615908192941 0.015588381627114426 -0.031695912644688261 -0.034864500240112492 -0.021480640254498893 -0.0082423999396070199 -0.044761120681742379 0.048399654326558336 0.041893640723435183 0.013290407824327674 0.1565759977808705 -0.010058837662688374 0.048161262432070889 -0.072933369533838527 -0.0038374395251645137 0.012401627014046006 0.17999212121026664 0.00050350422503247301 0.052850417738485506 0.085944616288549658 0.0069007139775102465 -0.11411167441576653
leaf_weight=822 99 62 14757 4772 25 305 121 46 766 96 390 215 137 127 134 305 120 1598 22 2286 32 163 2827 824 21 64175 24 25 3336 21
leaf_count=822 99 62 14757 4772 25 305 121 46 766 96 390 215 137 127 134 305 120 1598 22 2286 32 163 2827 824 21 64175 24 25 3336 21
internal_value=0 -9.33743e-05 -0.00218163 -0.00682566 -0.00388397 0.0281405 -0.0322652 -0.000739737 0.00527262 0.0440725 -0.0422412 -0.0060271 -0.00245712 0.000625471 0.0060898 0.0152437 -0.000106086 0.0189887 0.0620765 0.000212707 -0.0261528 -0.0524395 -0.00193017 0.000350415 0.0168764 0.000138633 -0.0291091 0.00706537 0.00389643 -0.0349985
internal_weight=0 97831 25086 5927 5317 330 610 19159 4244 142 489 4987 14915 72745 5092 2061 3031 1903 84 67653 347 195 2947 67306 845 66461 158 152 4102 158
internal_count=98653 97831 25086 5927 5317 330 610 19159 4244 142 489 4987 14915 72745 5092 2061 3031 1903 84 67653 347 195 2947 67306 845 66461 158 152 4102 158
is_linear=0
shrinkage=0.1


Tree=24
num_leaves=31
num_cat=0
split_feature=49 45 64 37 60 53 9 11 4 14 38 62 37 58 61 14 53 22 45 29 33 1 18 31 63 3 41 46 36 37
split_gain=13.178 27.1148 26.5831 19.1299 21.5248 20.3077 20.0628 20.4049 19.7331 54.9444 38.1958 22.6961 20.1079 26.4974 19.0368 16.2062 13.9827 36.743 15.5361 13.2578 16.6459 13.0458 12.6448 18.7706 22.6561 33.89 33.069 19.6161 33.1068 16.2169
threshold=0.27338950335979467 -0.15698871016502378 -1.3832335472106931 0.0065848180092871198 -2.9996883869171138 0.62744265794754039 -0.13659632951021192 -0.078086808323860155 1.6590384840965273 1.8867781162261965 0.047797484323382385 -0.42550206184387201 0.54061755537986766 -1.0688376426696775 0.60791975259780895 0.036395622417330749 2.9999225139617924 -0.96314105391502369 -0.063606310635805116 0.016326382756233219 1.2914937138557436 -0.22144109755754468 -0.054549027234315865 0.84650087356567394 0.022435283288359645 -0.025307800620794293 -0.24592909961938855 -0.201869361102581 2.9995915889739995 0.10105426236987115
decision_type=2 2 2 2 2 2 2 2 2 2 2 2 2 2 2 2 2 2 2 2 2 2 2 2 2 2 2 2 2 2
left_child=16 2 -2 4 5 -3 7 -6 12 11 -11 -10 15 -14 -8 -5 22 -18 -19 21 -21 -4 23 27 25 -25 -26 28 -1 -29
right_child=1 3 19 8 6 -7 14 -9 9 10 -12 -13 13 -15 -16 -17 17 18 -20 20 -22 -23 -24 24 26 -27 -28 29 -30 -31
leaf_value=0.0031525431470368751 -0.09145776207133284 -0.13142664821158423 0.055673515144891064 -0.0031112987707145375 0.0063126301609920778 -0.0078515241166308928 0.0069911523019029233 -0.01333354461791139 0.046852107462366455 0.040151130178466214 0.19482822993801344 -0.0010189596283646464 -0.12655695155729582 -0.016291666982423816 -0.063860753341189389 0.0067149186713724857 0.13241869975299622 0.052030053660111236 -0.057597934907633624 -0.025971553723800823 -0.11906773931158331 -0.012709884387900786 -0.00092007246538895044 0.055690861660690094 0.027880467895250706 -0.0039181716882123688 -0.028115751702866038 2.4686389991920492e-05 0.12089669705681612 -0.0091088639748850928
leaf_weight=23714 53 26 29 4419 634 30 1220 2999 119 46 26 548 23 307 38 2702 28 22 28 110 24 353 37727 253 213 148 207 20439 23 2145
leaf_count=23714 53 26 29 4419 634 30 1220 2999 119 46 26 548 23 307 38 2702 28 22 28 110 24 353 37727 253 213 148 207 20439 23 2145
internal_value=0 -0.00285836 -0.0242261 -0.00192395 -0.00683581 -0.0681291 -0.00610151 -0.00987817 0.00103181 0.0166109 0.0991188 0.00743402 -0.00050252 -0.0246051 0.00472892 0.000604231 0.000483066 0.0425605 -0.00742631 -0.0169814 -0.0440703 -0.00714517 0.000442799 0.00153549 0.0165247 0.0334969 5.54829e-05 0.00126744 0.00327547 -0.000838947
internal_weight=0 13706 569 13137 4947 56 4891 3633 8190 739 72 667 7451 330 1258 7121 84947 78 50 516 134 382 84869 47142 821 401 420 46321 23737 22584
internal_count=98653 13706 569 13137 4947 56 4891 3633 8190 739 72 667 7451 330 1258 7121 84947 78 50 516 134 382 84869 47142 821 401 420 46321 23737 22584
is_linear=0
shrinkage=0.1


Tree=25
num_leaves=31
num_cat=0
split_feature=33 24 50 1 3 7 10 23 37 10 19 59 13 51 42 28 61 41 33 3 34 15 50 53 17 6 17 47 2 18
split_gain=16.2367 49.4881 26.8178 24.1794 21.9553 17.5827 25.2995 18.1754 14.028 18.2292 19.8608 21.7998 41.6564 20.0729 15.8127 12.7355 22.4947 87.0562 65.8187 54.0015 18.2686 25.6444 20.9079 14.821 13.5722 13.1814 19.8882 17.5654 12.7285 11.8947
threshold=-2.5067473649978633 -0.55882972478866566 0.62224918603897106 -0.23239030689001081 -0.063002031296491609 0.32669223845005041 -1.9130073785781858 0.18570645898580554 0.54061755537986766 1.8393357396125796 0.085011828690767302 0.5386943817138673 -1.2675637602806089 2.6272790431976323 -0.04546090587973594 -1.2337427735328672 0.71056693792343151 0.17608540505170825 1.6694746613502505 0.14359356462955478 -0.19974203407764432 2.781057715415955 0.25398786365985876 -1.0256158113479612 -1.281420826911926 1.0000000180025095e-35 -2.2718051671981807 -0.39920495450496668 -0.40226551890373224 0.04927389323711396
decision_type=2 2 2 2 2 2 2 2 2 2 2 2 2 2 2 2 2 2 2 2 2 2 2 2 2 2 2 2 2 2
left_child=1 2 4 -4 -1 6 -3 -7 15 10 14 13 -13 -12 -10 16 20 19 -19 -18 22 -22 -2 24 -17 27 -27 -25 -5 -26
right_child=8 5 3 28 -6 7 -8 -9 9 -11 11 12 -14 -15 -16 23 17 18 -20 -21 21 -23 -24 25 29 26 -28 -29 -30 -31
leaf_value=0.06002782385007125 -0.021304857621577671 -0.1131460536635861 -0.014755924171630234 -0.097884801622587558 -0.077804180002909382 0.10337322052329173 0.0029950296159708348 -0.013909985647850218 0.067493063185227894 -0.073983717403288171 -0.033216102404444225 0.1381939901514668 -0.038287150556213838 -0.13843110553689106 -0.0011976057111869793 0.084424376215419442 -0.040758756396940286 0.016716046568778224 0.19694777698710081 0.13105806987154742 -0.0034406236994627189 0.067787097643062802 0.018059351066677203 0.014885203277087387 0.0090375594436672407 -0.043985879223673363 -0.0018565476600432163 0.00067001862348550041 -0.21479273654680547 0.082855432735419232
leaf_weight=21 1071 20 21 32 23 31 167 20 36 47 207 20 35 20 336 26 137 42 41 20 5101 50 151 880 726 112 18983 70424 20 22
leaf_count=21 1071 20 21 32 23 31 167 20 36 47 207 20 35 20 336 26 137 42 41 20 5101 50 151 880 726 112 18983 70424 20 22
internal_value=0 -0.0214663 -0.0744799 -0.111415 -0.0100289 0.0043899 -0.00943014 0.0561378 -6.82191e-05 -0.0141547 -0.00960889 -0.0296295 0.0254467 -0.0434412 0.00535014 3.19276e-05 -0.00420412 0.0257228 0.108099 -0.0176132 -0.00534971 -0.00271841 -0.0163528 0.000340261 0.0141127 0.000221143 -0.0021108 0.000846984 -0.147691 0.0114379
internal_weight=0 355 117 73 44 238 187 51 98487 701 654 282 55 227 372 97786 6613 240 83 157 6373 5151 1222 91173 774 90399 19095 71304 52 748
internal_count=98842 355 117 73 44 238 187 51 98487 701 654 282 55 227 372 97786 6613 240 83 157 6373 5151 1222 91173 774 90399 19095 71304 52 748
is_linear=0
shrinkage=0.1


Tree=26
num_leaves=31
num_cat=0
split_feature=63 1 43 47 26 60 33 11 62 42 12 19 57 50 43 6 15 31 29 25 20 45 41 40 38 57 0 10 24 23
split_gain=13.4926 28.2847 32.4704 29.9172 37.0921 22.6278 21.829 21.2239 19.8969 17.4898 22.3781 21.5734 14.81 18.2319 18.0165 19.7474 16.0685 13.22 45.2507 38.1254 36.7551 28.763 21.6441 19.129 17.5177 14.547 29.6996 29.7922 56.3587 52.3029
threshold=-0.12747593969106671 -0.10250175371766089 2.9994826316833501 -0.039558082818984978 -0.045836165547370904 -2.1815673112869258 2.9999107122421269 -0.01172973634675145 0.4450735896825791 1.0000000180025095e-35 -0.10198547318577765 1.5812429785728457 -0.33053925633430475 0.27567929029464727 1.6225523948669436 -0.50366315245628346 0.69737622141838085 1.7378883361816408 0.050831580534577377 2.0720032453536992 -0.10277773812413214 -0.080242428928613649 0.3048225343227387 0.94047492742538463 -0.0058212736621499053 0.49933156371116644 -0.13403746485710141 -1.6091858744621275 2.9999804496765141 -0.21451110392808911
decision_type=2 2 2 2 2 2 2 2 2 2 2 2 2 2 2 2 2 2 2 2 2 2 2 2 2 2 2 2 2 2
left_child=1 2 5 4 -4 -1 12 -8 -6 11 -11 -7 13 -3 16 -16 -14 25 19 21 24 22 -19 -23 -20 -2 -27 29 -29 -28
right_child=17 6 3 -5 8 9 7 -9 -10 10 -12 -13 14 -15 15 -17 -18 18 20 -21 -22 23 -24 -25 -26 26 27 28 -30 -31
leaf_value=0.078247387912905753 4.410760452925975e-05 -0.088428841454766871 0.042225155083725839 0.039289991746194179 -0.13789693602442871 0.0056523508042280249 -0.13406242508097246 -0.0034851832964723946 -0.051588355522201201 -0.02615331500715129 -0.00090552368698498505 -0.084088191649909383 -0.0097133490459595864 -0.013960343503997837 0.11245887608829717 0.0050686213024385054 -0.04704694579766306 -0.1135535624827798 0.065503831077133826 0.098145429678006713 0.1527632710630287 -0.028392589747101116 0 0.069516508932045376 -0.041743715168492748 0.03803060616805487 0.10089242580478022 0.0019654182892409173 -0.098320608081439109 0.0072785218128731677
leaf_weight=36 90275 59 27 35 45 2652 31 23 83 494 1237 26 627 82 20 107 144 68 27 21 24 296 20 20 32 289 81 1674 57 230
leaf_count=36 90275 59 27 35 45 2652 31 23 83 494 1237 26 627 82 20 107 144 68 27 21 24 296 20 20 32 289 81 1674 57 230
internal_value=0 -0.00484234 -0.00140632 -0.0417886 -0.0608337 0.000306997 -0.0193125 -0.0811968 -0.0834603 -0.000324573 -0.00817609 0.00471611 -0.0159336 -0.0461734 -0.011036 0.0234324 -0.0168585 0.000157263 -0.0159126 -0.0292535 0.0508257 -0.036325 -0.086959 -0.0217063 0.00601129 0.000246604 0.00804493 0.00373891 -0.00133416 0.0321978
internal_weight=0 5728 4635 190 155 4445 1093 54 128 4409 1731 2678 1039 141 898 127 771 93114 508 425 83 404 88 316 59 92606 2331 2042 1731 311
internal_count=98842 5728 4635 190 155 4445 1093 54 128 4409 1731 2678 1039 141 898 127 771 93114 508 425 83 404 88 316 59 92606 2331 2042 1731 311
is_linear=0
shrinkage=0.1


Tree=27
num_leaves=31
num_cat=0
split_feature=33 24 50 31 3 1 7 43 17 59 51 10 65 12 52 38 21 29 25 30 25 63 1 43 7 60 27 28 28 19
split_gain=13.1549 40.6087 21.9037 22.3804 17.9681 15.8426 17.1552 16.0485 14.2145 13.268 11.4898 27.3873 34.2988 42.4397 19.7481 19.1305 21.9084 18.6182 17.878 17.3999 17.1992 14.753 27.9158 25.1812 31.6334 20.9246 18.5181 17.649 13.0336 20.4938
threshold=-2.5067473649978633 -0.55882972478866566 0.62224918603897106 0.16592198610305789 -0.063002031296491609 -0.18242912739515302 0.31492276489734655 0.59794190526008617 1.6382915973663332 0.14249092340469363 -2.2395201921463008 -1.1314847469329832 0.085502032190561308 -0.067634105682373033 0.013878783211112024 0.060771472752094276 0.049647590145468719 -0.017721829935908314 -0.035378891974687569 2.6767495870590214 0.083823494613170638 -0.12747593969106671 -0.10250175371766089 2.9994826316833501 0.20510005950927737 -2.1815673112869258 1.3219010233879092 0.23748029023408893 -1.2337427735328672 -0.18733098357915876
decision_type=2 2 2 2 2 2 2 2 2 2 2 2 2 2 2 2 2 2 2 2 2 2 2 2 2 2 2 2 2 2
left_child=1 2 4 -4 -1 6 7 -3 -7 -9 11 12 14 17 -2 16 19 -14 -15 -13 -18 22 23 25 -25 -12 -24 -28 29 -23
right_child=10 5 3 -5 -6 8 -8 9 -10 -11 21 15 13 18 -16 -17 20 -19 -20 -21 -22 28 26 24 -26 -27 27 -29 -30 -31
leaf_value=0.054280623841122783 0.039092308022191526 0.065944394579926111 -0.062030643817387765 -0.19128219916314101 -0.070352661223899354 -0.0032669009449022186 0.083582501555284877 -0.06241437212146244 -0.091869296475716081 0.026997315109922339 0.075611000021036212 0.026243242942380854 -0.020012016185709428 0.20757728240370465 -0.046744979850088943 -0.025892520683472798 -0.019830460014212414 0.074329667601292046 0.087124935388421643 -0.034931585429845986 0.036684484662964326 -0.01220782106098512 -0.014868400831245247 -0.015709253456844218 -0.13186104045087743 -0.0010076324154073201 -0.089599189740606308 -0.01316021148882825 0.00043992974230295525 -0.00016797964766884465
leaf_weight=21 50 28 53 20 23 85 38 37 23 27 35 516 49 20 55 198 318 34 51 49 63 2145 894 99 31 4050 70 59 85509 4192
leaf_count=21 50 28 53 20 23 85 38 37 23 27 35 516 49 20 55 198 318 34 51 49 63 2145 894 99 31 4050 70 59 85509 4192
internal_value=0 -0.0193086 -0.067337 -0.100729 -0.00886511 0.00407834 0.0278395 0.00317418 -0.0236444 -0.023388 -4.79425e-05 0.00893253 0.0382553 0.0682033 -0.00498942 0.00218467 0.0081817 0.0179062 0.124668 0.0207202 -0.0101687 -0.000178788 -0.00534062 -0.0017177 -0.0448881 -0.000310492 -0.0201597 -0.0557216 0.000114611 -0.00425953
internal_weight=0 355 117 73 44 238 130 92 108 64 98487 1403 259 154 105 1144 946 83 71 565 381 97084 5238 4215 130 4085 1023 129 91846 6337
internal_count=98842 355 117 73 44 238 130 92 108 64 98487 1403 259 154 105 1144 946 83 71 565 381 97084 5238 4215 130 4085 1023 129 91846 6337
is_linear=0
shrinkage=0.1


Tree=28
num_leaves=31
num_cat=0
split_feature=49 19 33 45 47 46 50 51 34 42 53 13 50 52 40 31 31 36 8 39 34 50 15 62 17 2 0 13 64 61
split_gain=11.9302 23.4919 28.8205 21.6708 27.498 21.2459 18.6817 27.9263 23.9338 18.5905 17.4953 42.3883 17.3185 36.5648 26.6424 26.9 25.329 22.6879 34.0619 39.7969 19.6116 17.0411 41.4623 25.7609 17.0541 16.6532 44.299 18.7675 16.1363 15.319
threshold=0.26676873862743383 -0.041253460571169846 -1.3940063118934629 -0.15472936630249021 -0.1025014892220497 -0.14984248578548429 -2.025112390518188 2.2179235219955449 -2.0340672731399532 0.025205842219293121 2.9999225139617924 -2.2160335779190059 -1.0804182291030882 0.077004741877317442 0.45800989866256719 -1.4871587157249448 1.7378883361816408 2.0020040273666386 -0.51171445846557606 -0.021232660859823223 -0.26020200550556177 -1.7626672387123106 1.7268537282943728 -1.3509227633476255 -0.43385216593742365 2.9997240304946904 -0.13858766108751294 -2.7968411445617671 -0.97892913222312916 -2.6552910804748531
decision_type=2 2 2 2 2 2 2 2 2 2 2 2 2 2 2 2 2 2 2 2 2 2 2 2 2 2 2 2 2 2
left_child=10 5 9 4 28 -2 8 -8 -5 -3 12 -12 13 14 15 -1 -16 25 -19 -20 -15 22 29 -23 -25 27 -27 -14 -4 -7
right_child=1 2 3 6 -6 21 7 -9 -10 -11 11 -13 17 20 16 -17 -18 18 19 -21 -22 23 -24 24 -26 26 -28 -29 -30 -31
leaf_value=-0.069391329644040725 -0.0075134694515000076 -0.017440823598072194 -0.10781708153732875 0.071885989240850948 -0.0043561819772776865 -0.010764414592607555 -0.003604553281123626 0.025796362042453676 -0.03020663995180577 -0.069436263744277402 0.15221031220891801 -0.0011672145351530341 0.024366330253744642 0.10415885080829879 -0.00049960161143926469 -0.015881486929967211 0.087785224514479843 0.12324963131243086 0.029030894509252565 -0.0063829413555531707 0.018092977379616914 -0.069216305152145316 0.13050428163235681 0.015629312788837616 0.0001255195203556487 0.11078546744546081 -0.032730344554180696 0.00031736599603346248 -0.037149019508216433 0.052925936666762367
leaf_weight=102 1302 216 45 23 259 97 8079 335 392 106 25 55 325 34 716 1299 33 27 628 633 130 44 37 1266 1641 22 300 80467 145 59
leaf_count=102 1302 216 45 23 259 97 8079 335 392 106 25 55 325 34 716 1299 33 27 628 633 130 44 37 1266 1641 22 300 80467 145 59
internal_value=0 -0.00280715 -0.0055937 -0.00455923 -0.0259995 0.00318823 -0.00345544 -0.0024199 -0.0241688 -0.0350054 0.00033901 0.0468135 0.000293477 -0.0082344 -0.0117445 -0.0198894 0.00336972 0.0005342 0.013699 0.0111871 0.037009 0.00765117 0.0364587 0.0057238 0.006913 0.000323828 -0.0223337 0.000415568 -0.0548368 0.0128929
internal_weight=0 14046 9600 9278 449 4446 8829 8414 415 322 84796 80 84716 2314 2150 1401 749 82402 1288 1261 164 3144 193 2951 2907 81114 322 80792 190 156
internal_count=98842 14046 9600 9278 449 4446 8829 8414 415 322 84796 80 84716 2314 2150 1401 749 82402 1288 1261 164 3144 193 2951 2907 81114 322 80792 190 156
is_linear=0
shrinkage=0.1


Tree=29
num_leaves=31
num_cat=0
split_feature=38 61 49 39 50 13 9 36 24 56 64 10 35 19 46 56 30 11 30 28 0 48 43 9 9 2 13 29 65 4
split_gain=11.5109 17.9916 42.9841 24.06 34.1916 21.2389 43.5454 41.0194 22.4515 20.2218 18.0102 15.2531 13.6117 12.6987 12.3955 55.248 37.7532 32.7313 33.2911 22.2322 11.4056 39.1261 11.5234 39.6758 49.9245 48.452 15.4676 28.984 15.4926 11.3224
threshold=0.077081847935915007 0.68124672770500194 0.31635917723178869 0.047168489545583732 -0.39358496665954584 -1.2105861902236936 -0.13896141946315763 1.251923203468323 0.12700808048248294 0.028447500430047516 -0.37368415296077723 -2.7338688373565669 0.19526430219411853 0.66228276491165172 2.7627692222595219 -0.059068301692605012 -1.5779416561126707 -0.013803511857986448 -0.15391021221876142 -0.87738531827926625 -0.20747429132461545 0.9555296301841737 1.6225523948669436 -0.10629956051707266 -0.13732698559761045 2.7682020664215092 -1.4751530885696409 -0.070294816046953187 1.1556314229965212 -0.11480584368109702
decision_type=2 2 2 2 2 2 2 2 2 2 2 2 2 2 2 2 2 2 2 2 2 2 2 2 2 2 2 2 2 2
left_child=14 5 3 4 -3 6 12 8 -8 -6 -9 -5 -2 -14 20 -16 -17 18 -18 -19 21 -1 26 24 -24 -25 27 -22 -28 -23
right_child=1 2 -4 11 9 -7 7 10 -10 -11 -12 -13 13 -15 15 16 17 19 -20 -21 22 29 23 25 -26 -27 28 -29 -30 -31
leaf_value=-0.0050945959511315879 0.071744090987276063 -0.12016378648892674 0.15870369822805183 0.11041813935717396 0.05175657024722722 -0.0024441790885281426 -0.043875372116885282 0.086956441551786362 -0.12519336761894481 -0.041622841579650759 -0.032972828270817489 9.36220816237656e-05 -0.0020193331919492047 -0.032827629966515094 -0.1295057925119418 0.10880037695445909 -0.083978763737149006 0.11750771778864622 0.015933213485322593 0.0018058127674971476 -0.051553834187110952 -0.034842599943653595 0.0018161156228083443 -0.0048614928456795978 0.026134647615834963 -0.091073440497802194 0.00012389909643813736 -0.0049261707656263424 0.0086091752250003657 -0.14097017653041963
leaf_weight=433 20 24 21 30 53 7886 73 21 75 39 27 24 562 178 39 26 90 20 50 89 141 21 3791 247 1089 89 79053 2391 2212 28
leaf_count=433 20 24 21 30 53 7886 73 21 75 39 27 24 562 178 39 26 90 20 50 89 141 21 3791 247 1089 89 79053 2391 2212 28
internal_value=0 -0.0034992 0.026724 0.00907356 -0.0159782 -0.00416561 -0.0182498 -0.060223 -0.0862573 0.0111289 0.0182248 0.0639632 -0.00723865 -0.00959078 0.000245292 -0.0195537 -0.00322407 -0.0156705 -0.047755 0.0247314 0.000316027 -0.015005 0.000400216 0.00496068 0.00726643 -0.0281717 0.00011516 -0.0075786 0.000356132 -0.0989166
internal_weight=0 9033 191 170 116 8842 956 196 148 92 48 54 760 740 89809 314 275 249 140 109 89495 482 89013 5216 4880 336 83797 2532 81265 49
internal_count=98842 9033 191 170 116 8842 956 196 148 92 48 54 760 740 89809 314 275 249 140 109 89495 482 89013 5216 4880 336 83797 2532 81265 49
is_linear=0
shrinkage=0.1


Tree=30
num_leaves=31
num_cat=0
split_feature=48 25 60 38 9 4 20 17 14 56 54 14 13 32 13 55 58 19 58 37 57 10 48 50 2 28 36 61 24 26
split_gain=14.9293 38.1296 33.0712 29.949 33.0332 37.5812 32.3067 29.1687 28.3291 24.054 11.9913 16.7112 36.9173 12.5468 16.6759 14.6321 13.2207 34.9898 20.6214 12.4035 18.0002 27.9463 26.5231 17.2791 16.7691 33.0902 28.1234 16.7135 17.713 15.8626
threshold=1.4570814967155459 -0.11812269315123557 -1.8469378948211668 -0.18988537788391111 -0.14803016930818555 1.0894876122474673 -0.16226076334714887 -0.026666608639061447 1.5355301499366762 -0.044890478253364556 0.44871531426906591 -1.1512024402618406 -0.79514762759208668 -0.19821386784315106 -1.3974977135658262 -0.065671723335981355 -1.7303850650787351 -0.60393241047859181 -1.3947260975837705 0.12710403650999072 0.49933156371116644 -0.6884135603904723 0.6581270992755891 -2.025112390518188 2.3007092475891118 -2.6396965980529781 1.8204192519187929 0.73654040694236766 0.35233505070209509 -0.071099754422903047
decision_type=2 2 2 2 2 2 2 2 2 2 2 2 2 2 2 2 2 2 2 2 2 2 2 2 2 2 2 2 2 2
left_child=10 2 -2 -3 7 6 -6 8 -5 -9 11 12 -1 14 15 -13 17 -15 -18 24 29 22 -22 -23 27 -26 -27 28 -12 -21
right_child=1 3 -4 4 5 -7 -8 9 -10 -11 19 13 -14 16 -16 -17 18 -19 -20 20 21 23 -24 -25 25 26 -28 -29 -30 -31
leaf_value=-0.14904889520045564 -0.16841139313573275 0.078526790786309794 -0.029303325998105641 0.035043525303833707 0.080589683074186277 0.14030589605925567 -0.014370933841547258 -0.12960713012227656 -0.054026884995433046 -0.039029371500716725 0.0013711581502628856 -0.066274650875886534 -0.013839173865712409 0.053916328534901282 -0.0064147120460380253 0.0059592853598443886 -0.013121418636471439 0.0037937829409855164 -0.0003651224630837499 0.051469246152896032 0.166541744117498 -0.022966063517346282 0.012934613723418165 0.043201182756449338 0.078552792906661673 -0.013374069949106511 -0.085411492139203155 -0.065554265351776983 0.022058565034078062 0.0021703712496854177
leaf_weight=21 27 38 51 92 43 21 191 38 57 152 27659 90 301 149 1213 37 1293 2073 63225 70 28 62 21 100 29 231 72 36 420 894
leaf_count=21 27 38 51 92 43 21 191 38 57 152 27659 90 301 149 1213 37 1293 2073 63225 70 28 62 21 100 29 231 72 36 420 894
internal_value=0 -0.0144792 -0.0801065 -0.00612142 -0.011813 0.0150933 0.00293005 -0.0323174 0.000209654 -0.0581971 6.40071e-05 -0.000662834 -0.0233639 -0.000553745 -0.0101336 -0.0445996 -0.000359836 0.00721918 -0.000622432 0.00174558 0.0118201 0.0382908 0.10411 0.0173087 0.00132573 -0.0209648 -0.0310179 0.00159303 0.00168472 0.00589576
internal_weight=0 710 78 632 594 255 234 339 149 190 98024 68402 322 68080 1340 127 66740 2222 64518 29622 1175 211 49 162 28447 332 303 28115 28079 964
internal_count=98734 710 78 632 594 255 234 339 149 190 98024 68402 322 68080 1340 127 66740 2222 64518 29622 1175 211 49 162 28447 332 303 28115 28079 964
is_linear=0
shrinkage=0.1


Tree=31
num_leaves=31
num_cat=0
split_feature=31 51 59 9 46 39 47 36 63 20 19 28 63 34 25 14 11 23 39 43 20 25 3 27 20 13 4 0 36 47
split_gain=11.4406 30.9339 27.4284 29.4531 38.8492 27.9907 30.2308 23.8154 56.0719 31.602 28.3071 28.5373 22.7458 22.224 21.6379 18.273 19.03 18.4078 23.6093 17.2674 45.5883 45.2193 38.4003 40.0106 37.1308 39.9445 30.1376 27.5357 38.7921 35.4803
threshold=-0.80332902073860157 -0.66692078113555897 0.55791637301445018 -0.12225347384810446 2.4944388866424565 -0.11679386720061301 -0.078619357198476778 2.4557604789733891 -0.04734824784100055 -0.13088387995958325 0.74530884623527538 -1.1987752318382261 -0.48887559771537775 -0.029780188575386998 0.040333129465579994 -1.0635343790054319 0.078480541706085219 0.12976534664630893 -0.060257168486714356 1.8704110383987429 -0.12976644188165662 -0.013759493362158535 0.085062239319086089 1.0529386997222903 -0.13377320021390912 -2.9998899698257442 -0.95585644245147694 -0.078938826918601976 -0.76595965027809132 -0.006967156194150447
decision_type=2 2 2 2 2 2 2 2 2 2 2 2 2 2 2 2 2 2 2 2 2 2 2 2 2 2 2 2 2 2
left_child=1 15 3 5 12 6 -3 10 -9 -10 11 -4 -5 -12 -7 -1 17 -17 -19 -2 24 26 -23 -24 27 -26 -22 28 -21 -29
right_child=19 2 7 4 -6 14 -8 8 9 -11 13 -13 -14 -15 -16 16 -18 18 -20 20 21 22 23 -25 25 -27 -28 29 -30 -31
leaf_value=-0.082652529888974882 -2.5666339014429018e-05 -0.1477749452603507 0.10300921938305906 0.066458453373558199 0.11418236306706034 -0.029673433527417237 -0.034558385880342844 -0.052292872072372022 0.21620747013895822 0.041862166071224789 -0.10721097521583967 0.0011300439335521809 -0.011011443479140508 0.0088924999357791537 -0.00071544282526409279 0.012341792932693149 -0.022563331956690517 -0.031478115536196519 0.0038220891576122374 0.022748565992156106 -0.029204746169649111 -0.0075060231141417105 0.016742967036171542 0.11213674521085147 -0.18443753107635388 -0.030070323003672801 0.047573915304568205 0.025400439058183084 -0.024857995424030763 -0.066981941385316907
leaf_weight=24 90282 37 29 40 28 933 73 26 21 24 40 362 482 25 366 1632 259 249 770 236 54 648 211 56 20 100 564 495 604 44
leaf_count=24 90282 37 29 40 28 933 73 26 21 24 40 362 482 25 366 1632 259 249 770 236 54 648 211 56 20 100 564 495 604 44
internal_value=0 -0.00450276 -0.0127139 -0.0181742 0.00128701 -0.025834 -0.0744358 0.00739969 0.0608884 0.128079 -0.000829967 0.00916003 -0.00478345 -0.0616305 -0.0215939 0.00242413 0.00318517 0.00574378 -0.00473191 0.000222612 0.00764447 0.0197763 0.0055285 0.0374318 -0.00470391 -0.0578302 0.0406771 0 -0.0113593 0.0175785
internal_weight=0 5420 2486 1959 550 1409 110 527 71 45 456 391 522 65 1299 2934 2910 2651 1019 93314 3032 1533 915 267 1499 120 618 1379 840 539
internal_count=98734 5420 2486 1959 550 1409 110 527 71 45 456 391 522 65 1299 2934 2910 2651 1019 93314 3032 1533 915 267 1499 120 618 1379 840 539
is_linear=0
shrinkage=0.1


Tree=32
num_leaves=31
num_cat=0
split_feature=48 31 14 55 35 56 9 61 5 19 58 34 57 21 29 39 32 30 63 39 43 4 43 29 31 62 39 27 46 61
split_gain=11.7914 32.0091 27.7849 27.8538 37.69 35.296 31.8565 21.8482 16.1852 14.6223 11.6717 24.0333 28.2008 21.3041 19.5482 20.1225 19.3636 11.6719 14.7622 12.1 13.2818 11.6986 29.5289 45.9091 21.6663 22.699 14.2533 12.8602 10.3635 8.05156
threshold=1.4570814967155459 0.37057426571846014 -0.11638063564896582 -0.068257149308919893 0.28451538085937506 -0.053619066253304475 -0.14301957190036771 0.60050663352012645 0.063573148101568236 -0.017812881618738171 -2.6814086437225337 -2.421554327011108 2.998483538627625 0.045966163277626045 -0.014864641241729258 0.054518971592187888 -0.067113768309354768 2.6767495870590214 1.1904115676879885 -0.27939695119857783 1.8189898729324343 1.6015064120292666 1.6225523948669436 0.050831580534577377 2.5443630218505864 -0.017884893342852589 -0.39615239202976221 2.5179922580718999 0.4874225407838822 0.53897237777709972
decision_type=2 2 2 2 2 2 2 2 2 2 2 2 2 2 2 2 2 2 2 2 2 2 2 2 2 2 2 2 2 2
left_child=10 2 29 4 -4 8 -7 28 -5 -9 11 13 14 -1 16 -16 -13 21 19 -19 -21 24 26 -24 27 -26 -23 -12 -3 -2
right_child=1 7 3 5 -6 6 -8 9 -10 -11 17 12 -14 -15 15 -17 -18 18 -20 20 -22 22 23 -25 25 -27 -28 -29 -30 -31
leaf_value=-0.026549072572539134 -0.11023718642207508 0.042929253246898266 -0.0088248077427522578 0 0.15644630621531236 -0.011938696873646836 0.047181360363108271 -0.036029388077206605 -0.10138657016770794 -0.13195359313142799 -9.6890209860833087e-06 -0.014375506019776033 -0.097489731348524955 0.096889386719708689 -0.016455106621787209 -0.076983113466597822 0.0242547802410592 -0.082229815890704994 0.066797176992058213 -0.008162575632601244 -0.061522355086606667 0.040292837116442347 0.0097080231293070335 0.063282737024171004 -0.05759394692215717 0.0046156600936915161 0.0002677661996042645 0.016789661518278692 -0.039704128028064868 -0.021569572101815856
leaf_weight=20 27 21 26 21 26 264 137 32 47 42 90011 284 38 37 425 64 236 26 21 561 51 90 892 196 132 100 4383 457 45 22
leaf_count=20 27 21 26 21 26 264 137 32 47 42 90011 284 38 37 425 64 236 26 21 561 51 90 892 196 132 100 4383 457 45 22
internal_value=0 -0.0128651 -0.00213643 0.00451453 0.0733409 -0.00304722 0.00808685 -0.0555636 -0.0692901 -0.0927228 5.95634e-05 -0.0101586 -0.0136891 0.0522131 -0.0103503 -0.0247048 0.0029866 0.000177035 -0.0130736 -0.0159467 -0.0128527 0.000268864 0.00472061 0.0194934 -3.08119e-06 -0.0304622 0.00110272 7.42984e-05 -0.0117566 -0.0734965
internal_weight=0 710 570 521 52 469 401 140 68 74 98024 1104 1047 57 1009 489 520 96920 659 638 612 96261 5561 1088 90700 232 4473 90468 66 49
internal_count=98734 710 570 521 52 469 401 140 68 74 98024 1104 1047 57 1009 489 520 96920 659 638 612 96261 5561 1088 90700 232 4473 90468 66 49
is_linear=0
shrinkage=0.1


Tree=33
num_leaves=31
num_cat=0
split_feature=40 3 34 4 15 43 14 65 35 56 1 11 12 63 64 48 51 12 41 22 39 53 63 34 43 65 63 24 47 59
split_gain=10.9432 19.5675 45.8928 37.6848 32.7812 22.6386 20.7833 26.2265 20.0167 18.781 11.0166 17.223 23.6494 16.1248 14.7946 11.1217 11.0078 10.7557 9.97186 18.1108 26.0234 24.46 19.2208 14.8823 18.3252 15.0779 13.1549 28.6931 29.7318 12.3068
threshold=1.2887202501296999 -0.43900361657142634 -2.421554327011108 0.1584812328219414 1.0988508462905886 1.5780758261680605 2.3181025981903081 0.10010657459497453 0.20975813269615176 0.031011743471026424 -0.3347600102424621 -0.04973280988633632 0.075068227946758284 -0.013483901508152483 -0.13879323005676267 0.60008645057678234 -0.049302589148282998 -0.071640644222497926 -0.38211801648139948 -1.029126703739166 -0.091262836009263978 -0.71330514550209034 0.19542585313320163 0.36191287636756903 1.8189898729324343 1.2294483780860903 -1.2197534441947935 2.9999804496765141 -0.090004958212375627 -2.1109882593154903
decision_type=2 2 2 2 2 2 2 2 2 2 2 2 2 2 2 2 2 2 2 2 2 2 2 2 2 2 2 2 2 2
left_child=10 4 3 -3 -2 6 8 -8 -4 -7 11 13 14 -1 15 -13 -16 -6 19 20 22 -22 -12 25 -25 -21 27 28 -20 -28
right_child=1 2 5 -5 17 9 7 -9 -10 -11 18 12 -14 -15 16 -17 -18 -19 26 23 21 -23 -24 24 -26 -27 29 -29 -30 -31
leaf_value=-0.11247383879921934 0.0086071639234184191 0.15941183859597463 -0.0045856639573219745 -0.0087711376172524905 -0.15782336159707955 -0.009908314759799924 0.0039555124286777292 0.1248895627613357 -0.045316295143251459 -0.11134396112106731 -0.076787189746484741 -0.019793376773308974 0.090886213037813399 -0.022158296658459441 -0.015764582536918339 -0.10204268079351016 0.018094305216252184 -0.047814087914236275 0.064441510149140166 -0.0020677907203868074 -0.0863987234535189 -0.0034462093153358069 0.026192620837603094 0.0049523461790964823 0.063497969074288313 0.01148510546020641 -0.0078043369060459182 0.10699947030030539 0 0.00095277220318857887
leaf_weight=30 40 29 941 22 25 39 64 25 139 38 101 51 23 67 251 27 153 20 84 25902 37 626 20 2609 54 845 1643 32 442 64355
leaf_count=30 40 29 941 22 25 39 64 25 139 38 101 51 23 67 251 27 153 20 84 25902 37 626 20 2609 54 845 1643 32 442 64355
internal_value=0 -0.00886369 -0.00571539 0.0861999 -0.0552037 -0.00961656 -0.00604187 0.0399421 -0.00995095 -0.0619331 9.45092e-05 -0.0133786 -0.00571183 -0.0518808 -0.0106877 -0.0503529 -0.00269482 -0.112997 0.000179454 -0.00132657 -0.0163248 -0.00833562 -0.0589153 -0.000923005 0.00619741 -0.00163568 0.000864117 0.0161488 0.0102585 0.000733218
